<<<<<<< HEAD
{"type":"LSTMTimeStep","options":{"inputSize":4,"hiddenLayers":[8,8],"outputSize":4,"decayRate":0.999,"smoothEps":1e-8,"regc":0.000001,"clipval":5},"hiddenLayers":[{"inputMatrix":{"rows":8,"columns":4,"weights":{"0":-0.14950768649578094,"1":-0.9946422576904297,"2":-3.52607798576355,"3":-3.365579605102539,"4":-0.026053184643387794,"5":1.5603185892105103,"6":-1.2299710512161255,"7":0.31017860770225525,"8":-0.13946382701396942,"9":-0.16348490118980408,"10":1.4145058393478394,"11":-2.1135482788085938,"12":1.1619724035263062,"13":1.2279313802719116,"14":1.528887152671814,"15":1.288135051727295,"16":0.36642855405807495,"17":-2.7935328483581543,"18":1.0863897800445557,"19":0.5886487364768982,"20":-0.5494868159294128,"21":-0.790911078453064,"22":-3.6931684017181396,"23":-2.348816156387329,"24":0.6744545698165894,"25":-2.4103822708129883,"26":2.3000216484069824,"27":-4.557758808135986,"28":-0.40690499544143677,"29":-0.7305051684379578,"30":-2.067058801651001,"31":-4.7112717628479}},"inputHidden":{"rows":8,"columns":8,"weights":{"0":0.7527986764907837,"1":1.646252155303955,"2":-0.246267169713974,"3":0.1075672060251236,"4":0.25325673818588257,"5":0.5068921446800232,"6":0.0662243589758873,"7":1.38266122341156,"8":0.29704558849334717,"9":1.340124487876892,"10":-0.33154794573783875,"11":-0.35351112484931946,"12":0.13094772398471832,"13":-0.3052384555339813,"14":-0.4206591844558716,"15":0.5366997122764587,"16":0.040296606719493866,"17":-1.4945683479309082,"18":0.8525259494781494,"19":0.12059614807367325,"20":0.029479101300239563,"21":0.5512771606445312,"22":-0.5636193156242371,"23":-0.3970090448856354,"24":2.298924207687378,"25":-0.7733617424964905,"26":-1.2997771501541138,"27":-2.8207902908325195,"28":-3.304518222808838,"29":-1.2315707206726074,"30":-0.6396121978759766,"31":1.4290024042129517,"32":0.44247326254844666,"33":0.6368785500526428,"34":1.250822901725769,"35":0.13960424065589905,"36":-0.4069118797779083,"37":-0.29543229937553406,"38":0.8051077127456665,"39":-0.07068231701850891,"40":0.391211599111557,"41":-0.17659685015678406,"42":-0.38640251755714417,"43":0.2739415466785431,"44":0.1398012936115265,"45":0.6281259655952454,"46":1.2921371459960938,"47":0.6225793957710266,"48":-0.1282382309436798,"49":1.0611259937286377,"50":0.7225050330162048,"51":-0.1475459188222885,"52":-0.3811582624912262,"53":-0.4295421242713928,"54":0.8168820738792419,"55":0.5120288133621216,"56":0.2013050764799118,"57":0.19286859035491943,"58":-0.645149290561676,"59":0.1990330070257187,"60":0.3484257459640503,"61":2.3240482807159424,"62":0.6582211852073669,"63":-0.5970278382301331}},"inputBias":{"rows":8,"columns":1,"weights":{"0":4.151888847351074,"1":-2.09478759765625,"2":-0.4180079996585846,"3":-0.102015919983387,"4":0.8952780961990356,"5":0.26268768310546875,"6":-3.693927049636841,"7":0.5855296850204468}},"forgetMatrix":{"rows":8,"columns":4,"weights":{"0":-0.4452598989009857,"1":-0.3043879270553589,"2":-2.702442169189453,"3":-2.007481813430786,"4":-0.6427473425865173,"5":0.6541833877563477,"6":-4.739013671875,"7":0.8543187975883484,"8":-0.5026090741157532,"9":0.6170606017112732,"10":0.42512720823287964,"11":-8.842914581298828,"12":0.8723543286323547,"13":-1.1466364860534668,"14":1.8083823919296265,"15":-1.2077550888061523,"16":0.010289757512509823,"17":-2.540557861328125,"18":1.3359709978103638,"19":-1.501689076423645,"20":-0.2953149378299713,"21":0.45535141229629517,"22":-2.7953906059265137,"23":-1.9337338209152222,"24":-0.29461169242858887,"25":-0.3015974760055542,"26":1.0086826086044312,"27":-1.3940998315811157,"28":-0.7101175785064697,"29":-0.45771273970603943,"30":-2.4323675632476807,"31":-2.1855287551879883}},"forgetHidden":{"rows":8,"columns":8,"weights":{"0":-0.9315091967582703,"1":0.9266042709350586,"2":-0.9687948226928711,"3":0.15702521800994873,"4":0.6603678464889526,"5":0.9845681190490723,"6":0.28281623125076294,"7":-1.2156739234924316,"8":-0.27200233936309814,"9":1.6683303117752075,"10":-0.09547199308872223,"11":0.2631431519985199,"12":-0.09750647842884064,"13":0.9056771397590637,"14":-0.9384401440620422,"15":0.24969305098056793,"16":0.2094208151102066,"17":-0.010027804411947727,"18":-0.2787381708621979,"19":0.2753427028656006,"20":0.6045343279838562,"21":-0.06664865463972092,"22":1.1953184604644775,"23":1.2330056428909302,"24":0.47434958815574646,"25":0.22009754180908203,"26":0.8499237895011902,"27":-0.6835974454879761,"28":-0.5160943865776062,"29":-0.6322363615036011,"30":0.4965488314628601,"31":0.2569514214992523,"32":-0.7232471704483032,"33":-1.944512963294983,"34":0.25611820816993713,"35":0.44174933433532715,"36":0.7080089449882507,"37":-0.789854109287262,"38":0.46589648723602295,"39":0.07577519118785858,"40":0.34409356117248535,"41":-1.0634740591049194,"42":-1.4632846117019653,"43":-0.09036313742399216,"44":-0.043397098779678345,"45":1.3349601030349731,"46":0.35430091619491577,"47":0.6155757308006287,"48":-1.7022278308868408,"49":-0.4001736342906952,"50":0.7173095345497131,"51":0.7369836568832397,"52":0.8208158612251282,"53":0.47982046008110046,"54":1.6233938932418823,"55":-1.2951998710632324,"56":-0.3427125811576843,"57":-1.4769220352172852,"58":-0.033386651426553726,"59":0.4130060076713562,"60":0.4922242760658264,"61":3.057464599609375,"62":0.6845951080322266,"63":-1.5620675086975098}},"forgetBias":{"rows":8,"columns":1,"weights":{"0":0,"1":0,"2":0,"3":0,"4":0,"5":0,"6":0,"7":0}},"outputMatrix":{"rows":8,"columns":4,"weights":{"0":0.05840051546692848,"1":-0.5347988605499268,"2":-3.4313440322875977,"3":-0.9551275372505188,"4":-0.10512207448482513,"5":1.8191258907318115,"6":-1.3901745080947876,"7":0.06013176590204239,"8":0.31380513310432434,"9":1.594895362854004,"10":0.696262538433075,"11":-4.044984817504883,"12":1.8267256021499634,"13":1.0112141370773315,"14":2.507974147796631,"15":-0.5901780128479004,"16":0.8693163394927979,"17":-2.3409342765808105,"18":1.4475864171981812,"19":1.1566510200500488,"20":-0.228700652718544,"21":-0.8533313274383545,"22":-3.3967528343200684,"23":-1.8279788494110107,"24":0.5387152433395386,"25":-2.023855447769165,"26":2.0857925415039062,"27":-4.203341960906982,"28":-0.43424442410469055,"29":-1.2558612823486328,"30":-2.9360523223876953,"31":-3.9285495281219482}},"outputHidden":{"rows":8,"columns":8,"weights":{"0":0.025492118671536446,"1":0.5322297215461731,"2":-0.3224974572658539,"3":-0.16360720992088318,"4":0.44904765486717224,"5":0.7452589273452759,"6":0.15480366349220276,"7":-0.9914839863777161,"8":0.06629901379346848,"9":1.268743872642517,"10":-1.000819444656372,"11":-0.17449252307415009,"12":0.4847434163093567,"13":0.12813840806484222,"14":-0.34630286693573,"15":0.7493973970413208,"16":1.1822389364242554,"17":-0.5918229818344116,"18":-0.09247992932796478,"19":-0.5172979831695557,"20":-0.17520052194595337,"21":0.7955869436264038,"22":0.5543209910392761,"23":1.029194951057434,"24":1.4310663938522339,"25":0.3190186619758606,"26":-1.8215550184249878,"27":-1.5213837623596191,"28":-1.6313838958740234,"29":-0.5616208910942078,"30":-0.46937379240989685,"31":1.7054450511932373,"32":0.773027241230011,"33":0.3910713493824005,"34":0.6645826101303101,"35":-0.7203375101089478,"36":-1.2367942333221436,"37":-0.5704958438873291,"38":-0.30913031101226807,"39":0.4479449987411499,"40":0.677311360836029,"41":-0.20933298766613007,"42":-0.3838001489639282,"43":-0.0840216800570488,"44":-0.21426159143447876,"45":0.35169413685798645,"46":1.0612367391586304,"47":0.8287340402603149,"48":-0.4835050106048584,"49":1.227015495300293,"50":0.2847902178764343,"51":-0.09262263774871826,"52":-0.34508398175239563,"53":-0.23233821988105774,"54":1.0929772853851318,"55":0.2972773611545563,"56":0.400269091129303,"57":0.5538310408592224,"58":-0.10437136143445969,"59":0.3660064935684204,"60":-0.06657559424638748,"61":1.29158616065979,"62":0.5718465447425842,"63":-0.3573095500469208}},"outputBias":{"rows":8,"columns":1,"weights":{"0":2.574352741241455,"1":1.172932505607605,"2":0.9304512143135071,"3":2.9542503356933594,"4":0.39381518959999084,"5":0.576600193977356,"6":-2.9072165489196777,"7":5.314109802246094}},"cellActivationMatrix":{"rows":8,"columns":4,"weights":{"0":0.045734040439128876,"1":0.6533370614051819,"2":-0.0467359684407711,"3":-0.20506928861141205,"4":0.4917949140071869,"5":-3.2522830963134766,"6":1.614097237586975,"7":-1.114874005317688,"8":0.31747156381607056,"9":-0.2521924376487732,"10":-1.3079384565353394,"11":3.9660418033599854,"12":-1.0734021663665771,"13":-0.411702960729599,"14":-1.5281822681427002,"15":1.4273300170898438,"16":0.2665024399757385,"17":2.15887451171875,"18":-2.6615357398986816,"19":2.0737953186035156,"20":0.15546295046806335,"21":-1.5663005113601685,"22":4.452944755554199,"23":1.4173071384429932,"24":-1.1089035272598267,"25":-0.23590698838233948,"26":-1.2614319324493408,"27":0.5743280649185181,"28":0.3632446229457855,"29":0.19027720391750336,"30":0.5349149107933044,"31":-0.8622132539749146}},"cellActivationHidden":{"rows":8,"columns":8,"weights":{"0":1.220611572265625,"1":0.06850378215312958,"2":-1.813433051109314,"3":-2.7740142345428467,"4":-1.3337857723236084,"5":0.16131778061389923,"6":-0.39178505539894104,"7":0.33697158098220825,"8":0.5811028480529785,"9":-2.747161865234375,"10":-0.698755145072937,"11":0.14847132563591003,"12":0.16172301769256592,"13":0.5411797761917114,"14":-0.041474271565675735,"15":-0.05399812385439873,"16":0.0825396254658699,"17":-0.4144672155380249,"18":-0.7880759239196777,"19":-0.392728716135025,"20":-1.0239092111587524,"21":-0.4531857669353485,"22":-0.5248469114303589,"23":-0.22712865471839905,"24":-0.18076713383197784,"25":-0.10162448137998581,"26":0.2751619517803192,"27":0.1991613805294037,"28":0.058563850820064545,"29":0.0016171842580661178,"30":0.3082595765590668,"31":-0.13458672165870667,"32":1.1745986938476562,"33":-1.5138745307922363,"34":0.7632364630699158,"35":-1.007841944694519,"36":-0.18572962284088135,"37":-0.9824414849281311,"38":0.09991143643856049,"39":1.057753086090088,"40":0.015247834846377373,"41":1.1111130714416504,"42":2.279752254486084,"43":0.003023190191015601,"44":-0.6599907279014587,"45":-1.1818221807479858,"46":-1.576843023300171,"47":-0.6057328581809998,"48":-0.4244951903820038,"49":0.13338015973567963,"50":-0.11952126026153564,"51":0.39319726824760437,"52":0.3631797134876251,"53":0.23339757323265076,"54":0.31912562251091003,"55":-0.14785031974315643,"56":0.6948232650756836,"57":-0.08282353729009628,"58":-0.8776722550392151,"59":-1.0376523733139038,"60":-0.9971179962158203,"61":0.17291924357414246,"62":-0.3311922550201416,"63":0.054583899676799774}},"cellActivationBias":{"rows":8,"columns":1,"weights":{"0":0.9373478889465332,"1":-0.49057891964912415,"2":-3.6610782146453857,"3":-3.913414716720581,"4":-6.397321701049805,"5":-1.0070656538009644,"6":-1.901218056678772,"7":1.2982754707336426}}},{"inputMatrix":{"rows":8,"columns":8,"weights":{"0":-1.9509624242782593,"1":-1.3172171115875244,"2":-1.260623812675476,"3":-0.8326494693756104,"4":0.6707199811935425,"5":1.438876986503601,"6":1.0343948602676392,"7":-1.7718702554702759,"8":0.938666820526123,"9":-1.3702903985977173,"10":-0.055844955146312714,"11":-1.4065438508987427,"12":-0.2615642547607422,"13":-2.5917575359344482,"14":0.3121705651283264,"15":0.7901677489280701,"16":1.1030429601669312,"17":-0.5833765864372253,"18":0.35317009687423706,"19":-1.1124019622802734,"20":-1.510170817375183,"21":-1.4839974641799927,"22":-2.5454745292663574,"23":0.5473496913909912,"24":1.7359286546707153,"25":-0.827850341796875,"26":0.9542301893234253,"27":-1.4800596237182617,"28":-1.3882428407669067,"29":-1.5383964776992798,"30":0.6110196709632874,"31":0.7743416428565979,"32":-0.6369522213935852,"33":-0.9801012277603149,"34":0.3980453610420227,"35":-0.5183035135269165,"36":0.13757753372192383,"37":2.406175374984741,"38":1.1721887588500977,"39":-2.7344577312469482,"40":0.15737254917621613,"41":1.3270666599273682,"42":-0.0018286867998540401,"43":-1.2722578048706055,"44":-0.9446017742156982,"45":0.5942732095718384,"46":-0.5107998847961426,"47":0.6080290675163269,"48":1.0659823417663574,"49":-1.5759291648864746,"50":-1.834306240081787,"51":-1.6062891483306885,"52":-0.19964928925037384,"53":-0.2133663445711136,"54":1.4065583944320679,"55":0.3465128540992737,"56":0.07689756900072098,"57":-0.30259549617767334,"58":1.7498594522476196,"59":-0.8187123537063599,"60":-0.4575254023075104,"61":-0.7111947536468506,"62":0.4807682931423187,"63":-1.085769534111023}},"inputHidden":{"rows":8,"columns":8,"weights":{"0":-0.9574993252754211,"1":-0.7350938320159912,"2":0.4588001072406769,"3":0.8809211850166321,"4":-0.37443023920059204,"5":-0.20410338044166565,"6":-0.11098593473434448,"7":2.2820968627929688,"8":1.0226248502731323,"9":-0.8374688029289246,"10":0.053513042628765106,"11":0.2742745578289032,"12":0.8497393131256104,"13":0.027728425338864326,"14":-0.5963051915168762,"15":0.8838953971862793,"16":-1.5351767539978027,"17":0.30376070737838745,"18":-0.29712602496147156,"19":0.8945913910865784,"20":0.13653521239757538,"21":-0.6015528440475464,"22":-0.3233689069747925,"23":-0.6997967958450317,"24":-0.8748877048492432,"25":0.4121863543987274,"26":-1.3213143348693848,"27":1.0366897583007812,"28":-0.002906603505834937,"29":-0.22357617318630219,"30":-0.18182745575904846,"31":-0.254831999540329,"32":-0.4532041549682617,"33":0.5735999345779419,"34":0.3318067491054535,"35":1.2123830318450928,"36":-0.5659304857254028,"37":0.9195491075515747,"38":-1.447672963142395,"39":-0.42258915305137634,"40":-0.5237584114074707,"41":-0.021789675578475,"42":0.5260348320007324,"43":0.8448204398155212,"44":-0.9568228721618652,"45":-0.21252913773059845,"46":-0.9962742924690247,"47":1.2347763776779175,"48":-0.672087550163269,"49":0.8122734427452087,"50":-0.13242469727993011,"51":0.24041295051574707,"52":-0.18683305382728577,"53":0.8120112419128418,"54":-1.059675693511963,"55":-0.07834409922361374,"56":2.0981383323669434,"57":-0.6939837336540222,"58":0.021115818992257118,"59":0.6256589889526367,"60":1.2799103260040283,"61":0.17618568241596222,"62":-0.2094069868326187,"63":0.33540239930152893}},"inputBias":{"rows":8,"columns":1,"weights":{"0":-1.879299283027649,"1":-2.722851276397705,"2":-1.8799915313720703,"3":-2.6835620403289795,"4":-0.8351303935050964,"5":-1.7232158184051514,"6":-2.2443180084228516,"7":0.49016353487968445}},"forgetMatrix":{"rows":8,"columns":8,"weights":{"0":-2.9939005374908447,"1":0.5972344279289246,"2":-0.2211473286151886,"3":0.25103116035461426,"4":1.3092926740646362,"5":1.129831075668335,"6":1.5315724611282349,"7":-2.0345091819763184,"8":-0.18959607183933258,"9":0.47481194138526917,"10":1.675162672996521,"11":0.6315869688987732,"12":0.6153355836868286,"13":-0.6577865481376648,"14":2.865915536880493,"15":-0.4601721465587616,"16":-0.5965644717216492,"17":0.5277456641197205,"18":0.428143173456192,"19":-0.007808066438883543,"20":-0.7565020322799683,"21":0.9205830097198486,"22":-0.4557764530181885,"23":-0.8064336776733398,"24":-0.38581719994544983,"25":0.8122711181640625,"26":1.205773115158081,"27":1.5752109289169312,"28":1.3173468112945557,"29":0.9517145752906799,"30":1.898582935333252,"31":-0.6468114256858826,"32":-1.1078680753707886,"33":0.2749851942062378,"34":0.44939565658569336,"35":0.09671154618263245,"36":0.3321267366409302,"37":1.5660994052886963,"38":0.5903962254524231,"39":-1.7664828300476074,"40":-0.7378512024879456,"41":-1.169455885887146,"42":1.85530424118042,"43":1.2381552457809448,"44":1.602495789527893,"45":1.0682328939437866,"46":1.6227833032608032,"47":-0.4110570251941681,"48":-1.024774432182312,"49":-0.381309449672699,"50":0.12878720462322235,"51":-0.08983755111694336,"52":0.7878696322441101,"53":0.8246944546699524,"54":1.2956409454345703,"55":-1.7641758918762207,"56":-0.6360106468200684,"57":0.18555037677288055,"58":2.8268425464630127,"59":0.49834734201431274,"60":-0.2339935302734375,"61":0.7242368459701538,"62":1.064136028289795,"63":-2.558967351913452}},"forgetHidden":{"rows":8,"columns":8,"weights":{"0":-1.7240301370620728,"1":-1.753822684288025,"2":0.6363602876663208,"3":1.1773666143417358,"4":-0.6262436509132385,"5":-0.4110879600048065,"6":-0.6696001291275024,"7":0.7047632932662964,"8":-0.2347812056541443,"9":-1.6324480772018433,"10":1.3098074197769165,"11":1.4117285013198853,"12":-0.6518821120262146,"13":-0.34576326608657837,"14":-1.3608077764511108,"15":2.0949552059173584,"16":-0.8863717913627625,"17":-0.23773075640201569,"18":0.16557498276233673,"19":0.6218929886817932,"20":0.5959358215332031,"21":-0.43767377734184265,"22":0.14623509347438812,"23":-0.09816065430641174,"24":-1.7332394123077393,"25":-1.0960659980773926,"26":1.0213311910629272,"27":2.0508291721343994,"28":-1.3066966533660889,"29":-1.496589183807373,"30":-1.5438315868377686,"31":1.4551481008529663,"32":-0.7817655801773071,"33":0.26906758546829224,"34":0.26776519417762756,"35":1.42487370967865,"36":-0.578406810760498,"37":-0.013667307794094086,"38":-0.7591887712478638,"39":0.1099419817328453,"40":-1.7435158491134644,"41":-0.3333548903465271,"42":0.7169623374938965,"43":2.2715206146240234,"44":-1.8249760866165161,"45":-2.319112539291382,"46":-1.1426663398742676,"47":1.008002519607544,"48":-1.2341450452804565,"49":-1.029505968093872,"50":1.0592045783996582,"51":0.9768016338348389,"52":-0.4991775155067444,"53":-0.2554961144924164,"54":-1.8591129779815674,"55":0.3181180953979492,"56":0.3318893611431122,"57":-1.4998760223388672,"58":-0.4109102189540863,"59":0.6167816519737244,"60":0.43071576952934265,"61":-1.0236467123031616,"62":-0.6795860528945923,"63":0.06502636522054672}},"forgetBias":{"rows":8,"columns":1,"weights":{"0":0,"1":0,"2":0,"3":0,"4":0,"5":0,"6":0,"7":0}},"outputMatrix":{"rows":8,"columns":8,"weights":{"0":-2.3968942165374756,"1":-0.810737133026123,"2":-0.9308152794837952,"3":-0.5176140069961548,"4":0.9438769221305847,"5":1.8125427961349487,"6":1.2319790124893188,"7":-2.3606154918670654,"8":0.8559603095054626,"9":-1.4573218822479248,"10":0.6384174823760986,"11":-0.9979248642921448,"12":-0.32656732201576233,"13":-2.6573033332824707,"14":0.27812036871910095,"15":0.28379908204078674,"16":-0.27388617396354675,"17":0.7521204352378845,"18":0.7951503396034241,"19":-0.12922672927379608,"20":-0.8612959384918213,"21":-0.4309726655483246,"22":-2.175194263458252,"23":-0.5397725105285645,"24":0.8766435384750366,"25":-0.24587444961071014,"26":0.9335922002792358,"27":-0.9186469316482544,"28":-0.8984481692314148,"29":-0.6776362657546997,"30":0.974601149559021,"31":0.31011831760406494,"32":-0.2793041169643402,"33":-0.9073481559753418,"34":0.015176867134869099,"35":-0.8594793677330017,"36":-0.21943236887454987,"37":2.4118568897247314,"38":0.9866242408752441,"39":-2.434241771697998,"40":0.24136963486671448,"41":1.0295286178588867,"42":-0.30948328971862793,"43":-0.8167781233787537,"44":-0.7163379192352295,"45":0.4806734025478363,"46":-0.5698521137237549,"47":0.8763371706008911,"48":0.33739766478538513,"49":-0.9474453330039978,"50":-1.217597484588623,"51":-1.041878581047058,"52":-0.006944837514311075,"53":0.30031901597976685,"54":1.5409499406814575,"55":-0.586309552192688,"56":-0.30826854705810547,"57":-0.035707902163267136,"58":2.8435873985290527,"59":0.032285869121551514,"60":-0.2346034049987793,"61":-0.5586016178131104,"62":1.2530838251113892,"63":-1.7593642473220825}},"outputHidden":{"rows":8,"columns":8,"weights":{"0":-1.3097023963928223,"1":-1.064849615097046,"2":0.6381124258041382,"3":1.0326173305511475,"4":-0.7212244868278503,"5":-0.21083343029022217,"6":-0.6817722916603088,"7":2.2152438163757324,"8":0.6269630193710327,"9":-0.9411272406578064,"10":0.27308496832847595,"11":0.15963539481163025,"12":0.7370622754096985,"13":-0.3933660387992859,"14":-0.9093260169029236,"15":0.5816478133201599,"16":-1.5132919549942017,"17":-0.6942862868309021,"18":0.6312306523323059,"19":1.705154538154602,"20":-0.7068516612052917,"21":-0.9406344890594482,"22":-1.3833141326904297,"23":0.22965025901794434,"24":-1.2999813556671143,"25":-0.22212634980678558,"26":-0.6671152114868164,"27":1.7052689790725708,"28":-0.6322680115699768,"29":-0.9077442288398743,"30":-1.1296186447143555,"31":0.19611673057079315,"32":-0.09556912630796432,"33":0.6852906346321106,"34":-0.03603322431445122,"35":1.251916766166687,"36":-0.332182377576828,"37":0.984404981136322,"38":-1.1978752613067627,"39":-0.5622041821479797,"40":-0.29713091254234314,"41":-0.1577553004026413,"42":0.3321183919906616,"43":0.8004630208015442,"44":-0.8488215804100037,"45":-0.386836975812912,"46":-0.7064995169639587,"47":1.1501438617706299,"48":-0.8707445859909058,"49":0.010721728205680847,"50":-0.009669646620750427,"51":0.7927976846694946,"52":-0.742051899433136,"53":0.19085071980953217,"54":-2.005666732788086,"55":-0.15078437328338623,"56":1.496214509010315,"57":-0.795687735080719,"58":-0.2560804486274719,"59":0.6782827377319336,"60":1.3940154314041138,"61":-0.45212244987487793,"62":-0.946010410785675,"63":-0.08271997421979904}},"outputBias":{"rows":8,"columns":1,"weights":{"0":-1.4256211519241333,"1":-0.19303828477859497,"2":-1.8900303840637207,"3":-2.2157726287841797,"4":-0.6996687054634094,"5":-0.8666715025901794,"6":-1.6635395288467407,"7":-0.7482967972755432}},"cellActivationMatrix":{"rows":8,"columns":8,"weights":{"0":1.1052690744400024,"1":-0.44217655062675476,"2":-1.9112756252288818,"3":-2.8712997436523438,"4":-1.4723846912384033,"5":-0.5082830190658569,"6":-0.7080482840538025,"7":0.617519199848175,"8":3.020606517791748,"9":-3.2075035572052,"10":0.16280266642570496,"11":-0.07344336062669754,"12":1.1166541576385498,"13":-0.8628537654876709,"14":1.10599684715271,"15":2.5095391273498535,"16":-3.691957950592041,"17":0.933517336845398,"18":0.00803406909108162,"19":2.122011184692383,"20":1.8187282085418701,"21":0.6730721592903137,"22":1.3905322551727295,"23":-2.011267900466919,"24":-2.659595251083374,"25":1.4928902387619019,"26":-0.8964837193489075,"27":1.4797999858856201,"28":1.073060154914856,"29":1.0066990852355957,"30":-0.9459252953529358,"31":-0.27409645915031433,"32":1.1662336587905884,"33":-0.3444174826145172,"34":-1.730466604232788,"35":-2.4752893447875977,"36":-1.3929548263549805,"37":-0.45137226581573486,"38":-0.2607831656932831,"39":0.14952416718006134,"40":1.0450712442398071,"41":0.18063153326511383,"42":-2.666975259780884,"43":-2.8329110145568848,"44":-1.8490056991577148,"45":-0.32843470573425293,"46":-0.9855974316596985,"47":1.209242582321167,"48":0.7990323901176453,"49":0.17663215100765228,"50":-2.393451452255249,"51":-2.542766809463501,"52":-1.3684906959533691,"53":-0.17059879004955292,"54":-0.33289092779159546,"55":-0.1332997977733612,"56":-2.121718406677246,"57":1.4958890676498413,"58":-2.0385148525238037,"59":0.6395164132118225,"60":2.56207537651062,"61":-1.246744155883789,"62":3.066988706588745,"63":0.6213173866271973}},"cellActivationHidden":{"rows":8,"columns":8,"weights":{"0":0.4232274293899536,"1":0.38854849338531494,"2":-0.5413549542427063,"3":-0.2153502106666565,"4":0.2702315151691437,"5":1.0702502727508545,"6":0.333829402923584,"7":-0.3611656427383423,"8":-1.0743041038513184,"9":-2.77357816696167,"10":0.5420491695404053,"11":0.4461672902107239,"12":0.12739913165569305,"13":0.7819364070892334,"14":-0.623904824256897,"15":1.3255884647369385,"16":-0.508242666721344,"17":-1.4336518049240112,"18":1.3742716312408447,"19":1.2322514057159424,"20":-1.5600742101669312,"21":-0.38887009024620056,"22":-1.2850481271743774,"23":0.6025342345237732,"24":0.1843820959329605,"25":-2.387897253036499,"26":1.5141232013702393,"27":0.2283395677804947,"28":-0.5712759494781494,"29":0.6512604355812073,"30":-0.4955044090747833,"31":1.3946187496185303,"32":0.2747616171836853,"33":0.0748487114906311,"34":-0.62937331199646,"35":-1.1228842735290527,"36":0.029040003195405006,"37":0.3681190609931946,"38":0.39174285531044006,"39":-0.6030455231666565,"40":0.5075331330299377,"41":0.09195901453495026,"42":0.17585361003875732,"43":0.3775869607925415,"44":-1.386762261390686,"45":-0.5870148539543152,"46":-0.040419742465019226,"47":0.8267228603363037,"48":0.46125528216362,"49":0.026498865336179733,"50":-0.5149654150009155,"51":-1.172675609588623,"52":0.2706981897354126,"53":0.6730191707611084,"54":0.00009203479567077011,"55":-0.6292033195495605,"56":-1.1546515226364136,"57":-1.0551832914352417,"58":-0.6723256707191467,"59":-1.0801345109939575,"60":0.6381865739822388,"61":-0.7003409266471863,"62":-0.901785671710968,"63":-0.8302829265594482}},"cellActivationBias":{"rows":8,"columns":1,"weights":{"0":0.2701495289802551,"1":-0.8034694194793701,"2":2.2228426933288574,"3":0.22914990782737732,"4":1.5371109247207642,"5":-2.8523316383361816,"6":1.0969884395599365,"7":1.3817298412322998}}}],"outputConnector":{"rows":4,"columns":8,"weights":{"0":-1.9803311824798584,"1":-0.7208437323570251,"2":2.456505298614502,"3":1.721901535987854,"4":-3.4433109760284424,"5":-1.6900054216384888,"6":-2.9949564933776855,"7":-0.049172043800354004,"8":0.007862548343837261,"9":0.3079298734664917,"10":0.888590931892395,"11":2.423654317855835,"12":0.030555540695786476,"13":-2.806962490081787,"14":-0.2386368364095688,"15":1.6934884786605835,"16":1.1780980825424194,"17":-1.7996833324432373,"18":-0.05342710018157959,"19":1.5698416233062744,"20":-0.26731517910957336,"21":0.5336357355117798,"22":0.3287545442581177,"23":1.204532265663147,"24":-0.784384548664093,"25":-0.20609675347805023,"26":-1.0972166061401367,"27":-0.13850551843643188,"28":1.1690694093704224,"29":-2.014066219329834,"30":-0.33290958404541016,"31":-0.9250357747077942}},"output":{"rows":4,"columns":1,"weights":{"0":2.5847342014312744,"1":1.1414625644683838,"2":0.658225953578949,"3":0.42960312962532043}}}
=======
{"type":"LSTMTimeStep","options":{"inputSize":4,"hiddenLayers":[8,8],"outputSize":4,"decayRate":0.999,"smoothEps":1e-8,"regc":0.000001,"clipval":5},"hiddenLayers":[{"inputMatrix":{"rows":8,"columns":4,"weights":{"0":-2.2287063598632812,"1":-3.3848109245300293,"2":-1.7326894998550415,"3":-2.234429359436035,"4":0.509907603263855,"5":-1.0846675634384155,"6":-1.8968967199325562,"7":-1.179671287536621,"8":-1.9836422204971313,"9":-2.079253911972046,"10":-1.1259071826934814,"11":-4.417613506317139,"12":0.9735050201416016,"13":1.3503488302230835,"14":0.09892282634973526,"15":1.4859479665756226,"16":-0.34181228280067444,"17":-0.23655036091804504,"18":1.7567181587219238,"19":1.314836859703064,"20":-0.5043193101882935,"21":-3.1963002681732178,"22":1.0295355319976807,"23":0.879925549030304,"24":0.2631101608276367,"25":-0.9221195578575134,"26":2.045243978500366,"27":0.24531252682209015,"28":-0.34191733598709106,"29":0.38791459798812866,"30":1.7619819641113281,"31":-1.2333087921142578}},"inputHidden":{"rows":8,"columns":8,"weights":{"0":1.3668164014816284,"1":-0.5777482390403748,"2":0.13501444458961487,"3":1.5295417308807373,"4":0.8697435855865479,"5":1.4389421939849854,"6":1.968599796295166,"7":1.443477988243103,"8":-1.9788790941238403,"9":-0.018091337755322456,"10":-1.5759449005126953,"11":-0.08187401294708252,"12":-0.5206042528152466,"13":-0.9284946918487549,"14":-0.009919540025293827,"15":-1.2360224723815918,"16":1.5404608249664307,"17":0.31083035469055176,"18":0.790014386177063,"19":0.2636847198009491,"20":2.117056369781494,"21":2.205188751220703,"22":-0.46783480048179626,"23":1.2850887775421143,"24":-0.5854819416999817,"25":0.44694745540618896,"26":-0.2738208770751953,"27":1.312713861465454,"28":-0.49498891830444336,"29":-0.6682053804397583,"30":-1.380241870880127,"31":-0.9552476406097412,"32":0.5150035619735718,"33":-0.8666538000106812,"34":0.14961490035057068,"35":-0.35195866227149963,"36":0.2800261080265045,"37":0.29529526829719543,"38":-0.32835519313812256,"39":0.044225309044122696,"40":-0.29513394832611084,"41":0.1188848614692688,"42":-0.08386831730604172,"43":0.9693924188613892,"44":0.5013189315795898,"45":0.21011647582054138,"46":-0.18995562195777893,"47":0.16702236235141754,"48":-0.01624217815697193,"49":1.2833360433578491,"50":-0.07078343629837036,"51":0.4109131991863251,"52":-1.184206247329712,"53":-0.4110623598098755,"54":1.3789364099502563,"55":-0.49604353308677673,"56":0.1956743448972702,"57":-0.7181192636489868,"58":0.1861523985862732,"59":1.6380987167358398,"60":-0.9371815323829651,"61":0.2764986753463745,"62":1.8362373113632202,"63":0.5806384682655334}},"inputBias":{"rows":8,"columns":1,"weights":{"0":3.2803428173065186,"1":0.8387404680252075,"2":3.225243330001831,"3":-4.035480499267578,"4":-0.12604932487010956,"5":-0.017674293369054794,"6":-4.3404693603515625,"7":-0.25355803966522217}},"forgetMatrix":{"rows":8,"columns":4,"weights":{"0":-1.5519132614135742,"1":-1.0633628368377686,"2":-2.361152172088623,"3":-2.9304416179656982,"4":-0.3566504716873169,"5":0.5846766829490662,"6":-2.5690762996673584,"7":0.09028711915016174,"8":-0.2844020128250122,"9":-1.1816020011901855,"10":0.09164676815271378,"11":-4.777120590209961,"12":-0.8518721461296082,"13":0.08284702897071838,"14":0.2669733762741089,"15":-1.331114649772644,"16":0.001558850985020399,"17":0.26320335268974304,"18":7.592531204223633,"19":-0.8628790378570557,"20":-0.7666395306587219,"21":-2.5743255615234375,"22":1.2173521518707275,"23":0.6133737564086914,"24":-0.9104184508323669,"25":-1.1033213138580322,"26":1.021447777748108,"27":-0.4685751795768738,"28":0.36375194787979126,"29":0.10740189999341965,"30":0.9945005178451538,"31":-0.603467583656311}},"forgetHidden":{"rows":8,"columns":8,"weights":{"0":1.0486105680465698,"1":-0.14675942063331604,"2":-0.6700323224067688,"3":0.9890018701553345,"4":0.8392303586006165,"5":1.0313777923583984,"6":0.044700272381305695,"7":0.33575597405433655,"8":-0.5354441404342651,"9":-0.9618726968765259,"10":-0.9562377333641052,"11":-0.6549732089042664,"12":1.6369514465332031,"13":0.5303202867507935,"14":-0.5204548835754395,"15":0.8926591277122498,"16":-0.27060213685035706,"17":0.6613607406616211,"18":-0.14410269260406494,"19":-0.013979492709040642,"20":0.2467125803232193,"21":0.29732057452201843,"22":-0.3978158235549927,"23":0.5748016834259033,"24":0.6146940588951111,"25":-1.5752038955688477,"26":3.535889148712158,"27":2.0681381225585938,"28":0.23995062708854675,"29":0.557708203792572,"30":-0.8513464331626892,"31":-0.6079908013343811,"32":0.30272555351257324,"33":-1.5027128458023071,"34":0.6064966917037964,"35":0.9493255615234375,"36":-2.304415464401245,"37":0.2547313868999481,"38":1.8071480989456177,"39":-2.2695090770721436,"40":0.5771241188049316,"41":-0.5834023952484131,"42":1.1846277713775635,"43":1.2787935733795166,"44":0.7934165000915527,"45":0.7760923504829407,"46":0.2251620888710022,"47":0.023183589801192284,"48":1.1944806575775146,"49":-0.25245460867881775,"50":0.5281203985214233,"51":0.15532252192497253,"52":0.08039843291044235,"53":0.7096555233001709,"54":-0.12263243645429611,"55":1.0124434232711792,"56":-0.44387495517730713,"57":-0.4283229410648346,"58":0.4423028230667114,"59":-0.608163058757782,"60":-1.8482927083969116,"61":-1.078370451927185,"62":3.3484201431274414,"63":1.1867194175720215}},"forgetBias":{"rows":8,"columns":1,"weights":{"0":0,"1":0,"2":0,"3":0,"4":0,"5":0,"6":0,"7":0}},"outputMatrix":{"rows":8,"columns":4,"weights":{"0":-2.4174275398254395,"1":-3.7053563594818115,"2":-2.1973133087158203,"3":-2.5078377723693848,"4":0.7550606727600098,"5":1.8800456523895264,"6":-1.413817286491394,"7":-0.8876277804374695,"8":-1.778559684753418,"9":-1.7438734769821167,"10":-1.1234725713729858,"11":-4.57900857925415,"12":1.0906766653060913,"13":1.2431049346923828,"14":0.4047353267669678,"15":1.4099795818328857,"16":-0.034659624099731445,"17":-0.7796083092689514,"18":0.8740264773368835,"19":3.527330160140991,"20":-0.11865171790122986,"21":-2.5287725925445557,"22":1.6799015998840332,"23":1.0699342489242554,"24":0.021015916019678116,"25":0.9722197651863098,"26":2.044290065765381,"27":-0.5491352081298828,"28":0.5981560945510864,"29":0.549984872341156,"30":2.456171989440918,"31":-0.01685629040002823}},"outputHidden":{"rows":8,"columns":8,"weights":{"0":1.2446752786636353,"1":-0.6617839336395264,"2":0.06719963997602463,"3":1.4362385272979736,"4":0.8037611842155457,"5":1.347385048866272,"6":1.4644756317138672,"7":1.8765068054199219,"8":-1.0247917175292969,"9":-0.2835122048854828,"10":-1.44743013381958,"11":-0.10753430426120758,"12":0.6860581636428833,"13":-0.18499183654785156,"14":-0.6639842391014099,"15":-0.5208542943000793,"16":1.444826364517212,"17":0.04204104095697403,"18":0.5854495167732239,"19":0.36481472849845886,"20":2.1792845726013184,"21":2.0556728839874268,"22":-0.42676109075546265,"23":1.3666425943374634,"24":-0.7555550336837769,"25":0.250141978263855,"26":-0.21387332677841187,"27":0.7939693331718445,"28":-0.7436665892601013,"29":-0.8418606519699097,"30":-0.4436081647872925,"31":-1.1471539735794067,"32":-0.03142666816711426,"33":0.6512044668197632,"34":0.5002573728561401,"35":-2.479546308517456,"36":0.5072712302207947,"37":-0.7763527035713196,"38":-0.4978002607822418,"39":-0.005265561863780022,"40":-0.9364457726478577,"41":0.28561916947364807,"42":-0.1577538251876831,"43":0.8185514211654663,"44":-0.1417628973722458,"45":-0.21063204109668732,"46":0.7580665946006775,"47":-0.2648440897464752,"48":0.3807348906993866,"49":-1.0870004892349243,"50":0.03601839765906334,"51":1.4356571435928345,"52":-0.5870662331581116,"53":0.471835196018219,"54":0.5766528844833374,"55":-0.668132483959198,"56":-0.8642847537994385,"57":-0.1017036885023117,"58":0.2628880739212036,"59":-0.3812290132045746,"60":-2.7236673831939697,"61":-1.2669243812561035,"62":2.381304979324341,"63":0.03901396691799164}},"outputBias":{"rows":8,"columns":1,"weights":{"0":6.5595622062683105,"1":3.9492218494415283,"2":5.551426887512207,"3":-3.53167986869812,"4":-2.4637365341186523,"5":1.3332023620605469,"6":-2.38283634185791,"7":-1.2888917922973633}},"cellActivationMatrix":{"rows":8,"columns":4,"weights":{"0":-0.5270536541938782,"1":0.3818407952785492,"2":1.3052362203598022,"3":0.8245462775230408,"4":-1.3310253620147705,"5":-2.621173143386841,"6":-2.15094256401062,"7":-1.470691442489624,"8":-0.1677919626235962,"9":-0.378865122795105,"10":0.8013721108436584,"11":1.4598777294158936,"12":0.6690013408660889,"13":0.6844508647918701,"14":2.2975988388061523,"15":-4.360348224639893,"16":0.10492381453514099,"17":0.6323371529579163,"18":-2.610203981399536,"19":-2.2349557876586914,"20":0.28156882524490356,"21":0.3463083505630493,"22":-3.587012529373169,"23":0.96696537733078,"24":-1.0147567987442017,"25":-2.687668800354004,"26":2.28994083404541,"27":-1.4372588396072388,"28":-0.2959689795970917,"29":-0.22270004451274872,"30":-3.700801134109497,"31":3.171943426132202}},"cellActivationHidden":{"rows":8,"columns":8,"weights":{"0":1.8028556108474731,"1":-0.4036562144756317,"2":0.9187237024307251,"3":0.11495404690504074,"4":1.3308393955230713,"5":1.5172450542449951,"6":-1.8128166198730469,"7":0.5674133896827698,"8":-0.015591968782246113,"9":-2.2619173526763916,"10":0.9344690442085266,"11":1.5338289737701416,"12":-0.2557721734046936,"13":0.9115956425666809,"14":0.9575749635696411,"15":-0.2813374698162079,"16":1.4609531164169312,"17":-0.25988805294036865,"18":-0.8400539755821228,"19":-0.8298507332801819,"20":0.4678305983543396,"21":0.6492384672164917,"22":-0.05335026606917381,"23":2.7405190467834473,"24":-0.970084011554718,"25":0.07621876150369644,"26":-0.840195894241333,"27":-1.7403383255004883,"28":0.18301880359649658,"29":-0.46047747135162354,"30":-0.45398393273353577,"31":0.30420148372650146,"32":-1.2995350360870361,"33":0.3241357207298279,"34":-0.35672226548194885,"35":1.9129382371902466,"36":-0.667843222618103,"37":-0.3200894296169281,"38":0.48897385597229004,"39":-1.4401217699050903,"40":-0.982956051826477,"41":1.9610382318496704,"42":-2.543063163757324,"43":-1.2395334243774414,"44":1.4814743995666504,"45":-1.6992745399475098,"46":-1.290787696838379,"47":-1.1732525825500488,"48":2.2157366275787354,"49":-0.9984226226806641,"50":-0.8291615843772888,"51":0.3665975332260132,"52":1.070723056793213,"53":1.0363962650299072,"54":-1.7360912561416626,"55":2.178910970687866,"56":0.20118361711502075,"57":-0.10948345065116882,"58":-1.604537844657898,"59":0.2759729027748108,"60":0.26250261068344116,"61":0.1931149959564209,"62":0.6123647689819336,"63":-0.32144811749458313}},"cellActivationBias":{"rows":8,"columns":1,"weights":{"0":-0.18967695534229279,"1":5.507961273193359,"2":-0.5453491806983948,"3":-1.7647664546966553,"4":0.37372860312461853,"5":-4.822754383087158,"6":2.560401678085327,"7":-1.1607770919799805}}},{"inputMatrix":{"rows":8,"columns":8,"weights":{"0":-1.6340501308441162,"1":2.6002814769744873,"2":-1.9583803415298462,"3":-0.00687811803072691,"4":0.3474070429801941,"5":-1.713882565498352,"6":0.5727335214614868,"7":-1.5079362392425537,"8":-1.7191402912139893,"9":0.8002734184265137,"10":-0.6221219897270203,"11":0.41688498854637146,"12":-0.9539178013801575,"13":-1.5789284706115723,"14":1.0010859966278076,"15":-1.6451661586761475,"16":-2.2062127590179443,"17":-0.32476940751075745,"18":-0.4428770840167999,"19":-0.7122554779052734,"20":-1.2467098236083984,"21":-2.1493067741394043,"22":-0.5431197285652161,"23":0.10679855197668076,"24":-1.4989067316055298,"25":0.6755856871604919,"26":-1.7949970960617065,"27":-0.09311576187610626,"28":-1.5075668096542358,"29":-1.5601063966751099,"30":0.15437503159046173,"31":-1.7901997566223145,"32":-2.5929720401763916,"33":1.362457513809204,"34":-1.2477701902389526,"35":-0.26908886432647705,"36":-0.9801706671714783,"37":-2.5921273231506348,"38":1.0156750679016113,"39":-2.0054337978363037,"40":-0.5877882242202759,"41":-0.7852640151977539,"42":1.0954750776290894,"43":-1.353771448135376,"44":-0.6968626379966736,"45":0.005654242821037769,"46":1.180206060409546,"47":0.9912262558937073,"48":-0.7649773955345154,"49":-2.569716215133667,"50":0.2063007950782776,"51":0.8483173251152039,"52":-2.4903459548950195,"53":-1.3274203538894653,"54":0.34098726511001587,"55":-2.8978283405303955,"56":-1.220162272453308,"57":1.0951359272003174,"58":0.8527075052261353,"59":1.5152076482772827,"60":-2.332932233810425,"61":-2.63323974609375,"62":2.12153697013855,"63":-0.7315816283226013}},"inputHidden":{"rows":8,"columns":8,"weights":{"0":0.8654922246932983,"1":1.037676453590393,"2":-1.0738307237625122,"3":-1.7781054973602295,"4":-2.0204989910125732,"5":0.05421517416834831,"6":-1.4308363199234009,"7":-1.6867268085479736,"8":-0.17271044850349426,"9":0.06336098164319992,"10":0.08999912440776825,"11":-0.3187105357646942,"12":0.023349612951278687,"13":0.842144250869751,"14":0.42091837525367737,"15":-0.3003099262714386,"16":0.2631172239780426,"17":0.2718876004219055,"18":0.7591550946235657,"19":0.24121494591236115,"20":-0.2875288128852844,"21":-0.5166627168655396,"22":-0.09216155111789703,"23":-0.17663200199604034,"24":2.3041818141937256,"25":0.7446663975715637,"26":-1.9533162117004395,"27":-1.5341768264770508,"28":-1.4953655004501343,"29":-0.006016057450324297,"30":-1.614473581314087,"31":-1.7123688459396362,"32":0.7543911933898926,"33":0.4347465932369232,"34":-0.8745920658111572,"35":-0.8061714768409729,"36":-0.9151552319526672,"37":-0.38733184337615967,"38":-1.3671165704727173,"39":-1.6900835037231445,"40":-0.27943000197410583,"41":-1.323155403137207,"42":-0.41464918851852417,"43":-0.02713434398174286,"44":0.20775222778320312,"45":-0.2947878837585449,"46":0.33515670895576477,"47":0.03482753783464432,"48":0.5804922580718994,"49":1.1663508415222168,"50":-0.8503361940383911,"51":0.09462662041187286,"52":-0.4548298120498657,"53":0.9790549874305725,"54":-1.0661776065826416,"55":-0.8012140989303589,"56":0.5911885499954224,"57":0.9793570041656494,"58":-0.2255587875843048,"59":0.34424111247062683,"60":-0.8965255618095398,"61":1.8808873891830444,"62":-0.6711962223052979,"63":-0.9182305335998535}},"inputBias":{"rows":8,"columns":1,"weights":{"0":1.969264268875122,"1":-2.115659475326538,"2":-0.7962174415588379,"3":3.694891929626465,"4":1.7842143774032593,"5":0.37488773465156555,"6":2.74837064743042,"7":0.7658611536026001}},"forgetMatrix":{"rows":8,"columns":8,"weights":{"0":0.4287559986114502,"1":0.9830252528190613,"2":0.3080209493637085,"3":-0.5456247925758362,"4":1.6333229541778564,"5":0.3978422284126282,"6":-0.5636066198348999,"7":1.1921982765197754,"8":0.446889728307724,"9":0.8805869817733765,"10":-1.2790216207504272,"11":0.4799864590167999,"12":2.9358954429626465,"13":0.5838887691497803,"14":-1.1186972856521606,"15":0.02804751507937908,"16":0.7401126623153687,"17":-0.6114219427108765,"18":1.8674802780151367,"19":-0.6247934103012085,"20":-0.23812659084796906,"21":0.3257903754711151,"22":-0.3871665596961975,"23":1.5436002016067505,"24":1.6135673522949219,"25":-0.7408824563026428,"26":1.831433892250061,"27":1.3047429323196411,"28":-0.990575909614563,"29":0.6993738412857056,"30":0.5299237966537476,"31":1.4811886548995972,"32":0.31216198205947876,"33":-0.8487451076507568,"34":0.8901996612548828,"35":0.02032768353819847,"36":1.0408395528793335,"37":0.5675984025001526,"38":-0.522520899772644,"39":0.7542920708656311,"40":1.170704960823059,"41":0.2983458638191223,"42":0.7988032698631287,"43":0.6929462552070618,"44":0.5855790376663208,"45":0.9212526082992554,"46":-0.10459544509649277,"47":3.534691572189331,"48":1.644221544265747,"49":-1.2381263971328735,"50":1.3580752611160278,"51":-0.7582067251205444,"52":0.2305346131324768,"53":1.5876058340072632,"54":0.020927757024765015,"55":0.499166339635849,"56":1.678073763847351,"57":-0.8545635342597961,"58":2.0114662647247314,"59":0.7026559710502625,"60":-0.6994158029556274,"61":0.6962285041809082,"62":0.9691996574401855,"63":4.39418888092041}},"forgetHidden":{"rows":8,"columns":8,"weights":{"0":-1.7508621215820312,"1":-0.5576189160346985,"2":1.308016061782837,"3":1.0804665088653564,"4":0.9078546762466431,"5":0.7961918115615845,"6":2.029340982437134,"7":0.4915398955345154,"8":-0.6971064805984497,"9":-0.5163242220878601,"10":1.7910794019699097,"11":0.35298943519592285,"12":0.3233776390552521,"13":-0.08084554225206375,"14":1.1971991062164307,"15":1.1040393114089966,"16":-1.6729705333709717,"17":-1.335272192955017,"18":1.3893623352050781,"19":1.210921287536621,"20":1.0749520063400269,"21":-0.496338814496994,"22":2.3946805000305176,"23":1.1748489141464233,"24":-1.7263468503952026,"25":-0.9224266409873962,"26":0.684781014919281,"27":2.115546226501465,"28":1.6790636777877808,"29":1.5651254653930664,"30":1.403586983680725,"31":-0.010409802198410034,"32":-2.1334116458892822,"33":-0.7888228297233582,"34":1.696689248085022,"35":1.5790002346038818,"36":1.2685134410858154,"37":0.462909996509552,"38":1.614305019378662,"39":1.120503306388855,"40":-1.7161304950714111,"41":-1.2495019435882568,"42":1.2481807470321655,"43":0.9588024020195007,"44":1.6712636947631836,"45":0.7880710959434509,"46":1.279982089996338,"47":0.5167226195335388,"48":-1.0154086351394653,"49":-1.011083722114563,"50":0.507759690284729,"51":0.9856498837471008,"52":1.4414008855819702,"53":0.4356415271759033,"54":1.2936750650405884,"55":1.0891904830932617,"56":-1.2609963417053223,"57":-1.0064009428024292,"58":0.8947405815124512,"59":0.7854194641113281,"60":0.5471289753913879,"61":-0.06924114376306534,"62":1.3245042562484741,"63":0.8871871829032898}},"forgetBias":{"rows":8,"columns":1,"weights":{"0":0,"1":0,"2":0,"3":0,"4":0,"5":0,"6":0,"7":0}},"outputMatrix":{"rows":8,"columns":8,"weights":{"0":-0.5442845821380615,"1":1.080000877380371,"2":-1.5158462524414062,"3":-0.63039231300354,"4":0.7337666153907776,"5":0.04472648352384567,"6":-0.5578803420066833,"7":-0.1765480488538742,"8":-0.3006015717983246,"9":0.1590985506772995,"10":-0.5252219438552856,"11":1.2277308702468872,"12":0.8122749328613281,"13":0.03827968239784241,"14":-0.42901086807250977,"15":-0.6740847826004028,"16":-0.9248116612434387,"17":-0.7228896617889404,"18":0.20961466431617737,"19":-0.47413405776023865,"20":-1.034730315208435,"21":-0.6204319596290588,"22":-0.10816880315542221,"23":0.5765085220336914,"24":0.022159606218338013,"25":0.41758161783218384,"26":-0.3620988428592682,"27":0.09259843826293945,"28":0.4395083487033844,"29":0.45840588212013245,"30":-0.7305687069892883,"31":0.40761712193489075,"32":-0.680152952671051,"33":0.431308388710022,"34":-0.39986085891723633,"35":0.05564922094345093,"36":1.1269465684890747,"37":0.17764925956726074,"38":-0.7153629064559937,"39":0.06144474446773529,"40":-0.6463674306869507,"41":-0.05610483139753342,"42":1.1180343627929688,"43":-1.6698439121246338,"44":-0.8944608569145203,"45":-0.2231174260377884,"46":1.136378288269043,"47":0.9417585134506226,"48":0.3865123689174652,"49":-2.212777614593506,"50":1.0927746295928955,"51":0.7457718253135681,"52":0.586972177028656,"53":1.7956358194351196,"54":-0.506977379322052,"55":-0.5512424111366272,"56":0.050121523439884186,"57":1.2743589878082275,"58":0.464514821767807,"59":-0.5423531532287598,"60":-0.8529524207115173,"61":-1.0001239776611328,"62":0.9114186763763428,"63":0.9408128261566162}},"outputHidden":{"rows":8,"columns":8,"weights":{"0":-0.22882844507694244,"1":0.31767842173576355,"2":-0.05415816232562065,"3":-0.7826486825942993,"4":-0.7413966655731201,"5":-0.17671124637126923,"6":-0.14372731745243073,"7":0.10383488982915878,"8":-1.3328872919082642,"9":-1.2924249172210693,"10":1.7631412744522095,"11":0.35804009437561035,"12":0.8013990521430969,"13":-0.19274304807186127,"14":1.3026254177093506,"15":1.5231035947799683,"16":-0.2105441391468048,"17":-0.21507950127124786,"18":0.589576244354248,"19":0.5430099368095398,"20":-0.019031064584851265,"21":-0.6885687708854675,"22":0.8226988315582275,"23":0.8017743229866028,"24":0.16564086079597473,"25":-0.8732404708862305,"26":0.29139232635498047,"27":0.27406200766563416,"28":0.16573072969913483,"29":0.14402322471141815,"30":0.516889750957489,"31":0.21582385897636414,"32":-1.242541790008545,"33":-1.2082571983337402,"34":1.2547993659973145,"35":0.796268105506897,"36":1.2404087781906128,"37":-0.4122544527053833,"38":1.0019139051437378,"39":0.9495344758033752,"40":-0.21200710535049438,"41":-1.4332447052001953,"42":-0.2844094932079315,"43":-0.01073488686233759,"44":0.15215672552585602,"45":-0.8047592043876648,"46":0.3029068112373352,"47":-0.2422703057527542,"48":-0.45200103521347046,"49":-1.7353135347366333,"50":0.06536947935819626,"51":0.5390139222145081,"52":0.7827764749526978,"53":0.05750526860356331,"54":0.5519430041313171,"55":1.3035588264465332,"56":-0.1499737799167633,"57":-0.1464664191007614,"58":0.7739822268486023,"59":0.42702293395996094,"60":0.19740799069404602,"61":0.1895199865102768,"62":0.720559298992157,"63":0.518696665763855}},"outputBias":{"rows":8,"columns":1,"weights":{"0":1.0240447521209717,"1":-2.0619380474090576,"2":-1.949973702430725,"3":-1.3444157838821411,"4":-1.5867292881011963,"5":1.7833781242370605,"6":-4.00927734375,"7":-1.6685705184936523}},"cellActivationMatrix":{"rows":8,"columns":8,"weights":{"0":-1.4306840896606445,"1":0.435396283864975,"2":-0.3540523946285248,"3":-0.08460652083158493,"4":-0.5198488235473633,"5":-1.4438220262527466,"6":0.05574909225106239,"7":-1.5834431648254395,"8":-0.7248829007148743,"9":-0.3270803689956665,"10":-1.4554579257965088,"11":0.7971371412277222,"12":-2.08620023727417,"13":-1.4918015003204346,"14":1.4223557710647583,"15":-2.555109739303589,"16":2.165072441101074,"17":0.8197047114372253,"18":-1.354671597480774,"19":1.363295555114746,"20":3.215278387069702,"21":3.70105242729187,"22":-3.4705536365509033,"23":-0.1388649195432663,"24":2.218421459197998,"25":0.20850543677806854,"26":2.60408353805542,"27":1.8599939346313477,"28":0.5753180384635925,"29":1.1349401473999023,"30":0.6036875247955322,"31":2.9936113357543945,"32":1.7974574565887451,"33":-0.07071171700954437,"34":-0.08327595889568329,"35":0.4566122591495514,"36":0.9460868835449219,"37":1.4714603424072266,"38":-0.38364750146865845,"39":1.1440064907073975,"40":-0.12933415174484253,"41":-0.26682206988334656,"42":-0.8727074265480042,"43":1.842982292175293,"44":-0.12697863578796387,"45":-1.0657873153686523,"46":2.3941988945007324,"47":-1.4612219333648682,"48":2.019113063812256,"49":0.4794241189956665,"50":0.6216170191764832,"51":-0.21454885601997375,"52":-0.07835670560598373,"53":1.1855435371398926,"54":0.2002580463886261,"55":3.389751672744751,"56":1.7308768033981323,"57":-0.8415175676345825,"58":-1.4605692625045776,"59":1.0522392988204956,"60":1.6166828870773315,"61":3.8781845569610596,"62":-2.8822808265686035,"63":-0.5297232270240784}},"cellActivationHidden":{"rows":8,"columns":8,"weights":{"0":0.3629702627658844,"1":0.36801689863204956,"2":-0.4055764377117157,"3":-0.29199832677841187,"4":-0.5341062545776367,"5":-0.18000420928001404,"6":-0.6407915353775024,"7":-0.5184195041656494,"8":2.6372251510620117,"9":0.1367376297712326,"10":-1.9852184057235718,"11":-0.4957359731197357,"12":-0.8569043278694153,"13":-0.0627305656671524,"14":-1.8697173595428467,"15":-2.141326665878296,"16":0.2620314061641693,"17":1.0039000511169434,"18":-1.2876993417739868,"19":-1.1955324411392212,"20":-1.2941851615905762,"21":0.7900136709213257,"22":-1.0884238481521606,"23":1.5175503492355347,"24":-2.0205647945404053,"25":-0.5830751657485962,"26":1.2327280044555664,"27":0.4463980495929718,"28":0.7021474838256836,"29":0.8201607465744019,"30":0.9914606809616089,"31":0.6020505428314209,"32":-0.6369311213493347,"33":0.11659995466470718,"34":-0.19656190276145935,"35":0.16698838770389557,"36":-0.1910964846611023,"37":0.1336977332830429,"38":0.29507073760032654,"39":0.6274027228355408,"40":-0.5147413611412048,"41":-0.21286728978157043,"42":0.9796568155288696,"43":0.2810309827327728,"44":-0.30145108699798584,"45":-1.5530558824539185,"46":-0.0294597540050745,"47":0.581009566783905,"48":0.4817783534526825,"49":-0.6228247880935669,"50":-0.3959254324436188,"51":-0.8509275913238525,"52":0.12972776591777802,"53":-0.8660175204277039,"54":-0.24864856898784637,"55":0.1661331206560135,"56":-0.17237289249897003,"57":0.9142391681671143,"58":-0.2847358286380768,"59":-1.2517201900482178,"60":-0.7061272859573364,"61":-0.14706313610076904,"62":-1.0855824947357178,"63":-0.8572255969047546}},"cellActivationBias":{"rows":8,"columns":1,"weights":{"0":4.0454020500183105,"1":-2.0772767066955566,"2":-1.0055269002914429,"3":-2.3454904556274414,"4":-3.1665573120117188,"5":-0.9093961715698242,"6":-2.678586483001709,"7":0.07375223189592361}}}],"outputConnector":{"rows":4,"columns":8,"weights":{"0":0.486738920211792,"1":1.3035228252410889,"2":-0.341642826795578,"3":-0.9620494246482849,"4":-0.4877893626689911,"5":0.30970266461372375,"6":1.299270749092102,"7":-1.2621824741363525,"8":-1.592900037765503,"9":-0.8363829851150513,"10":1.7907843589782715,"11":-1.0492697954177856,"12":0.28426074981689453,"13":-0.6296852231025696,"14":-0.31614646315574646,"15":2.345461130142212,"16":-2.1308412551879883,"17":-0.1189088299870491,"18":0.8928753137588501,"19":2.284285545349121,"20":1.793096661567688,"21":1.4087530374526978,"22":0.7519894242286682,"23":0.9675613045692444,"24":-1.6867189407348633,"25":-2.3371102809906006,"26":0.6424912810325623,"27":1.2308508157730103,"28":1.9553399085998535,"29":-1.586617350578308,"30":2.7143709659576416,"31":-0.44207510352134705}},"output":{"rows":4,"columns":1,"weights":{"0":0.2896506190299988,"1":1.4301637411117554,"2":2.6663002967834473,"3":1.485464096069336}}}
>>>>>>> cc9ed1f0c6d05ceb2d980cddf747154072d9f94f
