
{"type":"LSTMTimeStep","options":{"inputSize":4,"hiddenLayers":[8,8],"outputSize":4,"decayRate":0.999,"smoothEps":1e-8,"regc":0.000001,"clipval":5},"hiddenLayers":[{"inputMatrix":{"rows":8,"columns":4,"weights":{"0":-2.2287063598632812,"1":-3.3848109245300293,"2":-1.7326894998550415,"3":-2.234429359436035,"4":0.509907603263855,"5":-1.0846675634384155,"6":-1.8968967199325562,"7":-1.179671287536621,"8":-1.9836422204971313,"9":-2.079253911972046,"10":-1.1259071826934814,"11":-4.417613506317139,"12":0.9735050201416016,"13":1.3503488302230835,"14":0.09892282634973526,"15":1.4859479665756226,"16":-0.34181228280067444,"17":-0.23655036091804504,"18":1.7567181587219238,"19":1.314836859703064,"20":-0.5043193101882935,"21":-3.1963002681732178,"22":1.0295355319976807,"23":0.879925549030304,"24":0.2631101608276367,"25":-0.9221195578575134,"26":2.045243978500366,"27":0.24531252682209015,"28":-0.34191733598709106,"29":0.38791459798812866,"30":1.7619819641113281,"31":-1.2333087921142578}},"inputHidden":{"rows":8,"columns":8,"weights":{"0":1.3668164014816284,"1":-0.5777482390403748,"2":0.13501444458961487,"3":1.5295417308807373,"4":0.8697435855865479,"5":1.4389421939849854,"6":1.968599796295166,"7":1.443477988243103,"8":-1.9788790941238403,"9":-0.018091337755322456,"10":-1.5759449005126953,"11":-0.08187401294708252,"12":-0.5206042528152466,"13":-0.9284946918487549,"14":-0.009919540025293827,"15":-1.2360224723815918,"16":1.5404608249664307,"17":0.31083035469055176,"18":0.790014386177063,"19":0.2636847198009491,"20":2.117056369781494,"21":2.205188751220703,"22":-0.46783480048179626,"23":1.2850887775421143,"24":-0.5854819416999817,"25":0.44694745540618896,"26":-0.2738208770751953,"27":1.312713861465454,"28":-0.49498891830444336,"29":-0.6682053804397583,"30":-1.380241870880127,"31":-0.9552476406097412,"32":0.5150035619735718,"33":-0.8666538000106812,"34":0.14961490035057068,"35":-0.35195866227149963,"36":0.2800261080265045,"37":0.29529526829719543,"38":-0.32835519313812256,"39":0.044225309044122696,"40":-0.29513394832611084,"41":0.1188848614692688,"42":-0.08386831730604172,"43":0.9693924188613892,"44":0.5013189315795898,"45":0.21011647582054138,"46":-0.18995562195777893,"47":0.16702236235141754,"48":-0.01624217815697193,"49":1.2833360433578491,"50":-0.07078343629837036,"51":0.4109131991863251,"52":-1.184206247329712,"53":-0.4110623598098755,"54":1.3789364099502563,"55":-0.49604353308677673,"56":0.1956743448972702,"57":-0.7181192636489868,"58":0.1861523985862732,"59":1.6380987167358398,"60":-0.9371815323829651,"61":0.2764986753463745,"62":1.8362373113632202,"63":0.5806384682655334}},"inputBias":{"rows":8,"columns":1,"weights":{"0":3.2803428173065186,"1":0.8387404680252075,"2":3.225243330001831,"3":-4.035480499267578,"4":-0.12604932487010956,"5":-0.017674293369054794,"6":-4.3404693603515625,"7":-0.25355803966522217}},"forgetMatrix":{"rows":8,"columns":4,"weights":{"0":-1.5519132614135742,"1":-1.0633628368377686,"2":-2.361152172088623,"3":-2.9304416179656982,"4":-0.3566504716873169,"5":0.5846766829490662,"6":-2.5690762996673584,"7":0.09028711915016174,"8":-0.2844020128250122,"9":-1.1816020011901855,"10":0.09164676815271378,"11":-4.777120590209961,"12":-0.8518721461296082,"13":0.08284702897071838,"14":0.2669733762741089,"15":-1.331114649772644,"16":0.001558850985020399,"17":0.26320335268974304,"18":7.592531204223633,"19":-0.8628790378570557,"20":-0.7666395306587219,"21":-2.5743255615234375,"22":1.2173521518707275,"23":0.6133737564086914,"24":-0.9104184508323669,"25":-1.1033213138580322,"26":1.021447777748108,"27":-0.4685751795768738,"28":0.36375194787979126,"29":0.10740189999341965,"30":0.9945005178451538,"31":-0.603467583656311}},"forgetHidden":{"rows":8,"columns":8,"weights":{"0":1.0486105680465698,"1":-0.14675942063331604,"2":-0.6700323224067688,"3":0.9890018701553345,"4":0.8392303586006165,"5":1.0313777923583984,"6":0.044700272381305695,"7":0.33575597405433655,"8":-0.5354441404342651,"9":-0.9618726968765259,"10":-0.9562377333641052,"11":-0.6549732089042664,"12":1.6369514465332031,"13":0.5303202867507935,"14":-0.5204548835754395,"15":0.8926591277122498,"16":-0.27060213685035706,"17":0.6613607406616211,"18":-0.14410269260406494,"19":-0.013979492709040642,"20":0.2467125803232193,"21":0.29732057452201843,"22":-0.3978158235549927,"23":0.5748016834259033,"24":0.6146940588951111,"25":-1.5752038955688477,"26":3.535889148712158,"27":2.0681381225585938,"28":0.23995062708854675,"29":0.557708203792572,"30":-0.8513464331626892,"31":-0.6079908013343811,"32":0.30272555351257324,"33":-1.5027128458023071,"34":0.6064966917037964,"35":0.9493255615234375,"36":-2.304415464401245,"37":0.2547313868999481,"38":1.8071480989456177,"39":-2.2695090770721436,"40":0.5771241188049316,"41":-0.5834023952484131,"42":1.1846277713775635,"43":1.2787935733795166,"44":0.7934165000915527,"45":0.7760923504829407,"46":0.2251620888710022,"47":0.023183589801192284,"48":1.1944806575775146,"49":-0.25245460867881775,"50":0.5281203985214233,"51":0.15532252192497253,"52":0.08039843291044235,"53":0.7096555233001709,"54":-0.12263243645429611,"55":1.0124434232711792,"56":-0.44387495517730713,"57":-0.4283229410648346,"58":0.4423028230667114,"59":-0.608163058757782,"60":-1.8482927083969116,"61":-1.078370451927185,"62":3.3484201431274414,"63":1.1867194175720215}},"forgetBias":{"rows":8,"columns":1,"weights":{"0":0,"1":0,"2":0,"3":0,"4":0,"5":0,"6":0,"7":0}},"outputMatrix":{"rows":8,"columns":4,"weights":{"0":-2.4174275398254395,"1":-3.7053563594818115,"2":-2.1973133087158203,"3":-2.5078377723693848,"4":0.7550606727600098,"5":1.8800456523895264,"6":-1.413817286491394,"7":-0.8876277804374695,"8":-1.778559684753418,"9":-1.7438734769821167,"10":-1.1234725713729858,"11":-4.57900857925415,"12":1.0906766653060913,"13":1.2431049346923828,"14":0.4047353267669678,"15":1.4099795818328857,"16":-0.034659624099731445,"17":-0.7796083092689514,"18":0.8740264773368835,"19":3.527330160140991,"20":-0.11865171790122986,"21":-2.5287725925445557,"22":1.6799015998840332,"23":1.0699342489242554,"24":0.021015916019678116,"25":0.9722197651863098,"26":2.044290065765381,"27":-0.5491352081298828,"28":0.5981560945510864,"29":0.549984872341156,"30":2.456171989440918,"31":-0.01685629040002823}},"outputHidden":{"rows":8,"columns":8,"weights":{"0":1.2446752786636353,"1":-0.6617839336395264,"2":0.06719963997602463,"3":1.4362385272979736,"4":0.8037611842155457,"5":1.347385048866272,"6":1.4644756317138672,"7":1.8765068054199219,"8":-1.0247917175292969,"9":-0.2835122048854828,"10":-1.44743013381958,"11":-0.10753430426120758,"12":0.6860581636428833,"13":-0.18499183654785156,"14":-0.6639842391014099,"15":-0.5208542943000793,"16":1.444826364517212,"17":0.04204104095697403,"18":0.5854495167732239,"19":0.36481472849845886,"20":2.1792845726013184,"21":2.0556728839874268,"22":-0.42676109075546265,"23":1.3666425943374634,"24":-0.7555550336837769,"25":0.250141978263855,"26":-0.21387332677841187,"27":0.7939693331718445,"28":-0.7436665892601013,"29":-0.8418606519699097,"30":-0.4436081647872925,"31":-1.1471539735794067,"32":-0.03142666816711426,"33":0.6512044668197632,"34":0.5002573728561401,"35":-2.479546308517456,"36":0.5072712302207947,"37":-0.7763527035713196,"38":-0.4978002607822418,"39":-0.005265561863780022,"40":-0.9364457726478577,"41":0.28561916947364807,"42":-0.1577538251876831,"43":0.8185514211654663,"44":-0.1417628973722458,"45":-0.21063204109668732,"46":0.7580665946006775,"47":-0.2648440897464752,"48":0.3807348906993866,"49":-1.0870004892349243,"50":0.03601839765906334,"51":1.4356571435928345,"52":-0.5870662331581116,"53":0.471835196018219,"54":0.5766528844833374,"55":-0.668132483959198,"56":-0.8642847537994385,"57":-0.1017036885023117,"58":0.2628880739212036,"59":-0.3812290132045746,"60":-2.7236673831939697,"61":-1.2669243812561035,"62":2.381304979324341,"63":0.03901396691799164}},"outputBias":{"rows":8,"columns":1,"weights":{"0":6.5595622062683105,"1":3.9492218494415283,"2":5.551426887512207,"3":-3.53167986869812,"4":-2.4637365341186523,"5":1.3332023620605469,"6":-2.38283634185791,"7":-1.2888917922973633}},"cellActivationMatrix":{"rows":8,"columns":4,"weights":{"0":-0.5270536541938782,"1":0.3818407952785492,"2":1.3052362203598022,"3":0.8245462775230408,"4":-1.3310253620147705,"5":-2.621173143386841,"6":-2.15094256401062,"7":-1.470691442489624,"8":-0.1677919626235962,"9":-0.378865122795105,"10":0.8013721108436584,"11":1.4598777294158936,"12":0.6690013408660889,"13":0.6844508647918701,"14":2.2975988388061523,"15":-4.360348224639893,"16":0.10492381453514099,"17":0.6323371529579163,"18":-2.610203981399536,"19":-2.2349557876586914,"20":0.28156882524490356,"21":0.3463083505630493,"22":-3.587012529373169,"23":0.96696537733078,"24":-1.0147567987442017,"25":-2.687668800354004,"26":2.28994083404541,"27":-1.4372588396072388,"28":-0.2959689795970917,"29":-0.22270004451274872,"30":-3.700801134109497,"31":3.171943426132202}},"cellActivationHidden":{"rows":8,"columns":8,"weights":{"0":1.8028556108474731,"1":-0.4036562144756317,"2":0.9187237024307251,"3":0.11495404690504074,"4":1.3308393955230713,"5":1.5172450542449951,"6":-1.8128166198730469,"7":0.5674133896827698,"8":-0.015591968782246113,"9":-2.2619173526763916,"10":0.9344690442085266,"11":1.5338289737701416,"12":-0.2557721734046936,"13":0.9115956425666809,"14":0.9575749635696411,"15":-0.2813374698162079,"16":1.4609531164169312,"17":-0.25988805294036865,"18":-0.8400539755821228,"19":-0.8298507332801819,"20":0.4678305983543396,"21":0.6492384672164917,"22":-0.05335026606917381,"23":2.7405190467834473,"24":-0.970084011554718,"25":0.07621876150369644,"26":-0.840195894241333,"27":-1.7403383255004883,"28":0.18301880359649658,"29":-0.46047747135162354,"30":-0.45398393273353577,"31":0.30420148372650146,"32":-1.2995350360870361,"33":0.3241357207298279,"34":-0.35672226548194885,"35":1.9129382371902466,"36":-0.667843222618103,"37":-0.3200894296169281,"38":0.48897385597229004,"39":-1.4401217699050903,"40":-0.982956051826477,"41":1.9610382318496704,"42":-2.543063163757324,"43":-1.2395334243774414,"44":1.4814743995666504,"45":-1.6992745399475098,"46":-1.290787696838379,"47":-1.1732525825500488,"48":2.2157366275787354,"49":-0.9984226226806641,"50":-0.8291615843772888,"51":0.3665975332260132,"52":1.070723056793213,"53":1.0363962650299072,"54":-1.7360912561416626,"55":2.178910970687866,"56":0.20118361711502075,"57":-0.10948345065116882,"58":-1.604537844657898,"59":0.2759729027748108,"60":0.26250261068344116,"61":0.1931149959564209,"62":0.6123647689819336,"63":-0.32144811749458313}},"cellActivationBias":{"rows":8,"columns":1,"weights":{"0":-0.18967695534229279,"1":5.507961273193359,"2":-0.5453491806983948,"3":-1.7647664546966553,"4":0.37372860312461853,"5":-4.822754383087158,"6":2.560401678085327,"7":-1.1607770919799805}}},{"inputMatrix":{"rows":8,"columns":8,"weights":{"0":-1.6340501308441162,"1":2.6002814769744873,"2":-1.9583803415298462,"3":-0.00687811803072691,"4":0.3474070429801941,"5":-1.713882565498352,"6":0.5727335214614868,"7":-1.5079362392425537,"8":-1.7191402912139893,"9":0.8002734184265137,"10":-0.6221219897270203,"11":0.41688498854637146,"12":-0.9539178013801575,"13":-1.5789284706115723,"14":1.0010859966278076,"15":-1.6451661586761475,"16":-2.2062127590179443,"17":-0.32476940751075745,"18":-0.4428770840167999,"19":-0.7122554779052734,"20":-1.2467098236083984,"21":-2.1493067741394043,"22":-0.5431197285652161,"23":0.10679855197668076,"24":-1.4989067316055298,"25":0.6755856871604919,"26":-1.7949970960617065,"27":-0.09311576187610626,"28":-1.5075668096542358,"29":-1.5601063966751099,"30":0.15437503159046173,"31":-1.7901997566223145,"32":-2.5929720401763916,"33":1.362457513809204,"34":-1.2477701902389526,"35":-0.26908886432647705,"36":-0.9801706671714783,"37":-2.5921273231506348,"38":1.0156750679016113,"39":-2.0054337978363037,"40":-0.5877882242202759,"41":-0.7852640151977539,"42":1.0954750776290894,"43":-1.353771448135376,"44":-0.6968626379966736,"45":0.005654242821037769,"46":1.180206060409546,"47":0.9912262558937073,"48":-0.7649773955345154,"49":-2.569716215133667,"50":0.2063007950782776,"51":0.8483173251152039,"52":-2.4903459548950195,"53":-1.3274203538894653,"54":0.34098726511001587,"55":-2.8978283405303955,"56":-1.220162272453308,"57":1.0951359272003174,"58":0.8527075052261353,"59":1.5152076482772827,"60":-2.332932233810425,"61":-2.63323974609375,"62":2.12153697013855,"63":-0.7315816283226013}},"inputHidden":{"rows":8,"columns":8,"weights":{"0":0.8654922246932983,"1":1.037676453590393,"2":-1.0738307237625122,"3":-1.7781054973602295,"4":-2.0204989910125732,"5":0.05421517416834831,"6":-1.4308363199234009,"7":-1.6867268085479736,"8":-0.17271044850349426,"9":0.06336098164319992,"10":0.08999912440776825,"11":-0.3187105357646942,"12":0.023349612951278687,"13":0.842144250869751,"14":0.42091837525367737,"15":-0.3003099262714386,"16":0.2631172239780426,"17":0.2718876004219055,"18":0.7591550946235657,"19":0.24121494591236115,"20":-0.2875288128852844,"21":-0.5166627168655396,"22":-0.09216155111789703,"23":-0.17663200199604034,"24":2.3041818141937256,"25":0.7446663975715637,"26":-1.9533162117004395,"27":-1.5341768264770508,"28":-1.4953655004501343,"29":-0.006016057450324297,"30":-1.614473581314087,"31":-1.7123688459396362,"32":0.7543911933898926,"33":0.4347465932369232,"34":-0.8745920658111572,"35":-0.8061714768409729,"36":-0.9151552319526672,"37":-0.38733184337615967,"38":-1.3671165704727173,"39":-1.6900835037231445,"40":-0.27943000197410583,"41":-1.323155403137207,"42":-0.41464918851852417,"43":-0.02713434398174286,"44":0.20775222778320312,"45":-0.2947878837585449,"46":0.33515670895576477,"47":0.03482753783464432,"48":0.5804922580718994,"49":1.1663508415222168,"50":-0.8503361940383911,"51":0.09462662041187286,"52":-0.4548298120498657,"53":0.9790549874305725,"54":-1.0661776065826416,"55":-0.8012140989303589,"56":0.5911885499954224,"57":0.9793570041656494,"58":-0.2255587875843048,"59":0.34424111247062683,"60":-0.8965255618095398,"61":1.8808873891830444,"62":-0.6711962223052979,"63":-0.9182305335998535}},"inputBias":{"rows":8,"columns":1,"weights":{"0":1.969264268875122,"1":-2.115659475326538,"2":-0.7962174415588379,"3":3.694891929626465,"4":1.7842143774032593,"5":0.37488773465156555,"6":2.74837064743042,"7":0.7658611536026001}},"forgetMatrix":{"rows":8,"columns":8,"weights":{"0":0.4287559986114502,"1":0.9830252528190613,"2":0.3080209493637085,"3":-0.5456247925758362,"4":1.6333229541778564,"5":0.3978422284126282,"6":-0.5636066198348999,"7":1.1921982765197754,"8":0.446889728307724,"9":0.8805869817733765,"10":-1.2790216207504272,"11":0.4799864590167999,"12":2.9358954429626465,"13":0.5838887691497803,"14":-1.1186972856521606,"15":0.02804751507937908,"16":0.7401126623153687,"17":-0.6114219427108765,"18":1.8674802780151367,"19":-0.6247934103012085,"20":-0.23812659084796906,"21":0.3257903754711151,"22":-0.3871665596961975,"23":1.5436002016067505,"24":1.6135673522949219,"25":-0.7408824563026428,"26":1.831433892250061,"27":1.3047429323196411,"28":-0.990575909614563,"29":0.6993738412857056,"30":0.5299237966537476,"31":1.4811886548995972,"32":0.31216198205947876,"33":-0.8487451076507568,"34":0.8901996612548828,"35":0.02032768353819847,"36":1.0408395528793335,"37":0.5675984025001526,"38":-0.522520899772644,"39":0.7542920708656311,"40":1.170704960823059,"41":0.2983458638191223,"42":0.7988032698631287,"43":0.6929462552070618,"44":0.5855790376663208,"45":0.9212526082992554,"46":-0.10459544509649277,"47":3.534691572189331,"48":1.644221544265747,"49":-1.2381263971328735,"50":1.3580752611160278,"51":-0.7582067251205444,"52":0.2305346131324768,"53":1.5876058340072632,"54":0.020927757024765015,"55":0.499166339635849,"56":1.678073763847351,"57":-0.8545635342597961,"58":2.0114662647247314,"59":0.7026559710502625,"60":-0.6994158029556274,"61":0.6962285041809082,"62":0.9691996574401855,"63":4.39418888092041}},"forgetHidden":{"rows":8,"columns":8,"weights":{"0":-1.7508621215820312,"1":-0.5576189160346985,"2":1.308016061782837,"3":1.0804665088653564,"4":0.9078546762466431,"5":0.7961918115615845,"6":2.029340982437134,"7":0.4915398955345154,"8":-0.6971064805984497,"9":-0.5163242220878601,"10":1.7910794019699097,"11":0.35298943519592285,"12":0.3233776390552521,"13":-0.08084554225206375,"14":1.1971991062164307,"15":1.1040393114089966,"16":-1.6729705333709717,"17":-1.335272192955017,"18":1.3893623352050781,"19":1.210921287536621,"20":1.0749520063400269,"21":-0.496338814496994,"22":2.3946805000305176,"23":1.1748489141464233,"24":-1.7263468503952026,"25":-0.9224266409873962,"26":0.684781014919281,"27":2.115546226501465,"28":1.6790636777877808,"29":1.5651254653930664,"30":1.403586983680725,"31":-0.010409802198410034,"32":-2.1334116458892822,"33":-0.7888228297233582,"34":1.696689248085022,"35":1.5790002346038818,"36":1.2685134410858154,"37":0.462909996509552,"38":1.614305019378662,"39":1.120503306388855,"40":-1.7161304950714111,"41":-1.2495019435882568,"42":1.2481807470321655,"43":0.9588024020195007,"44":1.6712636947631836,"45":0.7880710959434509,"46":1.279982089996338,"47":0.5167226195335388,"48":-1.0154086351394653,"49":-1.011083722114563,"50":0.507759690284729,"51":0.9856498837471008,"52":1.4414008855819702,"53":0.4356415271759033,"54":1.2936750650405884,"55":1.0891904830932617,"56":-1.2609963417053223,"57":-1.0064009428024292,"58":0.8947405815124512,"59":0.7854194641113281,"60":0.5471289753913879,"61":-0.06924114376306534,"62":1.3245042562484741,"63":0.8871871829032898}},"forgetBias":{"rows":8,"columns":1,"weights":{"0":0,"1":0,"2":0,"3":0,"4":0,"5":0,"6":0,"7":0}},"outputMatrix":{"rows":8,"columns":8,"weights":{"0":-0.5442845821380615,"1":1.080000877380371,"2":-1.5158462524414062,"3":-0.63039231300354,"4":0.7337666153907776,"5":0.04472648352384567,"6":-0.5578803420066833,"7":-0.1765480488538742,"8":-0.3006015717983246,"9":0.1590985506772995,"10":-0.5252219438552856,"11":1.2277308702468872,"12":0.8122749328613281,"13":0.03827968239784241,"14":-0.42901086807250977,"15":-0.6740847826004028,"16":-0.9248116612434387,"17":-0.7228896617889404,"18":0.20961466431617737,"19":-0.47413405776023865,"20":-1.034730315208435,"21":-0.6204319596290588,"22":-0.10816880315542221,"23":0.5765085220336914,"24":0.022159606218338013,"25":0.41758161783218384,"26":-0.3620988428592682,"27":0.09259843826293945,"28":0.4395083487033844,"29":0.45840588212013245,"30":-0.7305687069892883,"31":0.40761712193489075,"32":-0.680152952671051,"33":0.431308388710022,"34":-0.39986085891723633,"35":0.05564922094345093,"36":1.1269465684890747,"37":0.17764925956726074,"38":-0.7153629064559937,"39":0.06144474446773529,"40":-0.6463674306869507,"41":-0.05610483139753342,"42":1.1180343627929688,"43":-1.6698439121246338,"44":-0.8944608569145203,"45":-0.2231174260377884,"46":1.136378288269043,"47":0.9417585134506226,"48":0.3865123689174652,"49":-2.212777614593506,"50":1.0927746295928955,"51":0.7457718253135681,"52":0.586972177028656,"53":1.7956358194351196,"54":-0.506977379322052,"55":-0.5512424111366272,"56":0.050121523439884186,"57":1.2743589878082275,"58":0.464514821767807,"59":-0.5423531532287598,"60":-0.8529524207115173,"61":-1.0001239776611328,"62":0.9114186763763428,"63":0.9408128261566162}},"outputHidden":{"rows":8,"columns":8,"weights":{"0":-0.22882844507694244,"1":0.31767842173576355,"2":-0.05415816232562065,"3":-0.7826486825942993,"4":-0.7413966655731201,"5":-0.17671124637126923,"6":-0.14372731745243073,"7":0.10383488982915878,"8":-1.3328872919082642,"9":-1.2924249172210693,"10":1.7631412744522095,"11":0.35804009437561035,"12":0.8013990521430969,"13":-0.19274304807186127,"14":1.3026254177093506,"15":1.5231035947799683,"16":-0.2105441391468048,"17":-0.21507950127124786,"18":0.589576244354248,"19":0.5430099368095398,"20":-0.019031064584851265,"21":-0.6885687708854675,"22":0.8226988315582275,"23":0.8017743229866028,"24":0.16564086079597473,"25":-0.8732404708862305,"26":0.29139232635498047,"27":0.27406200766563416,"28":0.16573072969913483,"29":0.14402322471141815,"30":0.516889750957489,"31":0.21582385897636414,"32":-1.242541790008545,"33":-1.2082571983337402,"34":1.2547993659973145,"35":0.796268105506897,"36":1.2404087781906128,"37":-0.4122544527053833,"38":1.0019139051437378,"39":0.9495344758033752,"40":-0.21200710535049438,"41":-1.4332447052001953,"42":-0.2844094932079315,"43":-0.01073488686233759,"44":0.15215672552585602,"45":-0.8047592043876648,"46":0.3029068112373352,"47":-0.2422703057527542,"48":-0.45200103521347046,"49":-1.7353135347366333,"50":0.06536947935819626,"51":0.5390139222145081,"52":0.7827764749526978,"53":0.05750526860356331,"54":0.5519430041313171,"55":1.3035588264465332,"56":-0.1499737799167633,"57":-0.1464664191007614,"58":0.7739822268486023,"59":0.42702293395996094,"60":0.19740799069404602,"61":0.1895199865102768,"62":0.720559298992157,"63":0.518696665763855}},"outputBias":{"rows":8,"columns":1,"weights":{"0":1.0240447521209717,"1":-2.0619380474090576,"2":-1.949973702430725,"3":-1.3444157838821411,"4":-1.5867292881011963,"5":1.7833781242370605,"6":-4.00927734375,"7":-1.6685705184936523}},"cellActivationMatrix":{"rows":8,"columns":8,"weights":{"0":-1.4306840896606445,"1":0.435396283864975,"2":-0.3540523946285248,"3":-0.08460652083158493,"4":-0.5198488235473633,"5":-1.4438220262527466,"6":0.05574909225106239,"7":-1.5834431648254395,"8":-0.7248829007148743,"9":-0.3270803689956665,"10":-1.4554579257965088,"11":0.7971371412277222,"12":-2.08620023727417,"13":-1.4918015003204346,"14":1.4223557710647583,"15":-2.555109739303589,"16":2.165072441101074,"17":0.8197047114372253,"18":-1.354671597480774,"19":1.363295555114746,"20":3.215278387069702,"21":3.70105242729187,"22":-3.4705536365509033,"23":-0.1388649195432663,"24":2.218421459197998,"25":0.20850543677806854,"26":2.60408353805542,"27":1.8599939346313477,"28":0.5753180384635925,"29":1.1349401473999023,"30":0.6036875247955322,"31":2.9936113357543945,"32":1.7974574565887451,"33":-0.07071171700954437,"34":-0.08327595889568329,"35":0.4566122591495514,"36":0.9460868835449219,"37":1.4714603424072266,"38":-0.38364750146865845,"39":1.1440064907073975,"40":-0.12933415174484253,"41":-0.26682206988334656,"42":-0.8727074265480042,"43":1.842982292175293,"44":-0.12697863578796387,"45":-1.0657873153686523,"46":2.3941988945007324,"47":-1.4612219333648682,"48":2.019113063812256,"49":0.4794241189956665,"50":0.6216170191764832,"51":-0.21454885601997375,"52":-0.07835670560598373,"53":1.1855435371398926,"54":0.2002580463886261,"55":3.389751672744751,"56":1.7308768033981323,"57":-0.8415175676345825,"58":-1.4605692625045776,"59":1.0522392988204956,"60":1.6166828870773315,"61":3.8781845569610596,"62":-2.8822808265686035,"63":-0.5297232270240784}},"cellActivationHidden":{"rows":8,"columns":8,"weights":{"0":0.3629702627658844,"1":0.36801689863204956,"2":-0.4055764377117157,"3":-0.29199832677841187,"4":-0.5341062545776367,"5":-0.18000420928001404,"6":-0.6407915353775024,"7":-0.5184195041656494,"8":2.6372251510620117,"9":0.1367376297712326,"10":-1.9852184057235718,"11":-0.4957359731197357,"12":-0.8569043278694153,"13":-0.0627305656671524,"14":-1.8697173595428467,"15":-2.141326665878296,"16":0.2620314061641693,"17":1.0039000511169434,"18":-1.2876993417739868,"19":-1.1955324411392212,"20":-1.2941851615905762,"21":0.7900136709213257,"22":-1.0884238481521606,"23":1.5175503492355347,"24":-2.0205647945404053,"25":-0.5830751657485962,"26":1.2327280044555664,"27":0.4463980495929718,"28":0.7021474838256836,"29":0.8201607465744019,"30":0.9914606809616089,"31":0.6020505428314209,"32":-0.6369311213493347,"33":0.11659995466470718,"34":-0.19656190276145935,"35":0.16698838770389557,"36":-0.1910964846611023,"37":0.1336977332830429,"38":0.29507073760032654,"39":0.6274027228355408,"40":-0.5147413611412048,"41":-0.21286728978157043,"42":0.9796568155288696,"43":0.2810309827327728,"44":-0.30145108699798584,"45":-1.5530558824539185,"46":-0.0294597540050745,"47":0.581009566783905,"48":0.4817783534526825,"49":-0.6228247880935669,"50":-0.3959254324436188,"51":-0.8509275913238525,"52":0.12972776591777802,"53":-0.8660175204277039,"54":-0.24864856898784637,"55":0.1661331206560135,"56":-0.17237289249897003,"57":0.9142391681671143,"58":-0.2847358286380768,"59":-1.2517201900482178,"60":-0.7061272859573364,"61":-0.14706313610076904,"62":-1.0855824947357178,"63":-0.8572255969047546}},"cellActivationBias":{"rows":8,"columns":1,"weights":{"0":4.0454020500183105,"1":-2.0772767066955566,"2":-1.0055269002914429,"3":-2.3454904556274414,"4":-3.1665573120117188,"5":-0.9093961715698242,"6":-2.678586483001709,"7":0.07375223189592361}}}],"outputConnector":{"rows":4,"columns":8,"weights":{"0":0.486738920211792,"1":1.3035228252410889,"2":-0.341642826795578,"3":-0.9620494246482849,"4":-0.4877893626689911,"5":0.30970266461372375,"6":1.299270749092102,"7":-1.2621824741363525,"8":-1.592900037765503,"9":-0.8363829851150513,"10":1.7907843589782715,"11":-1.0492697954177856,"12":0.28426074981689453,"13":-0.6296852231025696,"14":-0.31614646315574646,"15":2.345461130142212,"16":-2.1308412551879883,"17":-0.1189088299870491,"18":0.8928753137588501,"19":2.284285545349121,"20":1.793096661567688,"21":1.4087530374526978,"22":0.7519894242286682,"23":0.9675613045692444,"24":-1.6867189407348633,"25":-2.3371102809906006,"26":0.6424912810325623,"27":1.2308508157730103,"28":1.9553399085998535,"29":-1.586617350578308,"30":2.7143709659576416,"31":-0.44207510352134705}},"output":{"rows":4,"columns":1,"weights":{"0":0.2896506190299988,"1":1.4301637411117554,"2":2.6663002967834473,"3":1.485464096069336}}}
=======
{"type":"LSTMTimeStep","options":{"inputSize":4,"hiddenLayers":[8,8],"outputSize":4,"decayRate":0.999,"smoothEps":1e-8,"regc":0.000001,"clipval":5},"hiddenLayers":[{"inputMatrix":{"rows":8,"columns":4,"weights":{"0":-2.2287063598632812,"1":-3.3848109245300293,"2":-1.7326894998550415,"3":-2.234429359436035,"4":0.509907603263855,"5":-1.0846675634384155,"6":-1.8968967199325562,"7":-1.179671287536621,"8":-1.9836422204971313,"9":-2.079253911972046,"10":-1.1259071826934814,"11":-4.417613506317139,"12":0.9735050201416016,"13":1.3503488302230835,"14":0.09892282634973526,"15":1.4859479665756226,"16":-0.34181228280067444,"17":-0.23655036091804504,"18":1.7567181587219238,"19":1.314836859703064,"20":-0.5043193101882935,"21":-3.1963002681732178,"22":1.0295355319976807,"23":0.879925549030304,"24":0.2631101608276367,"25":-0.9221195578575134,"26":2.045243978500366,"27":0.24531252682209015,"28":-0.34191733598709106,"29":0.38791459798812866,"30":1.7619819641113281,"31":-1.2333087921142578}},"inputHidden":{"rows":8,"columns":8,"weights":{"0":1.3668164014816284,"1":-0.5777482390403748,"2":0.13501444458961487,"3":1.5295417308807373,"4":0.8697435855865479,"5":1.4389421939849854,"6":1.968599796295166,"7":1.443477988243103,"8":-1.9788790941238403,"9":-0.018091337755322456,"10":-1.5759449005126953,"11":-0.08187401294708252,"12":-0.5206042528152466,"13":-0.9284946918487549,"14":-0.009919540025293827,"15":-1.2360224723815918,"16":1.5404608249664307,"17":0.31083035469055176,"18":0.790014386177063,"19":0.2636847198009491,"20":2.117056369781494,"21":2.205188751220703,"22":-0.46783480048179626,"23":1.2850887775421143,"24":-0.5854819416999817,"25":0.44694745540618896,"26":-0.2738208770751953,"27":1.312713861465454,"28":-0.49498891830444336,"29":-0.6682053804397583,"30":-1.380241870880127,"31":-0.9552476406097412,"32":0.5150035619735718,"33":-0.8666538000106812,"34":0.14961490035057068,"35":-0.35195866227149963,"36":0.2800261080265045,"37":0.29529526829719543,"38":-0.32835519313812256,"39":0.044225309044122696,"40":-0.29513394832611084,"41":0.1188848614692688,"42":-0.08386831730604172,"43":0.9693924188613892,"44":0.5013189315795898,"45":0.21011647582054138,"46":-0.18995562195777893,"47":0.16702236235141754,"48":-0.01624217815697193,"49":1.2833360433578491,"50":-0.07078343629837036,"51":0.4109131991863251,"52":-1.184206247329712,"53":-0.4110623598098755,"54":1.3789364099502563,"55":-0.49604353308677673,"56":0.1956743448972702,"57":-0.7181192636489868,"58":0.1861523985862732,"59":1.6380987167358398,"60":-0.9371815323829651,"61":0.2764986753463745,"62":1.8362373113632202,"63":0.5806384682655334}},"inputBias":{"rows":8,"columns":1,"weights":{"0":3.2803428173065186,"1":0.8387404680252075,"2":3.225243330001831,"3":-4.035480499267578,"4":-0.12604932487010956,"5":-0.017674293369054794,"6":-4.3404693603515625,"7":-0.25355803966522217}},"forgetMatrix":{"rows":8,"columns":4,"weights":{"0":-1.5519132614135742,"1":-1.0633628368377686,"2":-2.361152172088623,"3":-2.9304416179656982,"4":-0.3566504716873169,"5":0.5846766829490662,"6":-2.5690762996673584,"7":0.09028711915016174,"8":-0.2844020128250122,"9":-1.1816020011901855,"10":0.09164676815271378,"11":-4.777120590209961,"12":-0.8518721461296082,"13":0.08284702897071838,"14":0.2669733762741089,"15":-1.331114649772644,"16":0.001558850985020399,"17":0.26320335268974304,"18":7.592531204223633,"19":-0.8628790378570557,"20":-0.7666395306587219,"21":-2.5743255615234375,"22":1.2173521518707275,"23":0.6133737564086914,"24":-0.9104184508323669,"25":-1.1033213138580322,"26":1.021447777748108,"27":-0.4685751795768738,"28":0.36375194787979126,"29":0.10740189999341965,"30":0.9945005178451538,"31":-0.603467583656311}},"forgetHidden":{"rows":8,"columns":8,"weights":{"0":1.0486105680465698,"1":-0.14675942063331604,"2":-0.6700323224067688,"3":0.9890018701553345,"4":0.8392303586006165,"5":1.0313777923583984,"6":0.044700272381305695,"7":0.33575597405433655,"8":-0.5354441404342651,"9":-0.9618726968765259,"10":-0.9562377333641052,"11":-0.6549732089042664,"12":1.6369514465332031,"13":0.5303202867507935,"14":-0.5204548835754395,"15":0.8926591277122498,"16":-0.27060213685035706,"17":0.6613607406616211,"18":-0.14410269260406494,"19":-0.013979492709040642,"20":0.2467125803232193,"21":0.29732057452201843,"22":-0.3978158235549927,"23":0.5748016834259033,"24":0.6146940588951111,"25":-1.5752038955688477,"26":3.535889148712158,"27":2.0681381225585938,"28":0.23995062708854675,"29":0.557708203792572,"30":-0.8513464331626892,"31":-0.6079908013343811,"32":0.30272555351257324,"33":-1.5027128458023071,"34":0.6064966917037964,"35":0.9493255615234375,"36":-2.304415464401245,"37":0.2547313868999481,"38":1.8071480989456177,"39":-2.2695090770721436,"40":0.5771241188049316,"41":-0.5834023952484131,"42":1.1846277713775635,"43":1.2787935733795166,"44":0.7934165000915527,"45":0.7760923504829407,"46":0.2251620888710022,"47":0.023183589801192284,"48":1.1944806575775146,"49":-0.25245460867881775,"50":0.5281203985214233,"51":0.15532252192497253,"52":0.08039843291044235,"53":0.7096555233001709,"54":-0.12263243645429611,"55":1.0124434232711792,"56":-0.44387495517730713,"57":-0.4283229410648346,"58":0.4423028230667114,"59":-0.608163058757782,"60":-1.8482927083969116,"61":-1.078370451927185,"62":3.3484201431274414,"63":1.1867194175720215}},"forgetBias":{"rows":8,"columns":1,"weights":{"0":0,"1":0,"2":0,"3":0,"4":0,"5":0,"6":0,"7":0}},"outputMatrix":{"rows":8,"columns":4,"weights":{"0":-2.4174275398254395,"1":-3.7053563594818115,"2":-2.1973133087158203,"3":-2.5078377723693848,"4":0.7550606727600098,"5":1.8800456523895264,"6":-1.413817286491394,"7":-0.8876277804374695,"8":-1.778559684753418,"9":-1.7438734769821167,"10":-1.1234725713729858,"11":-4.57900857925415,"12":1.0906766653060913,"13":1.2431049346923828,"14":0.4047353267669678,"15":1.4099795818328857,"16":-0.034659624099731445,"17":-0.7796083092689514,"18":0.8740264773368835,"19":3.527330160140991,"20":-0.11865171790122986,"21":-2.5287725925445557,"22":1.6799015998840332,"23":1.0699342489242554,"24":0.021015916019678116,"25":0.9722197651863098,"26":2.044290065765381,"27":-0.5491352081298828,"28":0.5981560945510864,"29":0.549984872341156,"30":2.456171989440918,"31":-0.01685629040002823}},"outputHidden":{"rows":8,"columns":8,"weights":{"0":1.2446752786636353,"1":-0.6617839336395264,"2":0.06719963997602463,"3":1.4362385272979736,"4":0.8037611842155457,"5":1.347385048866272,"6":1.4644756317138672,"7":1.8765068054199219,"8":-1.0247917175292969,"9":-0.2835122048854828,"10":-1.44743013381958,"11":-0.10753430426120758,"12":0.6860581636428833,"13":-0.18499183654785156,"14":-0.6639842391014099,"15":-0.5208542943000793,"16":1.444826364517212,"17":0.04204104095697403,"18":0.5854495167732239,"19":0.36481472849845886,"20":2.1792845726013184,"21":2.0556728839874268,"22":-0.42676109075546265,"23":1.3666425943374634,"24":-0.7555550336837769,"25":0.250141978263855,"26":-0.21387332677841187,"27":0.7939693331718445,"28":-0.7436665892601013,"29":-0.8418606519699097,"30":-0.4436081647872925,"31":-1.1471539735794067,"32":-0.03142666816711426,"33":0.6512044668197632,"34":0.5002573728561401,"35":-2.479546308517456,"36":0.5072712302207947,"37":-0.7763527035713196,"38":-0.4978002607822418,"39":-0.005265561863780022,"40":-0.9364457726478577,"41":0.28561916947364807,"42":-0.1577538251876831,"43":0.8185514211654663,"44":-0.1417628973722458,"45":-0.21063204109668732,"46":0.7580665946006775,"47":-0.2648440897464752,"48":0.3807348906993866,"49":-1.0870004892349243,"50":0.03601839765906334,"51":1.4356571435928345,"52":-0.5870662331581116,"53":0.471835196018219,"54":0.5766528844833374,"55":-0.668132483959198,"56":-0.8642847537994385,"57":-0.1017036885023117,"58":0.2628880739212036,"59":-0.3812290132045746,"60":-2.7236673831939697,"61":-1.2669243812561035,"62":2.381304979324341,"63":0.03901396691799164}},"outputBias":{"rows":8,"columns":1,"weights":{"0":6.5595622062683105,"1":3.9492218494415283,"2":5.551426887512207,"3":-3.53167986869812,"4":-2.4637365341186523,"5":1.3332023620605469,"6":-2.38283634185791,"7":-1.2888917922973633}},"cellActivationMatrix":{"rows":8,"columns":4,"weights":{"0":-0.5270536541938782,"1":0.3818407952785492,"2":1.3052362203598022,"3":0.8245462775230408,"4":-1.3310253620147705,"5":-2.621173143386841,"6":-2.15094256401062,"7":-1.470691442489624,"8":-0.1677919626235962,"9":-0.378865122795105,"10":0.8013721108436584,"11":1.4598777294158936,"12":0.6690013408660889,"13":0.6844508647918701,"14":2.2975988388061523,"15":-4.360348224639893,"16":0.10492381453514099,"17":0.6323371529579163,"18":-2.610203981399536,"19":-2.2349557876586914,"20":0.28156882524490356,"21":0.3463083505630493,"22":-3.587012529373169,"23":0.96696537733078,"24":-1.0147567987442017,"25":-2.687668800354004,"26":2.28994083404541,"27":-1.4372588396072388,"28":-0.2959689795970917,"29":-0.22270004451274872,"30":-3.700801134109497,"31":3.171943426132202}},"cellActivationHidden":{"rows":8,"columns":8,"weights":{"0":1.8028556108474731,"1":-0.4036562144756317,"2":0.9187237024307251,"3":0.11495404690504074,"4":1.3308393955230713,"5":1.5172450542449951,"6":-1.8128166198730469,"7":0.5674133896827698,"8":-0.015591968782246113,"9":-2.2619173526763916,"10":0.9344690442085266,"11":1.5338289737701416,"12":-0.2557721734046936,"13":0.9115956425666809,"14":0.9575749635696411,"15":-0.2813374698162079,"16":1.4609531164169312,"17":-0.25988805294036865,"18":-0.8400539755821228,"19":-0.8298507332801819,"20":0.4678305983543396,"21":0.6492384672164917,"22":-0.05335026606917381,"23":2.7405190467834473,"24":-0.970084011554718,"25":0.07621876150369644,"26":-0.840195894241333,"27":-1.7403383255004883,"28":0.18301880359649658,"29":-0.46047747135162354,"30":-0.45398393273353577,"31":0.30420148372650146,"32":-1.2995350360870361,"33":0.3241357207298279,"34":-0.35672226548194885,"35":1.9129382371902466,"36":-0.667843222618103,"37":-0.3200894296169281,"38":0.48897385597229004,"39":-1.4401217699050903,"40":-0.982956051826477,"41":1.9610382318496704,"42":-2.543063163757324,"43":-1.2395334243774414,"44":1.4814743995666504,"45":-1.6992745399475098,"46":-1.290787696838379,"47":-1.1732525825500488,"48":2.2157366275787354,"49":-0.9984226226806641,"50":-0.8291615843772888,"51":0.3665975332260132,"52":1.070723056793213,"53":1.0363962650299072,"54":-1.7360912561416626,"55":2.178910970687866,"56":0.20118361711502075,"57":-0.10948345065116882,"58":-1.604537844657898,"59":0.2759729027748108,"60":0.26250261068344116,"61":0.1931149959564209,"62":0.6123647689819336,"63":-0.32144811749458313}},"cellActivationBias":{"rows":8,"columns":1,"weights":{"0":-0.18967695534229279,"1":5.507961273193359,"2":-0.5453491806983948,"3":-1.7647664546966553,"4":0.37372860312461853,"5":-4.822754383087158,"6":2.560401678085327,"7":-1.1607770919799805}}},{"inputMatrix":{"rows":8,"columns":8,"weights":{"0":-1.6340501308441162,"1":2.6002814769744873,"2":-1.9583803415298462,"3":-0.00687811803072691,"4":0.3474070429801941,"5":-1.713882565498352,"6":0.5727335214614868,"7":-1.5079362392425537,"8":-1.7191402912139893,"9":0.8002734184265137,"10":-0.6221219897270203,"11":0.41688498854637146,"12":-0.9539178013801575,"13":-1.5789284706115723,"14":1.0010859966278076,"15":-1.6451661586761475,"16":-2.2062127590179443,"17":-0.32476940751075745,"18":-0.4428770840167999,"19":-0.7122554779052734,"20":-1.2467098236083984,"21":-2.1493067741394043,"22":-0.5431197285652161,"23":0.10679855197668076,"24":-1.4989067316055298,"25":0.6755856871604919,"26":-1.7949970960617065,"27":-0.09311576187610626,"28":-1.5075668096542358,"29":-1.5601063966751099,"30":0.15437503159046173,"31":-1.7901997566223145,"32":-2.5929720401763916,"33":1.362457513809204,"34":-1.2477701902389526,"35":-0.26908886432647705,"36":-0.9801706671714783,"37":-2.5921273231506348,"38":1.0156750679016113,"39":-2.0054337978363037,"40":-0.5877882242202759,"41":-0.7852640151977539,"42":1.0954750776290894,"43":-1.353771448135376,"44":-0.6968626379966736,"45":0.005654242821037769,"46":1.180206060409546,"47":0.9912262558937073,"48":-0.7649773955345154,"49":-2.569716215133667,"50":0.2063007950782776,"51":0.8483173251152039,"52":-2.4903459548950195,"53":-1.3274203538894653,"54":0.34098726511001587,"55":-2.8978283405303955,"56":-1.220162272453308,"57":1.0951359272003174,"58":0.8527075052261353,"59":1.5152076482772827,"60":-2.332932233810425,"61":-2.63323974609375,"62":2.12153697013855,"63":-0.7315816283226013}},"inputHidden":{"rows":8,"columns":8,"weights":{"0":0.8654922246932983,"1":1.037676453590393,"2":-1.0738307237625122,"3":-1.7781054973602295,"4":-2.0204989910125732,"5":0.05421517416834831,"6":-1.4308363199234009,"7":-1.6867268085479736,"8":-0.17271044850349426,"9":0.06336098164319992,"10":0.08999912440776825,"11":-0.3187105357646942,"12":0.023349612951278687,"13":0.842144250869751,"14":0.42091837525367737,"15":-0.3003099262714386,"16":0.2631172239780426,"17":0.2718876004219055,"18":0.7591550946235657,"19":0.24121494591236115,"20":-0.2875288128852844,"21":-0.5166627168655396,"22":-0.09216155111789703,"23":-0.17663200199604034,"24":2.3041818141937256,"25":0.7446663975715637,"26":-1.9533162117004395,"27":-1.5341768264770508,"28":-1.4953655004501343,"29":-0.006016057450324297,"30":-1.614473581314087,"31":-1.7123688459396362,"32":0.7543911933898926,"33":0.4347465932369232,"34":-0.8745920658111572,"35":-0.8061714768409729,"36":-0.9151552319526672,"37":-0.38733184337615967,"38":-1.3671165704727173,"39":-1.6900835037231445,"40":-0.27943000197410583,"41":-1.323155403137207,"42":-0.41464918851852417,"43":-0.02713434398174286,"44":0.20775222778320312,"45":-0.2947878837585449,"46":0.33515670895576477,"47":0.03482753783464432,"48":0.5804922580718994,"49":1.1663508415222168,"50":-0.8503361940383911,"51":0.09462662041187286,"52":-0.4548298120498657,"53":0.9790549874305725,"54":-1.0661776065826416,"55":-0.8012140989303589,"56":0.5911885499954224,"57":0.9793570041656494,"58":-0.2255587875843048,"59":0.34424111247062683,"60":-0.8965255618095398,"61":1.8808873891830444,"62":-0.6711962223052979,"63":-0.9182305335998535}},"inputBias":{"rows":8,"columns":1,"weights":{"0":1.969264268875122,"1":-2.115659475326538,"2":-0.7962174415588379,"3":3.694891929626465,"4":1.7842143774032593,"5":0.37488773465156555,"6":2.74837064743042,"7":0.7658611536026001}},"forgetMatrix":{"rows":8,"columns":8,"weights":{"0":0.4287559986114502,"1":0.9830252528190613,"2":0.3080209493637085,"3":-0.5456247925758362,"4":1.6333229541778564,"5":0.3978422284126282,"6":-0.5636066198348999,"7":1.1921982765197754,"8":0.446889728307724,"9":0.8805869817733765,"10":-1.2790216207504272,"11":0.4799864590167999,"12":2.9358954429626465,"13":0.5838887691497803,"14":-1.1186972856521606,"15":0.02804751507937908,"16":0.7401126623153687,"17":-0.6114219427108765,"18":1.8674802780151367,"19":-0.6247934103012085,"20":-0.23812659084796906,"21":0.3257903754711151,"22":-0.3871665596961975,"23":1.5436002016067505,"24":1.6135673522949219,"25":-0.7408824563026428,"26":1.831433892250061,"27":1.3047429323196411,"28":-0.990575909614563,"29":0.6993738412857056,"30":0.5299237966537476,"31":1.4811886548995972,"32":0.31216198205947876,"33":-0.8487451076507568,"34":0.8901996612548828,"35":0.02032768353819847,"36":1.0408395528793335,"37":0.5675984025001526,"38":-0.522520899772644,"39":0.7542920708656311,"40":1.170704960823059,"41":0.2983458638191223,"42":0.7988032698631287,"43":0.6929462552070618,"44":0.5855790376663208,"45":0.9212526082992554,"46":-0.10459544509649277,"47":3.534691572189331,"48":1.644221544265747,"49":-1.2381263971328735,"50":1.3580752611160278,"51":-0.7582067251205444,"52":0.2305346131324768,"53":1.5876058340072632,"54":0.020927757024765015,"55":0.499166339635849,"56":1.678073763847351,"57":-0.8545635342597961,"58":2.0114662647247314,"59":0.7026559710502625,"60":-0.6994158029556274,"61":0.6962285041809082,"62":0.9691996574401855,"63":4.39418888092041}},"forgetHidden":{"rows":8,"columns":8,"weights":{"0":-1.7508621215820312,"1":-0.5576189160346985,"2":1.308016061782837,"3":1.0804665088653564,"4":0.9078546762466431,"5":0.7961918115615845,"6":2.029340982437134,"7":0.4915398955345154,"8":-0.6971064805984497,"9":-0.5163242220878601,"10":1.7910794019699097,"11":0.35298943519592285,"12":0.3233776390552521,"13":-0.08084554225206375,"14":1.1971991062164307,"15":1.1040393114089966,"16":-1.6729705333709717,"17":-1.335272192955017,"18":1.3893623352050781,"19":1.210921287536621,"20":1.0749520063400269,"21":-0.496338814496994,"22":2.3946805000305176,"23":1.1748489141464233,"24":-1.7263468503952026,"25":-0.9224266409873962,"26":0.684781014919281,"27":2.115546226501465,"28":1.6790636777877808,"29":1.5651254653930664,"30":1.403586983680725,"31":-0.010409802198410034,"32":-2.1334116458892822,"33":-0.7888228297233582,"34":1.696689248085022,"35":1.5790002346038818,"36":1.2685134410858154,"37":0.462909996509552,"38":1.614305019378662,"39":1.120503306388855,"40":-1.7161304950714111,"41":-1.2495019435882568,"42":1.2481807470321655,"43":0.9588024020195007,"44":1.6712636947631836,"45":0.7880710959434509,"46":1.279982089996338,"47":0.5167226195335388,"48":-1.0154086351394653,"49":-1.011083722114563,"50":0.507759690284729,"51":0.9856498837471008,"52":1.4414008855819702,"53":0.4356415271759033,"54":1.2936750650405884,"55":1.0891904830932617,"56":-1.2609963417053223,"57":-1.0064009428024292,"58":0.8947405815124512,"59":0.7854194641113281,"60":0.5471289753913879,"61":-0.06924114376306534,"62":1.3245042562484741,"63":0.8871871829032898}},"forgetBias":{"rows":8,"columns":1,"weights":{"0":0,"1":0,"2":0,"3":0,"4":0,"5":0,"6":0,"7":0}},"outputMatrix":{"rows":8,"columns":8,"weights":{"0":-0.5442845821380615,"1":1.080000877380371,"2":-1.5158462524414062,"3":-0.63039231300354,"4":0.7337666153907776,"5":0.04472648352384567,"6":-0.5578803420066833,"7":-0.1765480488538742,"8":-0.3006015717983246,"9":0.1590985506772995,"10":-0.5252219438552856,"11":1.2277308702468872,"12":0.8122749328613281,"13":0.03827968239784241,"14":-0.42901086807250977,"15":-0.6740847826004028,"16":-0.9248116612434387,"17":-0.7228896617889404,"18":0.20961466431617737,"19":-0.47413405776023865,"20":-1.034730315208435,"21":-0.6204319596290588,"22":-0.10816880315542221,"23":0.5765085220336914,"24":0.022159606218338013,"25":0.41758161783218384,"26":-0.3620988428592682,"27":0.09259843826293945,"28":0.4395083487033844,"29":0.45840588212013245,"30":-0.7305687069892883,"31":0.40761712193489075,"32":-0.680152952671051,"33":0.431308388710022,"34":-0.39986085891723633,"35":0.05564922094345093,"36":1.1269465684890747,"37":0.17764925956726074,"38":-0.7153629064559937,"39":0.06144474446773529,"40":-0.6463674306869507,"41":-0.05610483139753342,"42":1.1180343627929688,"43":-1.6698439121246338,"44":-0.8944608569145203,"45":-0.2231174260377884,"46":1.136378288269043,"47":0.9417585134506226,"48":0.3865123689174652,"49":-2.212777614593506,"50":1.0927746295928955,"51":0.7457718253135681,"52":0.586972177028656,"53":1.7956358194351196,"54":-0.506977379322052,"55":-0.5512424111366272,"56":0.050121523439884186,"57":1.2743589878082275,"58":0.464514821767807,"59":-0.5423531532287598,"60":-0.8529524207115173,"61":-1.0001239776611328,"62":0.9114186763763428,"63":0.9408128261566162}},"outputHidden":{"rows":8,"columns":8,"weights":{"0":-0.22882844507694244,"1":0.31767842173576355,"2":-0.05415816232562065,"3":-0.7826486825942993,"4":-0.7413966655731201,"5":-0.17671124637126923,"6":-0.14372731745243073,"7":0.10383488982915878,"8":-1.3328872919082642,"9":-1.2924249172210693,"10":1.7631412744522095,"11":0.35804009437561035,"12":0.8013990521430969,"13":-0.19274304807186127,"14":1.3026254177093506,"15":1.5231035947799683,"16":-0.2105441391468048,"17":-0.21507950127124786,"18":0.589576244354248,"19":0.5430099368095398,"20":-0.019031064584851265,"21":-0.6885687708854675,"22":0.8226988315582275,"23":0.8017743229866028,"24":0.16564086079597473,"25":-0.8732404708862305,"26":0.29139232635498047,"27":0.27406200766563416,"28":0.16573072969913483,"29":0.14402322471141815,"30":0.516889750957489,"31":0.21582385897636414,"32":-1.242541790008545,"33":-1.2082571983337402,"34":1.2547993659973145,"35":0.796268105506897,"36":1.2404087781906128,"37":-0.4122544527053833,"38":1.0019139051437378,"39":0.9495344758033752,"40":-0.21200710535049438,"41":-1.4332447052001953,"42":-0.2844094932079315,"43":-0.01073488686233759,"44":0.15215672552585602,"45":-0.8047592043876648,"46":0.3029068112373352,"47":-0.2422703057527542,"48":-0.45200103521347046,"49":-1.7353135347366333,"50":0.06536947935819626,"51":0.5390139222145081,"52":0.7827764749526978,"53":0.05750526860356331,"54":0.5519430041313171,"55":1.3035588264465332,"56":-0.1499737799167633,"57":-0.1464664191007614,"58":0.7739822268486023,"59":0.42702293395996094,"60":0.19740799069404602,"61":0.1895199865102768,"62":0.720559298992157,"63":0.518696665763855}},"outputBias":{"rows":8,"columns":1,"weights":{"0":1.0240447521209717,"1":-2.0619380474090576,"2":-1.949973702430725,"3":-1.3444157838821411,"4":-1.5867292881011963,"5":1.7833781242370605,"6":-4.00927734375,"7":-1.6685705184936523}},"cellActivationMatrix":{"rows":8,"columns":8,"weights":{"0":-1.4306840896606445,"1":0.435396283864975,"2":-0.3540523946285248,"3":-0.08460652083158493,"4":-0.5198488235473633,"5":-1.4438220262527466,"6":0.05574909225106239,"7":-1.5834431648254395,"8":-0.7248829007148743,"9":-0.3270803689956665,"10":-1.4554579257965088,"11":0.7971371412277222,"12":-2.08620023727417,"13":-1.4918015003204346,"14":1.4223557710647583,"15":-2.555109739303589,"16":2.165072441101074,"17":0.8197047114372253,"18":-1.354671597480774,"19":1.363295555114746,"20":3.215278387069702,"21":3.70105242729187,"22":-3.4705536365509033,"23":-0.1388649195432663,"24":2.218421459197998,"25":0.20850543677806854,"26":2.60408353805542,"27":1.8599939346313477,"28":0.5753180384635925,"29":1.1349401473999023,"30":0.6036875247955322,"31":2.9936113357543945,"32":1.7974574565887451,"33":-0.07071171700954437,"34":-0.08327595889568329,"35":0.4566122591495514,"36":0.9460868835449219,"37":1.4714603424072266,"38":-0.38364750146865845,"39":1.1440064907073975,"40":-0.12933415174484253,"41":-0.26682206988334656,"42":-0.8727074265480042,"43":1.842982292175293,"44":-0.12697863578796387,"45":-1.0657873153686523,"46":2.3941988945007324,"47":-1.4612219333648682,"48":2.019113063812256,"49":0.4794241189956665,"50":0.6216170191764832,"51":-0.21454885601997375,"52":-0.07835670560598373,"53":1.1855435371398926,"54":0.2002580463886261,"55":3.389751672744751,"56":1.7308768033981323,"57":-0.8415175676345825,"58":-1.4605692625045776,"59":1.0522392988204956,"60":1.6166828870773315,"61":3.8781845569610596,"62":-2.8822808265686035,"63":-0.5297232270240784}},"cellActivationHidden":{"rows":8,"columns":8,"weights":{"0":0.3629702627658844,"1":0.36801689863204956,"2":-0.4055764377117157,"3":-0.29199832677841187,"4":-0.5341062545776367,"5":-0.18000420928001404,"6":-0.6407915353775024,"7":-0.5184195041656494,"8":2.6372251510620117,"9":0.1367376297712326,"10":-1.9852184057235718,"11":-0.4957359731197357,"12":-0.8569043278694153,"13":-0.0627305656671524,"14":-1.8697173595428467,"15":-2.141326665878296,"16":0.2620314061641693,"17":1.0039000511169434,"18":-1.2876993417739868,"19":-1.1955324411392212,"20":-1.2941851615905762,"21":0.7900136709213257,"22":-1.0884238481521606,"23":1.5175503492355347,"24":-2.0205647945404053,"25":-0.5830751657485962,"26":1.2327280044555664,"27":0.4463980495929718,"28":0.7021474838256836,"29":0.8201607465744019,"30":0.9914606809616089,"31":0.6020505428314209,"32":-0.6369311213493347,"33":0.11659995466470718,"34":-0.19656190276145935,"35":0.16698838770389557,"36":-0.1910964846611023,"37":0.1336977332830429,"38":0.29507073760032654,"39":0.6274027228355408,"40":-0.5147413611412048,"41":-0.21286728978157043,"42":0.9796568155288696,"43":0.2810309827327728,"44":-0.30145108699798584,"45":-1.5530558824539185,"46":-0.0294597540050745,"47":0.581009566783905,"48":0.4817783534526825,"49":-0.6228247880935669,"50":-0.3959254324436188,"51":-0.8509275913238525,"52":0.12972776591777802,"53":-0.8660175204277039,"54":-0.24864856898784637,"55":0.1661331206560135,"56":-0.17237289249897003,"57":0.9142391681671143,"58":-0.2847358286380768,"59":-1.2517201900482178,"60":-0.7061272859573364,"61":-0.14706313610076904,"62":-1.0855824947357178,"63":-0.8572255969047546}},"cellActivationBias":{"rows":8,"columns":1,"weights":{"0":4.0454020500183105,"1":-2.0772767066955566,"2":-1.0055269002914429,"3":-2.3454904556274414,"4":-3.1665573120117188,"5":-0.9093961715698242,"6":-2.678586483001709,"7":0.07375223189592361}}}],"outputConnector":{"rows":4,"columns":8,"weights":{"0":0.486738920211792,"1":1.3035228252410889,"2":-0.341642826795578,"3":-0.9620494246482849,"4":-0.4877893626689911,"5":0.30970266461372375,"6":1.299270749092102,"7":-1.2621824741363525,"8":-1.592900037765503,"9":-0.8363829851150513,"10":1.7907843589782715,"11":-1.0492697954177856,"12":0.28426074981689453,"13":-0.6296852231025696,"14":-0.31614646315574646,"15":2.345461130142212,"16":-2.1308412551879883,"17":-0.1189088299870491,"18":0.8928753137588501,"19":2.284285545349121,"20":1.793096661567688,"21":1.4087530374526978,"22":0.7519894242286682,"23":0.9675613045692444,"24":-1.6867189407348633,"25":-2.3371102809906006,"26":0.6424912810325623,"27":1.2308508157730103,"28":1.9553399085998535,"29":-1.586617350578308,"30":2.7143709659576416,"31":-0.44207510352134705}},"output":{"rows":4,"columns":1,"weights":{"0":0.2896506190299988,"1":1.4301637411117554,"2":2.6663002967834473,"3":1.485464096069336}}}
>>>>>>> cc9ed1f0c6d05ceb2d980cddf747154072d9f94f
