{"type":"LSTMTimeStep","options":{"inputSize":4,"hiddenLayers":[8,8],"outputSize":4,"decayRate":0.999,"smoothEps":1e-8,"regc":0.000001,"clipval":5},"hiddenLayers":[{"inputMatrix":{"rows":8,"columns":4,"weights":{"0":0.26171958446502686,"1":-0.5483067631721497,"2":-2.4717068672180176,"3":-0.65446537733078,"4":-0.15956097841262817,"5":-0.5744196772575378,"6":-2.789674997329712,"7":-0.8242000937461853,"8":0.4237711429595947,"9":-1.330796241760254,"10":0.7175170183181763,"11":0.7209616899490356,"12":1.1232585906982422,"13":2.0129780769348145,"14":1.483473777770996,"15":1.2296807765960693,"16":-0.26100271940231323,"17":-1.1649845838546753,"18":-1.7802555561065674,"19":-0.5643884539604187,"20":0.2081492692232132,"21":0.4850236773490906,"22":-2.011932134628296,"23":0.34957972168922424,"24":0.029108978807926178,"25":-1.1932129859924316,"26":-1.7828075885772705,"27":0.027226410806179047,"28":-0.25137853622436523,"29":-0.3120308220386505,"30":-1.7358064651489258,"31":-0.4881073534488678}},"inputHidden":{"rows":8,"columns":8,"weights":{"0":0.6771326661109924,"1":-0.8036289215087891,"2":-0.5106125473976135,"3":0.2191857546567917,"4":-0.5188079476356506,"5":-0.8529057502746582,"6":0.5280435085296631,"7":-0.12855470180511475,"8":0.41021087765693665,"9":-0.5244022607803345,"10":-0.6952793002128601,"11":0.19935256242752075,"12":-0.36678439378738403,"13":-0.6674461960792542,"14":0.24526041746139526,"15":0.02279791794717312,"16":-0.21132732927799225,"17":0.3086518943309784,"18":0.2179131954908371,"19":0.03131512552499771,"20":-0.053108688443899155,"21":-0.44886869192123413,"22":0.2268523871898651,"23":-0.18559879064559937,"24":0.17996585369110107,"25":-0.4136740565299988,"26":0.24540100991725922,"27":-0.2238209992647171,"28":0.010184076614677906,"29":-0.6282104849815369,"30":-0.27222439646720886,"31":-0.4156733751296997,"32":0.34727534651756287,"33":-0.3988223373889923,"34":-0.5776053667068481,"35":0.2835310399532318,"36":-0.1737605184316635,"37":-0.3550693690776825,"38":0.19898836314678192,"39":-0.006702450104057789,"40":0.35089120268821716,"41":-0.28411978483200073,"42":-0.3023703992366791,"43":-0.2941255271434784,"44":-0.3376554250717163,"45":-0.9094550609588623,"46":0.2103521227836609,"47":-0.32453641295433044,"48":0.6829210519790649,"49":-0.7361931204795837,"50":-0.20688565075397491,"51":0.2914971709251404,"52":-0.44124841690063477,"53":-0.6749898195266724,"54":0.3519478440284729,"55":0.0003592934226617217,"56":-0.22109033167362213,"57":0.46718448400497437,"58":-2.596184253692627,"59":0.6216399073600769,"60":0.21569710969924927,"61":0.5967392325401306,"62":-0.5776376128196716,"63":0.1076112911105156}},"inputBias":{"rows":8,"columns":1,"weights":{"0":-1.013979434967041,"1":0.1868167668581009,"2":0.03007642924785614,"3":-2.4895219802856445,"4":0.8968714475631714,"5":4.073166370391846,"6":-0.04945242777466774,"7":2.1763265132904053}},"forgetMatrix":{"rows":8,"columns":4,"weights":{"0":0.4951023757457733,"1":0.1398049145936966,"2":-0.9110690355300903,"3":-0.10643801093101501,"4":0.3877962827682495,"5":0.01271975226700306,"6":-1.5552326440811157,"7":-0.16543260216712952,"8":0.07374567538499832,"9":-1.8211371898651123,"10":0.7664221525192261,"11":-0.3493071496486664,"12":-0.1874556839466095,"13":1.4576432704925537,"14":0.12692688405513763,"15":-0.7764111757278442,"16":-0.09201071411371231,"17":-0.11234147846698761,"18":-0.6705496907234192,"19":-0.018056530505418777,"20":0.6304365396499634,"21":0.29184654355049133,"22":-1.5461033582687378,"23":0.12262623012065887,"24":0.29344046115875244,"25":-0.25837355852127075,"26":-1.430105209350586,"27":0.1591217964887619,"28":-0.42349499464035034,"29":-0.3372301757335663,"30":-0.11573771387338638,"31":-0.4659779667854309}},"forgetHidden":{"rows":8,"columns":8,"weights":{"0":-0.08989519625902176,"1":-0.0820946991443634,"2":0.05278972163796425,"3":-0.14271429181098938,"4":0.04508272930979729,"5":-0.6837449669837952,"6":-0.09171685576438904,"7":-0.07164992392063141,"8":0.044935863465070724,"9":-0.10901354998350143,"10":0.2082950621843338,"11":-0.2726718485355377,"12":-0.02227162756025791,"13":-0.626302182674408,"14":-0.028519390150904655,"15":-0.007069973740726709,"16":-0.19009050726890564,"17":0.28317001461982727,"18":0.1781713366508484,"19":0.5547749400138855,"20":0.014085494913160801,"21":0.3966934084892273,"22":0.07981394976377487,"23":0.8204474449157715,"24":-0.6657666563987732,"25":0.46715477108955383,"26":-0.8118940591812134,"27":0.09184055775403976,"28":0.7387661337852478,"29":0.5543434023857117,"30":-1.2179685831069946,"31":0.2874184548854828,"32":0.03915344551205635,"33":-0.043410900980234146,"34":-0.5144480466842651,"35":-0.40185603499412537,"36":-0.049909647554159164,"37":-0.12365434318780899,"38":-0.18682268261909485,"39":-0.11860930919647217,"40":0.6448361873626709,"41":-0.7885381579399109,"42":0.9920011162757874,"43":-0.6676089763641357,"44":-0.3387586772441864,"45":-0.6732951998710632,"46":0.3329787254333496,"47":-0.6330711841583252,"48":0.15858441591262817,"49":-0.24809987843036652,"50":-0.013737042434513569,"51":-0.6399264931678772,"52":-0.022126493975520134,"53":-0.7789672613143921,"54":0.0221245177090168,"55":-0.15165705978870392,"56":-0.27492913603782654,"57":0.5238687992095947,"58":-1.0696049928665161,"59":0.46723276376724243,"60":0.38188856840133667,"61":0.5444040298461914,"62":-0.4190789759159088,"63":0.2115044891834259}},"forgetBias":{"rows":8,"columns":1,"weights":{"0":0,"1":0,"2":0,"3":0,"4":0,"5":0,"6":0,"7":0}},"outputMatrix":{"rows":8,"columns":4,"weights":{"0":-0.20191232860088348,"1":-0.6096584796905518,"2":-3.0467424392700195,"3":-0.9763914942741394,"4":-0.3934171497821808,"5":-0.586471676826477,"6":-3.4572646617889404,"7":-1.0918142795562744,"8":0.5697034597396851,"9":-1.3466719388961792,"10":1.0635284185409546,"11":0.6896741390228271,"12":0.9157410860061646,"13":2.2301461696624756,"14":1.2773089408874512,"15":0.7286695837974548,"16":-0.7632132172584534,"17":-1.1677042245864868,"18":-2.5975213050842285,"19":-1.1517966985702515,"20":-0.7327016592025757,"21":-0.5327301025390625,"22":-4.327393531799316,"23":-0.856476902961731,"24":-0.2440953254699707,"25":-1.139809012413025,"26":-2.2330729961395264,"27":-0.19973620772361755,"28":-0.26244479417800903,"29":-0.4464186728000641,"30":-1.533271074295044,"31":-0.5567814707756042}},"outputHidden":{"rows":8,"columns":8,"weights":{"0":-0.04912039637565613,"1":0.04731261730194092,"2":-0.6879220604896545,"3":0.3000853657722473,"4":0.1163986548781395,"5":-0.484352171421051,"6":-0.17755751311779022,"7":0.28717222809791565,"8":-0.1850539892911911,"9":0.19470098614692688,"10":-0.609627366065979,"11":0.24643489718437195,"12":0.22989578545093536,"13":-0.26793843507766724,"14":-0.3137783408164978,"15":0.43866676092147827,"16":-0.08216986805200577,"17":0.39412957429885864,"18":0.26796427369117737,"19":0.17249666154384613,"20":-0.07327612489461899,"21":-0.4209495782852173,"22":0.21507781744003296,"23":-0.05544658750295639,"24":-0.09340580552816391,"25":0.037979111075401306,"26":0.21827633678913116,"27":-0.6227872967720032,"28":0.39404717087745667,"29":-0.4530831575393677,"30":-0.6460922360420227,"31":-0.03764979541301727,"32":-0.3351424038410187,"33":0.23508909344673157,"34":-1.0181087255477905,"35":0.26368609070777893,"36":0.584504246711731,"37":0.07314739376306534,"38":-0.5077629089355469,"39":0.24330277740955353,"40":-0.707564115524292,"41":0.662645697593689,"42":-0.1976148784160614,"43":0.29649245738983154,"44":0.7526347041130066,"45":0.005616521928459406,"46":-0.8531710505485535,"47":0.3637359142303467,"48":0.08720170706510544,"49":-0.29606112837791443,"50":-0.453222393989563,"51":0.08409611880779266,"52":0.1242934837937355,"53":-0.5781290531158447,"54":-0.18544280529022217,"55":-0.14926554262638092,"56":-0.5895925164222717,"57":0.7474117875099182,"58":-2.395176887512207,"59":0.6711966395378113,"60":0.5353255867958069,"61":0.8904556632041931,"62":-0.8658973574638367,"63":0.34258320927619934}},"outputBias":{"rows":8,"columns":1,"weights":{"0":-1.3399875164031982,"1":-0.2081519365310669,"2":0.8983365297317505,"3":-1.704952359199524,"4":0.606675386428833,"5":4.197667598724365,"6":0.14132486283779144,"7":2.3985466957092285}},"cellActivationMatrix":{"rows":8,"columns":4,"weights":{"0":0.6675022840499878,"1":0.47568416595458984,"2":0.007753083948045969,"3":0.3806034028530121,"4":-0.5459396243095398,"5":-0.5721099972724915,"6":-0.026273176074028015,"7":-0.3989003300666809,"8":-0.5152953863143921,"9":-1.3334286212921143,"10":2.338809013366699,"11":-0.9682126641273499,"12":-0.22701074182987213,"13":-2.019845724105835,"14":-0.5603740215301514,"15":0.6168611645698547,"16":-0.5907866954803467,"17":-0.444840669631958,"18":-0.16007709503173828,"19":-0.45483338832855225,"20":-0.4898715913295746,"21":-0.6626295447349548,"22":-0.03472907096147537,"23":-0.5459191203117371,"24":0.7142849564552307,"25":0.5026956796646118,"26":0.09784341603517532,"27":0.4996606111526489,"28":-0.16760753095149994,"29":-1.5889736413955688,"30":-0.39090538024902344,"31":0.5252410769462585}},"cellActivationHidden":{"rows":8,"columns":8,"weights":{"0":0.4024786949157715,"1":-0.3495112657546997,"2":0.4974965453147888,"3":-0.3285641074180603,"4":-0.3344837427139282,"5":-0.8360692858695984,"6":0.4540420472621918,"7":-0.3390134274959564,"8":-0.41870298981666565,"9":0.4144022762775421,"10":-0.36655765771865845,"11":0.40671610832214355,"12":0.21406731009483337,"13":0.8256829380989075,"14":-0.31073880195617676,"15":0.2904081642627716,"16":-0.04057660326361656,"17":0.3106609582901001,"18":-1.6079771518707275,"19":0.26672834157943726,"20":0.14979760348796844,"21":1.2371796369552612,"22":-0.15214011073112488,"23":-0.6182348728179932,"24":-0.16949136555194855,"25":0.12977509200572968,"26":0.5661748051643372,"27":-0.7445662617683411,"28":0.19388724863529205,"29":-0.1518183946609497,"30":-0.10396193712949753,"31":0.6825422048568726,"32":-0.361026793718338,"33":0.2549048364162445,"34":-0.49864453077316284,"35":0.3707691431045532,"36":0.29195907711982727,"37":0.5979958176612854,"38":-0.3198629915714264,"39":0.3497762680053711,"40":-0.40538933873176575,"41":0.303823858499527,"42":-0.43856751918792725,"43":0.4143730103969574,"44":0.2738683521747589,"45":0.5613566040992737,"46":-0.2540161609649658,"47":0.36641111969947815,"48":0.4847545921802521,"49":-0.5109249353408813,"50":0.6159103512763977,"51":-0.26298099756240845,"52":-0.38214948773384094,"53":-0.9797410368919373,"54":0.3747628331184387,"55":-0.2830604910850525,"56":-0.3506365120410919,"57":0.36921122670173645,"58":-0.18053454160690308,"59":0.8886106610298157,"60":0.5897592902183533,"61":0.533536970615387,"62":-0.34768441319465637,"63":-0.38862183690071106}},"cellActivationBias":{"rows":8,"columns":1,"weights":{"0":1.2245197296142578,"1":-1.7053146362304688,"2":3.9786181449890137,"3":0.4094371497631073,"4":-1.5958402156829834,"5":-2.849839210510254,"6":1.5958391427993774,"7":1.5478075742721558}}},{"inputMatrix":{"rows":8,"columns":8,"weights":{"0":0.4797772765159607,"1":-0.4147849678993225,"2":0.9253007173538208,"3":0.6122392416000366,"4":-0.8479890823364258,"5":-0.28907373547554016,"6":0.8391923904418945,"7":0.6919997930526733,"8":1.1140046119689941,"9":-0.8950745463371277,"10":0.17441536486148834,"11":1.1231735944747925,"12":-1.1167560815811157,"13":0.017867987975478172,"14":1.0958194732666016,"15":-0.5115629434585571,"16":-0.15454234182834625,"17":0.1351332664489746,"18":-0.3588429093360901,"19":-0.30726128816604614,"20":0.29098424315452576,"21":-0.6418762803077698,"22":-0.3306383490562439,"23":-1.091997742652893,"24":-0.93865567445755,"25":1.1766149997711182,"26":-0.2841087877750397,"27":-0.3218115270137787,"28":0.9312495589256287,"29":0.8803358674049377,"30":-0.9196681976318359,"31":-0.5407572388648987,"32":0.534274160861969,"33":-0.521453320980072,"34":1.7339849472045898,"35":-0.032755184918642044,"36":-0.7512367963790894,"37":-0.8839313387870789,"38":0.7597163319587708,"39":-1.1908252239227295,"40":0.4195135533809662,"41":-0.4812740683555603,"42":0.001234821043908596,"43":0.22879837453365326,"44":-0.23318737745285034,"45":1.0154176950454712,"46":0.4166150689125061,"47":0.8181328773498535,"48":-1.0254970788955688,"49":0.7404833436012268,"50":0.12070669233798981,"51":0.7569646239280701,"52":0.6347540616989136,"53":0.08482629060745239,"54":-0.6571844220161438,"55":-0.21087686717510223,"56":-0.09308503568172455,"57":-0.05273517966270447,"58":0.14807814359664917,"59":-0.17065055668354034,"60":0.22525779902935028,"61":0.09878017008304596,"62":-0.28542423248291016,"63":-0.3289152681827545}},"inputHidden":{"rows":8,"columns":8,"weights":{"0":-0.27062591910362244,"1":0.38402628898620605,"2":-0.0311668049544096,"3":-1.189576268196106,"4":0.41208237409591675,"5":-0.33478033542633057,"6":0.1755673736333847,"7":0.9378472566604614,"8":-0.7564622163772583,"9":-0.3426123857498169,"10":0.10039690136909485,"11":-0.6143485903739929,"12":-0.4450688064098358,"13":-0.08541462570428848,"14":-0.334227055311203,"15":0.7572615742683411,"16":-0.4882529079914093,"17":-0.9059431552886963,"18":-0.23000022768974304,"19":0.5063809156417847,"20":-0.9414681196212769,"21":-0.46042168140411377,"22":-0.08345937728881836,"23":-0.08328696340322495,"24":-0.42534732818603516,"25":-0.6659564971923828,"26":-0.27737411856651306,"27":0.8578819036483765,"28":-1.172214150428772,"29":-0.5042023658752441,"30":-1.2032124996185303,"31":-0.300509512424469,"32":0.4758278727531433,"33":0.49807319045066833,"34":0.4654722809791565,"35":-1.3487013578414917,"36":0.7679162621498108,"37":-0.48665615916252136,"38":0.09537185728549957,"39":-0.015429271385073662,"40":-0.485813707113266,"41":-0.3338627815246582,"42":-0.7233913540840149,"43":0.4601711332798004,"44":-0.4132670760154724,"45":-0.20237843692302704,"46":0.23261646926403046,"47":0.0268864743411541,"48":-0.2712843418121338,"49":-0.47265759110450745,"50":0.19255298376083374,"51":0.1846577674150467,"52":-0.2641008496284485,"53":-0.00041212013456970453,"54":-0.05486607179045677,"55":-0.13153187930583954,"56":-0.14369788765907288,"57":0.16706135869026184,"58":0.017138756811618805,"59":-0.6757025122642517,"60":0.05567112937569618,"61":-0.5429524183273315,"62":0.20662902295589447,"63":-0.05337514728307724}},"inputBias":{"rows":8,"columns":1,"weights":{"0":1.2187652587890625,"1":-0.4373384714126587,"2":-0.9592695236206055,"3":-0.09966239333152771,"4":-0.2628887891769409,"5":2.430734634399414,"6":-1.9435243606567383,"7":0.3428588807582855}},"forgetMatrix":{"rows":8,"columns":8,"weights":{"0":-0.26721781492233276,"1":0.4388132393360138,"2":-0.8570974469184875,"3":1.506388545036316,"4":0.14638473093509674,"5":0.6740848422050476,"6":-0.11624300479888916,"7":-0.014476499520242214,"8":0.2674468457698822,"9":-0.17407402396202087,"10":-0.09630730003118515,"11":1.27798330783844,"12":-0.18299807608127594,"13":0.5441839098930359,"14":0.28228676319122314,"15":-0.14208218455314636,"16":-0.8236480951309204,"17":1.1672084331512451,"18":-1.3914345502853394,"19":1.2063628435134888,"20":0.8248103260993958,"21":1.0457383394241333,"22":-1.0716136693954468,"23":0.4248996078968048,"24":-0.7685805559158325,"25":0.770315945148468,"26":-1.2323460578918457,"27":0.9285919070243835,"28":0.7928032875061035,"29":1.6005066633224487,"30":-0.7837366461753845,"31":0.5474917888641357,"32":-0.2431000918149948,"33":0.4378250241279602,"34":0.2732703387737274,"35":0.6266904473304749,"36":0.2588464915752411,"37":0.4471467137336731,"38":-0.18204905092716217,"39":-0.12260829657316208,"40":-0.8133211135864258,"41":0.8380460739135742,"42":-1.0283502340316772,"43":1.2220300436019897,"44":1.0705249309539795,"45":2.497541666030884,"46":-1.015514850616455,"47":0.7919250130653381,"48":-1.04255211353302,"49":1.111539363861084,"50":-0.5214725732803345,"51":1.5411041975021362,"52":0.9038320183753967,"53":1.2221367359161377,"54":-1.119308590888977,"55":0.8134753704071045,"56":-1.0543086528778076,"57":1.0076978206634521,"58":-0.9741239547729492,"59":1.114855408668518,"60":1.0493303537368774,"61":1.6952526569366455,"62":-1.2983098030090332,"63":0.7893253564834595}},"forgetHidden":{"rows":8,"columns":8,"weights":{"0":-1.204687237739563,"1":-1.013919711112976,"2":0.1051671952009201,"3":-0.050930172204971313,"4":-0.9373102188110352,"5":-0.22242653369903564,"6":-0.30429795384407043,"7":1.2911896705627441,"8":-0.7330977320671082,"9":-0.9520785808563232,"10":0.16414253413677216,"11":-0.19555582106113434,"12":-0.9535318613052368,"13":-0.3217850923538208,"14":-0.2573886811733246,"15":0.896024763584137,"16":-1.059757113456726,"17":-1.481801152229309,"18":-0.012055556289851665,"19":1.3471962213516235,"20":-1.710864782333374,"21":0.0190922562032938,"22":0.4661705195903778,"23":-0.011771013960242271,"24":-0.6096919775009155,"25":-0.9235039949417114,"26":-0.0609733946621418,"27":0.9136420488357544,"28":-1.3531410694122314,"29":0.5041396021842957,"30":-0.2204628735780716,"31":0.45931413769721985,"32":-0.6933028697967529,"33":-0.7179815173149109,"34":0.32138288021087646,"35":-0.06253384798765182,"36":-0.7640348076820374,"37":-0.02516614831984043,"38":-0.3120707869529724,"39":0.4735525846481323,"40":-0.6717146039009094,"41":-1.0586066246032715,"42":-0.1595498025417328,"43":0.8269564509391785,"44":-1.1305954456329346,"45":0.2750924825668335,"46":0.20438992977142334,"47":0.28783443570137024,"48":-0.3093000650405884,"49":-0.7348154187202454,"50":0.6945669651031494,"51":0.34741315245628357,"52":-0.9265616536140442,"53":-0.3779635727405548,"54":0.1662316620349884,"55":-0.05290680006146431,"56":-0.7666416764259338,"57":-0.8550741076469421,"58":0.5666663646697998,"59":0.23153026401996613,"60":-0.6546538472175598,"61":0.2436915636062622,"62":0.3736710846424103,"63":0.6520984172821045}},"forgetBias":{"rows":8,"columns":1,"weights":{"0":0,"1":0,"2":0,"3":0,"4":0,"5":0,"6":0,"7":0}},"outputMatrix":{"rows":8,"columns":8,"weights":{"0":0.2632717788219452,"1":-0.12165305018424988,"2":0.4181820750236511,"3":0.9633330702781677,"4":-0.44306108355522156,"5":0.14386895298957825,"6":0.4998544752597809,"7":0.7271713614463806,"8":0.3875509798526764,"9":-0.23465843498706818,"10":0.1258983612060547,"11":1.5711220502853394,"12":-0.45458880066871643,"13":0.5906044840812683,"14":0.47635143995285034,"15":-0.04983541741967201,"16":-0.3510696589946747,"17":0.4145072400569916,"18":-0.3410972058773041,"19":-0.23258215188980103,"20":0.5056778192520142,"21":-0.18020975589752197,"22":-0.5351353883743286,"23":-0.8529571890830994,"24":-1.007742166519165,"25":1.2510957717895508,"26":-0.5584609508514404,"27":0.0733930915594101,"28":1.0979610681533813,"29":1.1494990587234497,"30":-1.126479148864746,"31":-0.4758588373661041,"32":-0.5811064839363098,"33":0.6471517086029053,"34":0.6006647348403931,"35":1.306024193763733,"36":0.3835192024707794,"37":0.7126784324645996,"38":-0.48181748390197754,"39":-0.44168826937675476,"40":0.2539615035057068,"41":-0.32963865995407104,"42":-0.11638990789651871,"43":0.25093021988868713,"44":-0.22359775006771088,"45":0.976520299911499,"46":0.2336961030960083,"47":0.9468410611152649,"48":-1.1676431894302368,"49":1.0297397375106812,"50":0.049026209861040115,"51":0.8153696656227112,"52":0.8375068306922913,"53":0.24896691739559174,"54":-0.7999579906463623,"55":0.004331833682954311,"56":-0.10799755156040192,"57":0.08748436719179153,"58":-0.3429136574268341,"59":0.4017471373081207,"60":0.2027660459280014,"61":0.48478615283966064,"62":-0.45619508624076843,"63":0.07169406861066818}},"outputHidden":{"rows":8,"columns":8,"weights":{"0":-0.6590703725814819,"1":-0.11582967638969421,"2":-0.04725991562008858,"3":-0.6186631321907043,"4":-0.17424176633358002,"5":-0.12602558732032776,"6":-0.03888077661395073,"7":1.1413509845733643,"8":-0.7483059167861938,"9":-1.0817755460739136,"10":0.46804922819137573,"11":0.010160531848669052,"12":-1.2457268238067627,"13":0.016934631392359734,"14":-0.31784647703170776,"15":1.1149646043777466,"16":-0.3380683660507202,"17":-0.9638054370880127,"18":0.049862757325172424,"19":0.6041412949562073,"20":-0.8993971347808838,"21":-0.31221264600753784,"22":0.2008768767118454,"23":-0.44490811228752136,"24":-0.544073224067688,"25":-0.8734583854675293,"26":-0.3188287913799286,"27":1.123092770576477,"28":-1.3418803215026855,"29":-0.31014835834503174,"30":-1.1509833335876465,"31":-0.051956187933683395,"32":-0.44707977771759033,"33":-1.1200660467147827,"34":0.757399320602417,"35":-0.21123823523521423,"36":-0.897372841835022,"37":0.010544564574956894,"38":-0.13748164474964142,"39":0.6798327565193176,"40":-0.40518009662628174,"41":-0.4329279661178589,"42":-0.693540096282959,"43":0.36859092116355896,"44":-0.677391767501831,"45":-0.2413083016872406,"46":0.016216743737459183,"47":0.09723227471113205,"48":-0.22508332133293152,"49":-0.6162304878234863,"50":0.20708970725536346,"51":0.345750629901886,"52":-0.48250290751457214,"53":-0.2553582191467285,"54":-0.018800584599375725,"55":-0.18404947221279144,"56":-0.5401049852371216,"57":-0.15496496856212616,"58":0.2144339233636856,"59":-0.2495744526386261,"60":-0.19044414162635803,"61":-0.061471935361623764,"62":0.2953716516494751,"63":0.26943665742874146}},"outputBias":{"rows":8,"columns":1,"weights":{"0":1.8788317441940308,"1":-0.10668504983186722,"2":0.10670938342809677,"3":-0.001724962959997356,"4":-0.7043467164039612,"5":3.6412148475646973,"6":-1.7327967882156372,"7":2.3251829147338867}},"cellActivationMatrix":{"rows":8,"columns":8,"weights":{"0":0.4363500773906708,"1":-0.39809638261795044,"2":1.8789472579956055,"3":-0.401276558637619,"4":-0.7741618156433105,"5":-0.5410279631614685,"6":0.6450627446174622,"7":0.20379219949245453,"8":0.6713510751724243,"9":-0.6594880223274231,"10":1.4915544986724854,"11":-0.11517730355262756,"12":-0.8883589506149292,"13":-0.5783801078796387,"14":0.8595033288002014,"15":-0.2801758050918579,"16":-0.20478594303131104,"17":0.19716261327266693,"18":1.490871787071228,"19":-0.39609619975090027,"20":0.13204364478588104,"21":0.5624613761901855,"22":-0.07043221592903137,"23":-1.30515456199646,"24":-0.2665547728538513,"25":0.2365303337574005,"26":-0.2617579698562622,"27":1.2928897142410278,"28":0.2760988473892212,"29":1.252339482307434,"30":-0.24875204265117645,"31":0.43037930130958557,"32":0.6901606917381287,"33":-0.9932693839073181,"34":2.512096643447876,"35":-0.6835536360740662,"36":-1.107883095741272,"37":-0.9550913572311401,"38":0.8931663036346436,"39":-0.42105016112327576,"40":0.7176726460456848,"41":-0.7364897131919861,"42":0.3259546160697937,"43":1.6445355415344238,"44":-1.1130037307739258,"45":-0.8506063222885132,"46":1.3766263723373413,"47":-0.2286219596862793,"48":-0.16231124103069305,"49":0.023763447999954224,"50":1.0892870426177979,"51":0.7191979885101318,"52":-0.11819346249103546,"53":0.4265953600406647,"54":0.28076207637786865,"55":-0.06841468811035156,"56":1.0794041156768799,"57":-1.0601587295532227,"58":-0.8188990354537964,"59":0.4273482859134674,"60":-0.6537191867828369,"61":-1.5901241302490234,"62":0.9644863605499268,"63":-0.5380323529243469}},"cellActivationHidden":{"rows":8,"columns":8,"weights":{"0":-0.16693620383739471,"1":0.8214877247810364,"2":0.3090797960758209,"3":-1.8562511205673218,"4":1.2529869079589844,"5":-0.1088334396481514,"6":0.5253580212593079,"7":0.03763764351606369,"8":0.605857253074646,"9":0.5956450700759888,"10":0.12111342698335648,"11":-1.1954362392425537,"12":0.7330597043037415,"13":-0.4558870494365692,"14":0.04171212762594223,"15":0.014110848307609558,"16":0.6046978831291199,"17":0.7273644208908081,"18":-0.5748687386512756,"19":-1.6730931997299194,"20":1.2252353429794312,"21":-0.6024117469787598,"22":0.03574203699827194,"23":-0.17070555686950684,"24":-1.3594239950180054,"25":-0.20014414191246033,"26":-0.7534058690071106,"27":-0.5860028266906738,"28":-0.3162759840488434,"29":0.10476190596818924,"30":-0.57490074634552,"31":1.174257516860962,"32":1.5583513975143433,"33":1.0948010683059692,"34":0.47897449135780334,"35":-1.8027315139770508,"36":1.4297269582748413,"37":-0.8325385451316833,"38":0.3041327893733978,"39":-0.4468082785606384,"40":-0.5485280752182007,"41":0.29384976625442505,"42":-0.02224818989634514,"43":-1.1089763641357422,"44":0.5637375712394714,"45":-0.7270956039428711,"46":-0.3436569273471832,"47":0.7078000903129578,"48":0.0677913948893547,"49":0.2622021436691284,"50":-0.6771832704544067,"51":-1.2644574642181396,"52":0.48266664147377014,"53":-0.04896317049860954,"54":-1.4397889375686646,"55":-0.07636100798845291,"56":-0.07028268277645111,"57":-0.03306848183274269,"58":0.2927839159965515,"59":0.3574451506137848,"60":-0.19740700721740723,"61":-0.34801167249679565,"62":0.4215759038925171,"63":-0.5048034191131592}},"cellActivationBias":{"rows":8,"columns":1,"weights":{"0":0.2425156831741333,"1":-0.1189623549580574,"2":1.4476851224899292,"3":-0.7219866514205933,"4":-1.1442121267318726,"5":0.009807854890823364,"6":0.863534688949585,"7":-0.6453460454940796}}}],"outputConnector":{"rows":4,"columns":8,"weights":{"0":0.2571882903575897,"1":0.909454345703125,"2":0.777685284614563,"3":-0.1732846051454544,"4":0.8335181474685669,"5":0.13630200922489166,"6":0.256278932094574,"7":-0.12223546952009201,"8":-1.7272759675979614,"9":-0.7453104853630066,"10":0.20390307903289795,"11":-0.5058179497718811,"12":-0.5849396586418152,"13":-0.15570832788944244,"14":-0.3291182518005371,"15":0.6825581789016724,"16":1.0070903301239014,"17":0.3045562505722046,"18":0.7015035152435303,"19":-0.7902010679244995,"20":0.8291847705841064,"21":-0.4196096360683441,"22":0.806023359298706,"23":-1.231602430343628,"24":0.9041841626167297,"25":-0.12403860688209534,"26":0.7173137068748474,"27":-0.3014793395996094,"28":0.43745920062065125,"29":-0.04344978928565979,"30":0.917151927947998,"31":-0.08896240592002869}},"output":{"rows":4,"columns":1,"weights":{"0":0.5164005160331726,"1":1.3936015367507935,"2":-0.2634209394454956,"3":-0.6333765983581543}}}