
{"type":"LSTMTimeStep","options":{"inputSize":4,"hiddenLayers":[8,8],"outputSize":4,"decayRate":0.999,"smoothEps":1e-8,"regc":0.000001,"clipval":5},"hiddenLayers":[{"inputMatrix":{"rows":8,"columns":4,"weights":{"0":0.8475624918937683,"1":1.131739854812622,"2":1.864496111869812,"3":-1.4064115285873413,"4":-0.6084533929824829,"5":1.519578218460083,"6":-2.870043992996216,"7":-1.2369884252548218,"8":0.16493640840053558,"9":-0.5960794687271118,"10":1.370603084564209,"11":-1.5818630456924438,"12":-0.646722674369812,"13":0.10075453668832779,"14":-3.43550968170166,"15":-0.9027577042579651,"16":-0.3970140814781189,"17":1.9548144340515137,"18":-2.213350296020508,"19":-1.0057604312896729,"20":-0.7364787459373474,"21":-1.598887324333191,"22":0.36339816451072693,"23":-1.1498304605484009,"24":1.0005844831466675,"25":0.1513836681842804,"26":1.7180474996566772,"27":-0.15935727953910828,"28":0.46796873211860657,"29":-0.713219940662384,"30":-0.39249393343925476,"31":-0.2586546242237091}},"inputHidden":{"rows":8,"columns":8,"weights":{"0":-1.079587697982788,"1":0.7004440426826477,"2":0.22041568160057068,"3":0.25258344411849976,"4":-1.2698372602462769,"5":-0.7167791128158569,"6":0.9512797594070435,"7":0.19789330661296844,"8":0.3218648433685303,"9":-0.6514851450920105,"10":-0.12274258583784103,"11":-0.10561330616474152,"12":0.10157335549592972,"13":0.3791523575782776,"14":-0.5259221196174622,"15":-0.8440658450126648,"16":0.1037326380610466,"17":-0.7268825769424438,"18":-0.38297760486602783,"19":-0.8523781299591064,"20":0.4222313165664673,"21":-0.651912271976471,"22":-0.012820342555642128,"23":0.060015153139829636,"24":0.025581777095794678,"25":-0.8864647150039673,"26":-0.17116734385490417,"27":-0.08216152340173721,"28":0.8726783394813538,"29":-0.15787656605243683,"30":0.009591168724000454,"31":-0.3632327914237976,"32":-0.046618375927209854,"33":-0.12673324346542358,"34":0.01621459797024727,"35":0.22448933124542236,"36":-0.2711154520511627,"37":0.15589691698551178,"38":-0.23046734929084778,"39":-0.45037081837654114,"40":0.6602319478988647,"41":-1.8889623880386353,"42":-0.44119852781295776,"43":-2.805233955383301,"44":2.0010173320770264,"45":0.19101868569850922,"46":-0.8217244148254395,"47":-0.5468764901161194,"48":-1.18131685256958,"49":1.149120569229126,"50":0.21278376877307892,"51":0.9016110301017761,"52":-0.8292773365974426,"53":-0.22258147597312927,"54":1.40928316116333,"55":0.7744813561439514,"56":-0.6695713400840759,"57":1.566973090171814,"58":0.7852855920791626,"59":0.8377036452293396,"60":-1.2109073400497437,"61":-0.8439329862594604,"62":0.7395791411399841,"63":0.44277381896972656}},"inputBias":{"rows":8,"columns":1,"weights":{"0":0.7128648161888123,"1":2.963071584701538,"2":-1.1322906017303467,"3":3.129593849182129,"4":0.24749670922756195,"5":2.1241557598114014,"6":2.7935593128204346,"7":1.8845456838607788}},"forgetMatrix":{"rows":8,"columns":4,"weights":{"0":0.14145797491073608,"1":0.8021694421768188,"2":1.5766549110412598,"3":-2.965052604675293,"4":-0.6033715605735779,"5":0.795443058013916,"6":-2.8274524211883545,"7":-1.002860188484192,"8":-0.8853029012680054,"9":-1.3529407978057861,"10":0.044497910887002945,"11":-1.6247211694717407,"12":-0.011559799313545227,"13":0.333233505487442,"14":-3.4354190826416016,"15":-0.6453614830970764,"16":-0.42470917105674744,"17":0.6070176959037781,"18":-2.7982687950134277,"19":-0.7826810479164124,"20":-0.3309270739555359,"21":-0.4401453733444214,"22":0.18958167731761932,"23":-0.8434876799583435,"24":0.20042623579502106,"25":-0.47596636414527893,"26":1.1811487674713135,"27":-2.7475693225860596,"28":-0.04336705431342125,"29":-2.1120574474334717,"30":-1.1675447225570679,"31":-2.120457649230957}},"forgetHidden":{"rows":8,"columns":8,"weights":{"0":-0.4949905276298523,"1":-0.6316547393798828,"2":0.39383643865585327,"3":-1.0760053396224976,"4":0.3405362665653229,"5":-1.0973920822143555,"6":0.28772324323654175,"7":-0.6543766856193542,"8":-0.17428191006183624,"9":-0.45199277997016907,"10":0.4394362270832062,"11":-0.04145502671599388,"12":0.17089053988456726,"13":0.6070741415023804,"14":-0.48200365900993347,"15":-0.7100658416748047,"16":0.8674666285514832,"17":-1.5195223093032837,"18":-1.0713223218917847,"19":-1.762697696685791,"20":1.3436996936798096,"21":0.5946147441864014,"22":-0.9653761386871338,"23":-0.5644615888595581,"24":-0.826810359954834,"25":-0.5310967564582825,"26":0.966973602771759,"27":0.08857350796461105,"28":0.38664284348487854,"29":-1.954296350479126,"30":0.6781088709831238,"31":-0.3132994472980499,"32":0.008232727646827698,"33":-0.3822535574436188,"34":0.07796851545572281,"35":0.13033057749271393,"36":0.20004698634147644,"37":-1.16669499874115,"38":-0.5424671173095703,"39":0.11704448610544205,"40":0.3914776146411896,"41":-0.08948428928852081,"42":-0.16080355644226074,"43":-2.059549331665039,"44":0.6830851435661316,"45":-0.5020666122436523,"46":-0.6386010646820068,"47":-1.2464171648025513,"48":-0.35776486992836,"49":-0.5803571343421936,"50":-0.32827433943748474,"51":-0.7612760066986084,"52":0.43786177039146423,"53":-1.1132783889770508,"54":0.4843407869338989,"55":-0.22505895793437958,"56":-0.06931913644075394,"57":0.14135804772377014,"58":0.09624452143907547,"59":-0.12685838341712952,"60":-0.5110702514648438,"61":-1.2936314344406128,"62":0.3308544158935547,"63":0.8185510635375977}},"forgetBias":{"rows":8,"columns":1,"weights":{"0":0,"1":0,"2":0,"3":0,"4":0,"5":0,"6":0,"7":0}},"outputMatrix":{"rows":8,"columns":4,"weights":{"0":1.0862795114517212,"1":0.7366628646850586,"2":1.9419118165969849,"3":-1.4634208679199219,"4":-0.6339966058731079,"5":1.2717100381851196,"6":-2.9381189346313477,"7":-1.1305512189865112,"8":0.14781013131141663,"9":-0.5240116715431213,"10":0.9723829030990601,"11":-1.0883769989013672,"12":-0.2438025027513504,"13":0.30742937326431274,"14":-3.3439741134643555,"15":-0.508796215057373,"16":-0.2843070924282074,"17":1.606144905090332,"18":-2.3217132091522217,"19":-1.0854127407073975,"20":-0.4846387803554535,"21":-1.3321130275726318,"22":0.1999206691980362,"23":-0.8364147543907166,"24":1.0747904777526855,"25":-0.13411058485507965,"26":1.9080445766448975,"27":-0.7412674427032471,"28":0.3481762111186981,"29":-0.6420219540596008,"30":-0.6102697849273682,"31":-0.5289153456687927}},"outputHidden":{"rows":8,"columns":8,"weights":{"0":-1.091127872467041,"1":0.8201454281806946,"2":0.5574473142623901,"3":0.27117910981178284,"4":-1.0108752250671387,"5":-0.9757431149482727,"6":1.1119942665100098,"7":0.29765865206718445,"8":0.39263513684272766,"9":-0.4261631369590759,"10":-0.19210284948349,"11":0.13098546862602234,"12":-0.019589535892009735,"13":0.4256482720375061,"14":-0.5476042628288269,"15":-0.678533136844635,"16":0.07902689278125763,"17":-0.5534128546714783,"18":-0.4293053448200226,"19":-0.79449462890625,"20":0.4240652322769165,"21":-0.6109480857849121,"22":-0.05724530667066574,"23":0.08261021971702576,"24":-0.20767301321029663,"25":-0.14379940927028656,"26":0.17962713539600372,"27":0.5194745659828186,"28":0.1124027743935585,"29":-0.2159954011440277,"30":0.32070404291152954,"31":-0.053516924381256104,"32":-0.0180311631411314,"33":-0.012852411717176437,"34":-0.053334515541791916,"35":0.3719838857650757,"36":-0.3164916932582855,"37":0.1200597882270813,"38":-0.2597869336605072,"39":-0.12904581427574158,"40":0.5888981819152832,"41":-1.7595410346984863,"42":-0.3186478316783905,"43":-2.5929207801818848,"44":1.8925410509109497,"45":0.10910781472921371,"46":-0.7120079398155212,"47":-0.5250645875930786,"48":-1.2797352075576782,"49":1.2122149467468262,"50":0.31944626569747925,"51":0.9936690926551819,"52":-1.0478451251983643,"53":-0.6164457201957703,"54":1.4131529331207275,"55":0.6119064688682556,"56":-0.23923765122890472,"57":1.1864806413650513,"58":0.5685076117515564,"59":0.5590783357620239,"60":-0.852344274520874,"61":-0.2915382981300354,"62":0.2946557104587555,"63":0.4926965832710266}},"outputBias":{"rows":8,"columns":1,"weights":{"0":1.6064766645431519,"1":3.124582052230835,"2":1.0667076110839844,"3":3.089527130126953,"4":1.5655078887939453,"5":2.773710250854492,"6":1.890180230140686,"7":5.881292343139648}},"cellActivationMatrix":{"rows":8,"columns":4,"weights":{"0":-1.138933777809143,"1":-1.8113964796066284,"2":-3.015253782272339,"3":0.07501005381345749,"4":0.8561375141143799,"5":0.8451821804046631,"6":-0.5180782079696655,"7":0.4180886447429657,"8":0.8316510915756226,"9":0.534615159034729,"10":2.5494000911712646,"11":-2.5301826000213623,"12":0.9248639345169067,"13":0.3110594153404236,"14":-0.7534329891204834,"15":0.266608864068985,"16":0.12991619110107422,"17":-2.9024429321289062,"18":0.37789613008499146,"19":-0.2823600769042969,"20":-0.2925034165382385,"21":0.9836374521255493,"22":-1.6573859453201294,"23":1.805862307548523,"24":1.1734505891799927,"25":0.9972504377365112,"26":2.10567307472229,"27":0.062387194484472275,"28":-0.23004619777202606,"29":-2.43515944480896,"30":-1.4571771621704102,"31":0.22738970816135406}},"cellActivationHidden":{"rows":8,"columns":8,"weights":{"0":-0.35599246621131897,"1":-0.3280211389064789,"2":0.09979706257581711,"3":0.0006190689164213836,"4":0.2353512942790985,"5":0.17215405404567719,"6":0.04563475400209427,"7":-0.2948778569698334,"8":-0.38693270087242126,"9":-0.0037850786466151476,"10":0.25015586614608765,"11":0.503280758857727,"12":-0.020492354407906532,"13":0.01148681715130806,"14":0.7475003600120544,"15":-0.13611401617527008,"16":0.04156770557165146,"17":0.18370820581912994,"18":-0.2918544113636017,"19":0.006031641736626625,"20":0.09489551931619644,"21":0.23297801613807678,"22":0.1288246512413025,"23":0.13102424144744873,"24":-1.085964560508728,"25":0.3657296895980835,"26":0.6640647053718567,"27":0.6465488076210022,"28":-0.3730379641056061,"29":-0.602328896522522,"30":1.125862717628479,"31":0.057829633355140686,"32":0.41777369379997253,"33":0.4704993665218353,"34":-1.2196507453918457,"35":-0.14328040182590485,"36":-0.39689770340919495,"37":0.5916748046875,"38":-0.502185046672821,"39":0.6507812142372131,"40":-0.5211524367332458,"41":0.3792332708835602,"42":0.6185789108276367,"43":1.0771571397781372,"44":-1.026336669921875,"45":-0.4181481599807739,"46":0.42214396595954895,"47":0.4651508033275604,"48":-0.28610917925834656,"49":0.7302677035331726,"50":0.04456894472241402,"51":0.14986445009708405,"52":-0.45467597246170044,"53":0.06244406849145889,"54":0.26677146553993225,"55":0.439628928899765,"56":-0.10069736838340759,"57":-0.30812785029411316,"58":-0.17611157894134521,"59":-0.0474211610853672,"60":0.2468441277742386,"61":-0.2643040716648102,"62":0.2743068039417267,"63":-0.33912572264671326}},"cellActivationBias":{"rows":8,"columns":1,"weights":{"0":-0.7853923439979553,"1":2.1409013271331787,"2":-1.5779922008514404,"3":1.9650256633758545,"4":0.5167700052261353,"5":-1.2070109844207764,"6":1.7704612016677856,"7":2.817380666732788}}},{"inputMatrix":{"rows":8,"columns":8,"weights":{"0":-1.8866485357284546,"1":0.759471595287323,"2":1.6795413494110107,"3":0.14078818261623383,"4":-1.336421012878418,"5":-0.12859216332435608,"6":1.6624329090118408,"7":-0.8580766320228577,"8":-0.8808000087738037,"9":0.11802314966917038,"10":0.3736732006072998,"11":-0.6563836932182312,"12":-0.4560976028442383,"13":0.21530456840991974,"14":0.7282883524894714,"15":-0.6292864084243774,"16":-1.7891067266464233,"17":1.4369999170303345,"18":0.9606799483299255,"19":1.6104943752288818,"20":-1.2993347644805908,"21":-0.6504755020141602,"22":1.8479690551757812,"23":0.534969687461853,"24":-0.3412816822528839,"25":-0.8466338515281677,"26":0.09305655211210251,"27":-0.02551136165857315,"28":1.414929986000061,"29":-1.025388479232788,"30":1.0701113939285278,"31":2.7386109828948975,"32":-0.6060310006141663,"33":-1.0270507335662842,"34":0.35852253437042236,"35":-1.0357582569122314,"36":0.9027594327926636,"37":0.03457892686128616,"38":0.47615763545036316,"39":-0.19849893450737,"40":2.090207099914551,"41":0.5926929712295532,"42":-1.7006785869598389,"43":1.0926711559295654,"44":0.8754338026046753,"45":1.3773082494735718,"46":-0.6684461236000061,"47":0.9708496332168579,"48":0.16805605590343475,"49":2.3131909370422363,"50":-0.5716155767440796,"51":2.9275949001312256,"52":-1.9531135559082031,"53":0.8567081093788147,"54":0.24579699337482452,"55":2.104724645614624,"56":-0.6443443894386292,"57":-1.5132883787155151,"58":0.8248035311698914,"59":-2.096734046936035,"60":1.2419044971466064,"61":-0.8086817860603333,"62":0.8331812024116516,"63":0.044595759361982346}},"inputHidden":{"rows":8,"columns":8,"weights":{"0":-0.15328773856163025,"1":0.3753368556499481,"2":0.85992830991745,"3":-0.2694721221923828,"4":-0.06079281121492386,"5":1.0147408246994019,"6":-0.0685000866651535,"7":-0.32316815853118896,"8":0.5378395915031433,"9":1.4106121063232422,"10":0.3588402271270752,"11":-0.19407552480697632,"12":-0.6716088056564331,"13":0.8631241917610168,"14":0.249892920255661,"15":-1.2332490682601929,"16":-0.22031545639038086,"17":-0.06211870536208153,"18":0.8683388233184814,"19":0.46822258830070496,"20":-0.1666748821735382,"21":-0.44272762537002563,"22":0.9375525712966919,"23":-0.1246894896030426,"24":0.830852210521698,"25":0.3830171823501587,"26":0.0644867941737175,"27":0.20673297345638275,"28":-0.2460363358259201,"29":-0.29812493920326233,"30":0.9860177040100098,"31":-0.23372620344161987,"32":0.5671707987785339,"33":0.5692471265792847,"34":-0.3260171413421631,"35":-0.4213213622570038,"36":-0.452070027589798,"37":1.4907206296920776,"38":-1.4512579441070557,"39":-0.8955067992210388,"40":0.8239735960960388,"41":0.6749829649925232,"42":-0.02244594879448414,"43":0.11163380742073059,"44":-0.04337720200419426,"45":0.8356926441192627,"46":0.37577715516090393,"47":-0.16120366752147675,"48":0.11845453828573227,"49":0.02914469875395298,"50":0.51290363073349,"51":-0.6251304149627686,"52":-0.04497912898659706,"53":-0.18020924925804138,"54":0.4123378098011017,"55":-0.8299242854118347,"56":-0.22508271038532257,"57":-0.6998869776725769,"58":0.3195117712020874,"59":0.13061584532260895,"60":0.08317188918590546,"61":0.2714730501174927,"62":0.46474727988243103,"63":0.072349913418293}},"inputBias":{"rows":8,"columns":1,"weights":{"0":-4.038374900817871,"1":-2.7427573204040527,"2":0.48946312069892883,"3":-1.4817938804626465,"4":-2.9056289196014404,"5":-0.6910789012908936,"6":-0.648191511631012,"7":-0.3652874827384949}},"forgetMatrix":{"rows":8,"columns":8,"weights":{"0":0.4665604531764984,"1":-0.8637523651123047,"2":-0.8691527247428894,"3":-1.471765160560608,"4":0.8611001372337341,"5":0.8489028215408325,"6":-0.5139386653900146,"7":0.14981843531131744,"8":0.7594135403633118,"9":-1.2908616065979004,"10":-0.8464138507843018,"11":-1.7773263454437256,"12":1.22727632522583,"13":0.4268122613430023,"14":-0.8078563213348389,"15":0.1813226193189621,"16":0.755057692527771,"17":-1.004026174545288,"18":-1.1025270223617554,"19":-0.7593719959259033,"20":0.8931586146354675,"21":0.7782711386680603,"22":-0.6875185966491699,"23":-0.36872753500938416,"24":0.9114790558815002,"25":-0.9713394045829773,"26":-0.6543822288513184,"27":-1.3844434022903442,"28":0.8377211689949036,"29":0.5945772528648376,"30":-0.6225760579109192,"31":-0.19969689846038818,"32":0.3257252871990204,"33":-0.7347236275672913,"34":-0.5590770244598389,"35":-0.7245598435401917,"36":0.6129556894302368,"37":0.5024410486221313,"38":-0.3484352231025696,"39":-0.18734465539455414,"40":1.3370620012283325,"41":-0.6394187808036804,"42":-0.049930594861507416,"43":-0.26254889369010925,"44":0.197647824883461,"45":0.3554142713546753,"46":-1.0802686214447021,"47":-0.5439119338989258,"48":0.3425615131855011,"49":0.19950920343399048,"50":-0.8935691118240356,"51":0.22617940604686737,"52":-0.38442251086235046,"53":0.3815680146217346,"54":0.11653559654951096,"55":0.17620082199573517,"56":0.040087003260850906,"57":-1.4866548776626587,"58":-0.12334905564785004,"59":-1.9343341588974,"60":1.3373206853866577,"61":0.41930171847343445,"62":-0.18630783259868622,"63":0.018006015568971634}},"forgetHidden":{"rows":8,"columns":8,"weights":{"0":1.7710201740264893,"1":1.9464633464813232,"2":-0.9005221128463745,"3":-0.7727740406990051,"4":-1.1327179670333862,"5":0.4639326333999634,"6":-1.154297113418579,"7":-1.6339402198791504,"8":1.40459144115448,"9":1.31614351272583,"10":-1.0232185125350952,"11":-0.30948159098625183,"12":-0.6621220707893372,"13":0.23480109870433807,"14":-0.5694748759269714,"15":-0.9781745076179504,"16":2.1689109802246094,"17":1.7209593057632446,"18":-1.4982250928878784,"19":-1.5706171989440918,"20":-1.2559871673583984,"21":1.1560235023498535,"22":-1.3256349563598633,"23":-1.2428209781646729,"24":1.4499263763427734,"25":1.1082028150558472,"26":-1.1620686054229736,"27":-1.619897484779358,"28":-0.9437239170074463,"29":0.9151659607887268,"30":-1.3014960289001465,"31":-0.9192894101142883,"32":0.8891016244888306,"33":0.7530999779701233,"34":-0.8025202751159668,"35":-0.7196584343910217,"36":-0.9093881249427795,"37":0.5243031978607178,"38":-1.2454986572265625,"39":-1.0286436080932617,"40":0.39218124747276306,"41":0.20616784691810608,"42":-1.1779415607452393,"43":-1.0578114986419678,"44":0.3113640546798706,"45":1.2147220373153687,"46":-1.3407022953033447,"47":0.00998341478407383,"48":0.7728170156478882,"49":0.8049924969673157,"50":-0.5718298554420471,"51":-1.2011260986328125,"52":0.049469754099845886,"53":1.5661654472351074,"54":-1.3226817846298218,"55":-0.8647748827934265,"56":0.3326044976711273,"57":0.15376149117946625,"58":-0.1942669153213501,"59":-0.7343175411224365,"60":-0.5972508192062378,"61":0.28285589814186096,"62":-0.7006737589836121,"63":-0.6309612393379211}},"forgetBias":{"rows":8,"columns":1,"weights":{"0":0,"1":0,"2":0,"3":0,"4":0,"5":0,"6":0,"7":0}},"outputMatrix":{"rows":8,"columns":8,"weights":{"0":-0.5919249653816223,"1":-0.254988431930542,"2":0.014489521272480488,"3":-0.7741960287094116,"4":0.0015532762045040727,"5":0.2791862487792969,"6":0.42419299483299255,"7":-0.7585006952285767,"8":-0.1853790432214737,"9":-0.42291417717933655,"10":-0.1789434850215912,"11":-1.2290186882019043,"12":0.19616948068141937,"13":0.47775688767433167,"14":0.09092439711093903,"15":-0.3474137783050537,"16":-1.115210771560669,"17":0.21685872972011566,"18":0.29082077741622925,"19":0.6260523200035095,"20":-0.09875181317329407,"21":-0.39680925011634827,"22":1.1704115867614746,"23":0.26335734128952026,"24":-0.35905537009239197,"25":-0.5112394690513611,"26":0.09623914957046509,"27":-0.45450839400291443,"28":0.8185925483703613,"29":-0.2064511924982071,"30":0.7188827991485596,"31":1.2828878164291382,"32":-0.4891844689846039,"33":-0.9183260798454285,"34":0.09466703981161118,"35":-0.7194697260856628,"36":0.7635387182235718,"37":0.3134611248970032,"38":0.2676585912704468,"39":-0.21910303831100464,"40":1.440070390701294,"41":0.18852612376213074,"42":-1.6733136177062988,"43":0.7379152178764343,"44":1.210153579711914,"45":0.969880998134613,"46":-0.7434505820274353,"47":0.7363125681877136,"48":0.24788431823253632,"49":1.3313405513763428,"50":-1.2680491209030151,"51":1.353659987449646,"52":-1.1357135772705078,"53":0.8108620643615723,"54":0.28004130721092224,"55":1.0959193706512451,"56":-0.22903972864151,"57":-1.9094974994659424,"58":0.3233683705329895,"59":-2.5050981044769287,"60":1.5400619506835938,"61":0.06226294860243797,"62":0.2705361247062683,"63":-0.07258932292461395}},"outputHidden":{"rows":8,"columns":8,"weights":{"0":1.0734302997589111,"1":1.5778961181640625,"2":-0.2689705491065979,"3":-0.8584680557250977,"4":-0.9625858664512634,"5":1.3303067684173584,"6":-0.9483131170272827,"7":-1.5480226278305054,"8":1.0437278747558594,"9":1.773654818534851,"10":-0.23743680119514465,"11":-0.38908591866493225,"12":-0.9755032658576965,"13":1.001003384590149,"14":-0.057532407343387604,"15":-1.5833709239959717,"16":0.8283334374427795,"17":0.5197558999061584,"18":-0.18335480988025665,"19":-0.40659192204475403,"20":-0.328457236289978,"21":0.3509344160556793,"22":-0.17906296253204346,"23":-0.3857341706752777,"24":1.179662823677063,"25":0.7046552896499634,"26":-0.2956412732601166,"27":-0.8559720516204834,"28":-0.6495209336280823,"29":0.509386420249939,"30":-0.1599057912826538,"31":-0.6117652654647827,"32":0.706745445728302,"33":0.7103355526924133,"34":-0.4552661180496216,"35":-0.5757650136947632,"36":-0.5630970001220703,"37":1.1929562091827393,"38":-1.1875715255737305,"39":-0.9591180682182312,"40":1.0427581071853638,"41":0.7504490613937378,"42":-0.4167693555355072,"43":-0.26076146960258484,"44":-0.028674989938735962,"45":1.2718653678894043,"46":-0.2717548906803131,"47":-0.29656049609184265,"48":0.526699960231781,"49":0.5759294033050537,"50":-0.16434887051582336,"51":-0.9786407351493835,"52":-0.38776424527168274,"53":0.8234859108924866,"54":-0.8125349283218384,"55":-1.0188288688659668,"56":0.22821499407291412,"57":-0.24554505944252014,"58":0.07406558841466904,"59":-0.4635104835033417,"60":-0.32967060804367065,"61":0.5338608026504517,"62":-0.21989957988262177,"63":-0.4046512246131897}},"outputBias":{"rows":8,"columns":1,"weights":{"0":-0.9397706985473633,"1":-1.1898508071899414,"2":-1.1270252466201782,"3":-2.0626418590545654,"4":-2.6149802207946777,"5":0.7649132013320923,"6":-2.594956159591675,"7":-1.4111225605010986}},"cellActivationMatrix":{"rows":8,"columns":8,"weights":{"0":1.5695130825042725,"1":-0.668184220790863,"2":-1.332291603088379,"3":-0.5684489011764526,"4":0.5150384306907654,"5":0.928090512752533,"6":-1.8671722412109375,"7":0.215536430478096,"8":1.337160348892212,"9":-0.4062202572822571,"10":-1.2744901180267334,"11":-0.09863176196813583,"12":0.7465974688529968,"13":0.5319796800613403,"14":-1.427402377128601,"15":0.3979080617427826,"16":-1.4543702602386475,"17":1.6607590913772583,"18":1.00070321559906,"19":1.6886215209960938,"20":-1.389264702796936,"21":-0.4928549528121948,"22":1.706888198852539,"23":0.8355548977851868,"24":-0.9285760521888733,"25":0.21585986018180847,"26":0.6925995349884033,"27":0.2838257849216461,"28":0.030568158254027367,"29":-0.7201630473136902,"30":1.3547492027282715,"31":0.39592763781547546,"32":-1.0270508527755737,"33":0.8108200430870056,"34":0.8259763717651367,"35":0.8484283089637756,"36":-0.5967963933944702,"37":-0.5761585831642151,"38":1.0610705614089966,"39":0.48249128460884094,"40":-0.2467810958623886,"41":0.26705029606819153,"42":1.1510953903198242,"43":-1.010972499847412,"44":-1.4981440305709839,"45":1.5363346338272095,"46":-0.35383790731430054,"47":-1.3102984428405762,"48":-0.752787172794342,"49":0.8939902782440186,"50":0.48225775361061096,"51":1.3033887147903442,"52":-0.7716693878173828,"53":-0.4030013382434845,"54":1.2348790168762207,"55":0.6656341552734375,"56":-1.2177081108093262,"57":0.17254813015460968,"58":1.269677758216858,"59":0.07244285941123962,"60":-0.3473406434059143,"61":-0.9191280603408813,"62":1.4985014200210571,"63":0.13612687587738037}},"cellActivationHidden":{"rows":8,"columns":8,"weights":{"0":0.6551750898361206,"1":0.3532011806964874,"2":-1.0767041444778442,"3":-0.6535033583641052,"4":-0.5824314951896667,"5":0.47114360332489014,"6":-0.5617274045944214,"7":-0.5347583293914795,"8":0.30270761251449585,"9":0.08875708281993866,"10":-0.7938154339790344,"11":-0.39736849069595337,"12":-0.31810256838798523,"13":0.6700284481048584,"14":-0.5102333426475525,"15":-0.2734321355819702,"16":-0.5762068033218384,"17":0.121382936835289,"18":0.9048962593078613,"19":0.6578153371810913,"20":0.053235333412885666,"21":-0.7145996689796448,"22":1.5675216913223267,"23":-0.06435847282409668,"24":-0.4860355854034424,"25":-0.219756618142128,"26":0.7857558727264404,"27":0.5158997178077698,"28":0.3111211955547333,"29":-0.12159023433923721,"30":0.1899755448102951,"31":0.4269426167011261,"32":-0.18990011513233185,"33":-0.10807764530181885,"34":0.4123196005821228,"35":0.2872421443462372,"36":-0.016766231507062912,"37":-0.3485679626464844,"38":0.612932026386261,"39":-0.09812182933092117,"40":0.2508392632007599,"41":0.5408211350440979,"42":-1.1853926181793213,"43":-1.3611892461776733,"44":-0.6416321992874146,"45":-0.22468909621238708,"46":-0.26468369364738464,"47":-0.4736696481704712,"48":-0.6164346933364868,"49":-0.5631732940673828,"50":1.2924505472183228,"51":0.8025561571121216,"52":0.9434369206428528,"53":0.09030107408761978,"54":0.16502989828586578,"55":0.4886159300804138,"56":-0.6840174794197083,"57":-0.5317239761352539,"58":0.6103538870811462,"59":0.49734944105148315,"60":0.3224288821220398,"61":-0.6069555878639221,"62":0.6699577569961548,"63":0.40933758020401}},"cellActivationBias":{"rows":8,"columns":1,"weights":{"0":-0.18598350882530212,"1":0.34994709491729736,"2":0.7164239287376404,"3":2.1572258472442627,"4":0.89198237657547,"5":0.5175867676734924,"6":0.6200238466262817,"7":0.7262016534805298}}}],"outputConnector":{"rows":4,"columns":8,"weights":{"0":-1.621518850326538,"1":-1.1975394487380981,"2":2.300990581512451,"3":0.6416495442390442,"4":1.0739719867706299,"5":0.4479314088821411,"6":0.6650847792625427,"7":0.4745781719684601,"8":0.2953832447528839,"9":0.13809815049171448,"10":-1.919969081878662,"11":-2.2196857929229736,"12":-0.8410279750823975,"13":1.2029975652694702,"14":0.045412857085466385,"15":-1.1952056884765625,"16":-0.6783638596534729,"17":-0.5627263188362122,"18":-0.32922619581222534,"19":0.49243852496147156,"20":1.2582812309265137,"21":0.9097740054130554,"22":-1.5902832746505737,"23":1.4822473526000977,"24":1.509913444519043,"25":0.5792189836502075,"26":-1.902056097984314,"27":-0.7156255841255188,"28":-1.4288887977600098,"29":-0.06038480997085571,"30":-0.5460819005966187,"31":-0.45408526062965393}},"output":{"rows":4,"columns":1,"weights":{"0":-0.7298088073730469,"1":1.8914824724197388,"2":0.8672407865524292,"3":1.5623939037322998}}}
=======
{"type":"LSTMTimeStep","options":{"inputSize":4,"hiddenLayers":[8,8],"outputSize":4,"decayRate":0.999,"smoothEps":1e-8,"regc":0.000001,"clipval":5},"hiddenLayers":[{"inputMatrix":{"rows":8,"columns":4,"weights":{"0":0.8475624918937683,"1":1.131739854812622,"2":1.864496111869812,"3":-1.4064115285873413,"4":-0.6084533929824829,"5":1.519578218460083,"6":-2.870043992996216,"7":-1.2369884252548218,"8":0.16493640840053558,"9":-0.5960794687271118,"10":1.370603084564209,"11":-1.5818630456924438,"12":-0.646722674369812,"13":0.10075453668832779,"14":-3.43550968170166,"15":-0.9027577042579651,"16":-0.3970140814781189,"17":1.9548144340515137,"18":-2.213350296020508,"19":-1.0057604312896729,"20":-0.7364787459373474,"21":-1.598887324333191,"22":0.36339816451072693,"23":-1.1498304605484009,"24":1.0005844831466675,"25":0.1513836681842804,"26":1.7180474996566772,"27":-0.15935727953910828,"28":0.46796873211860657,"29":-0.713219940662384,"30":-0.39249393343925476,"31":-0.2586546242237091}},"inputHidden":{"rows":8,"columns":8,"weights":{"0":-1.079587697982788,"1":0.7004440426826477,"2":0.22041568160057068,"3":0.25258344411849976,"4":-1.2698372602462769,"5":-0.7167791128158569,"6":0.9512797594070435,"7":0.19789330661296844,"8":0.3218648433685303,"9":-0.6514851450920105,"10":-0.12274258583784103,"11":-0.10561330616474152,"12":0.10157335549592972,"13":0.3791523575782776,"14":-0.5259221196174622,"15":-0.8440658450126648,"16":0.1037326380610466,"17":-0.7268825769424438,"18":-0.38297760486602783,"19":-0.8523781299591064,"20":0.4222313165664673,"21":-0.651912271976471,"22":-0.012820342555642128,"23":0.060015153139829636,"24":0.025581777095794678,"25":-0.8864647150039673,"26":-0.17116734385490417,"27":-0.08216152340173721,"28":0.8726783394813538,"29":-0.15787656605243683,"30":0.009591168724000454,"31":-0.3632327914237976,"32":-0.046618375927209854,"33":-0.12673324346542358,"34":0.01621459797024727,"35":0.22448933124542236,"36":-0.2711154520511627,"37":0.15589691698551178,"38":-0.23046734929084778,"39":-0.45037081837654114,"40":0.6602319478988647,"41":-1.8889623880386353,"42":-0.44119852781295776,"43":-2.805233955383301,"44":2.0010173320770264,"45":0.19101868569850922,"46":-0.8217244148254395,"47":-0.5468764901161194,"48":-1.18131685256958,"49":1.149120569229126,"50":0.21278376877307892,"51":0.9016110301017761,"52":-0.8292773365974426,"53":-0.22258147597312927,"54":1.40928316116333,"55":0.7744813561439514,"56":-0.6695713400840759,"57":1.566973090171814,"58":0.7852855920791626,"59":0.8377036452293396,"60":-1.2109073400497437,"61":-0.8439329862594604,"62":0.7395791411399841,"63":0.44277381896972656}},"inputBias":{"rows":8,"columns":1,"weights":{"0":0.7128648161888123,"1":2.963071584701538,"2":-1.1322906017303467,"3":3.129593849182129,"4":0.24749670922756195,"5":2.1241557598114014,"6":2.7935593128204346,"7":1.8845456838607788}},"forgetMatrix":{"rows":8,"columns":4,"weights":{"0":0.14145797491073608,"1":0.8021694421768188,"2":1.5766549110412598,"3":-2.965052604675293,"4":-0.6033715605735779,"5":0.795443058013916,"6":-2.8274524211883545,"7":-1.002860188484192,"8":-0.8853029012680054,"9":-1.3529407978057861,"10":0.044497910887002945,"11":-1.6247211694717407,"12":-0.011559799313545227,"13":0.333233505487442,"14":-3.4354190826416016,"15":-0.6453614830970764,"16":-0.42470917105674744,"17":0.6070176959037781,"18":-2.7982687950134277,"19":-0.7826810479164124,"20":-0.3309270739555359,"21":-0.4401453733444214,"22":0.18958167731761932,"23":-0.8434876799583435,"24":0.20042623579502106,"25":-0.47596636414527893,"26":1.1811487674713135,"27":-2.7475693225860596,"28":-0.04336705431342125,"29":-2.1120574474334717,"30":-1.1675447225570679,"31":-2.120457649230957}},"forgetHidden":{"rows":8,"columns":8,"weights":{"0":-0.4949905276298523,"1":-0.6316547393798828,"2":0.39383643865585327,"3":-1.0760053396224976,"4":0.3405362665653229,"5":-1.0973920822143555,"6":0.28772324323654175,"7":-0.6543766856193542,"8":-0.17428191006183624,"9":-0.45199277997016907,"10":0.4394362270832062,"11":-0.04145502671599388,"12":0.17089053988456726,"13":0.6070741415023804,"14":-0.48200365900993347,"15":-0.7100658416748047,"16":0.8674666285514832,"17":-1.5195223093032837,"18":-1.0713223218917847,"19":-1.762697696685791,"20":1.3436996936798096,"21":0.5946147441864014,"22":-0.9653761386871338,"23":-0.5644615888595581,"24":-0.826810359954834,"25":-0.5310967564582825,"26":0.966973602771759,"27":0.08857350796461105,"28":0.38664284348487854,"29":-1.954296350479126,"30":0.6781088709831238,"31":-0.3132994472980499,"32":0.008232727646827698,"33":-0.3822535574436188,"34":0.07796851545572281,"35":0.13033057749271393,"36":0.20004698634147644,"37":-1.16669499874115,"38":-0.5424671173095703,"39":0.11704448610544205,"40":0.3914776146411896,"41":-0.08948428928852081,"42":-0.16080355644226074,"43":-2.059549331665039,"44":0.6830851435661316,"45":-0.5020666122436523,"46":-0.6386010646820068,"47":-1.2464171648025513,"48":-0.35776486992836,"49":-0.5803571343421936,"50":-0.32827433943748474,"51":-0.7612760066986084,"52":0.43786177039146423,"53":-1.1132783889770508,"54":0.4843407869338989,"55":-0.22505895793437958,"56":-0.06931913644075394,"57":0.14135804772377014,"58":0.09624452143907547,"59":-0.12685838341712952,"60":-0.5110702514648438,"61":-1.2936314344406128,"62":0.3308544158935547,"63":0.8185510635375977}},"forgetBias":{"rows":8,"columns":1,"weights":{"0":0,"1":0,"2":0,"3":0,"4":0,"5":0,"6":0,"7":0}},"outputMatrix":{"rows":8,"columns":4,"weights":{"0":1.0862795114517212,"1":0.7366628646850586,"2":1.9419118165969849,"3":-1.4634208679199219,"4":-0.6339966058731079,"5":1.2717100381851196,"6":-2.9381189346313477,"7":-1.1305512189865112,"8":0.14781013131141663,"9":-0.5240116715431213,"10":0.9723829030990601,"11":-1.0883769989013672,"12":-0.2438025027513504,"13":0.30742937326431274,"14":-3.3439741134643555,"15":-0.508796215057373,"16":-0.2843070924282074,"17":1.606144905090332,"18":-2.3217132091522217,"19":-1.0854127407073975,"20":-0.4846387803554535,"21":-1.3321130275726318,"22":0.1999206691980362,"23":-0.8364147543907166,"24":1.0747904777526855,"25":-0.13411058485507965,"26":1.9080445766448975,"27":-0.7412674427032471,"28":0.3481762111186981,"29":-0.6420219540596008,"30":-0.6102697849273682,"31":-0.5289153456687927}},"outputHidden":{"rows":8,"columns":8,"weights":{"0":-1.091127872467041,"1":0.8201454281806946,"2":0.5574473142623901,"3":0.27117910981178284,"4":-1.0108752250671387,"5":-0.9757431149482727,"6":1.1119942665100098,"7":0.29765865206718445,"8":0.39263513684272766,"9":-0.4261631369590759,"10":-0.19210284948349,"11":0.13098546862602234,"12":-0.019589535892009735,"13":0.4256482720375061,"14":-0.5476042628288269,"15":-0.678533136844635,"16":0.07902689278125763,"17":-0.5534128546714783,"18":-0.4293053448200226,"19":-0.79449462890625,"20":0.4240652322769165,"21":-0.6109480857849121,"22":-0.05724530667066574,"23":0.08261021971702576,"24":-0.20767301321029663,"25":-0.14379940927028656,"26":0.17962713539600372,"27":0.5194745659828186,"28":0.1124027743935585,"29":-0.2159954011440277,"30":0.32070404291152954,"31":-0.053516924381256104,"32":-0.0180311631411314,"33":-0.012852411717176437,"34":-0.053334515541791916,"35":0.3719838857650757,"36":-0.3164916932582855,"37":0.1200597882270813,"38":-0.2597869336605072,"39":-0.12904581427574158,"40":0.5888981819152832,"41":-1.7595410346984863,"42":-0.3186478316783905,"43":-2.5929207801818848,"44":1.8925410509109497,"45":0.10910781472921371,"46":-0.7120079398155212,"47":-0.5250645875930786,"48":-1.2797352075576782,"49":1.2122149467468262,"50":0.31944626569747925,"51":0.9936690926551819,"52":-1.0478451251983643,"53":-0.6164457201957703,"54":1.4131529331207275,"55":0.6119064688682556,"56":-0.23923765122890472,"57":1.1864806413650513,"58":0.5685076117515564,"59":0.5590783357620239,"60":-0.852344274520874,"61":-0.2915382981300354,"62":0.2946557104587555,"63":0.4926965832710266}},"outputBias":{"rows":8,"columns":1,"weights":{"0":1.6064766645431519,"1":3.124582052230835,"2":1.0667076110839844,"3":3.089527130126953,"4":1.5655078887939453,"5":2.773710250854492,"6":1.890180230140686,"7":5.881292343139648}},"cellActivationMatrix":{"rows":8,"columns":4,"weights":{"0":-1.138933777809143,"1":-1.8113964796066284,"2":-3.015253782272339,"3":0.07501005381345749,"4":0.8561375141143799,"5":0.8451821804046631,"6":-0.5180782079696655,"7":0.4180886447429657,"8":0.8316510915756226,"9":0.534615159034729,"10":2.5494000911712646,"11":-2.5301826000213623,"12":0.9248639345169067,"13":0.3110594153404236,"14":-0.7534329891204834,"15":0.266608864068985,"16":0.12991619110107422,"17":-2.9024429321289062,"18":0.37789613008499146,"19":-0.2823600769042969,"20":-0.2925034165382385,"21":0.9836374521255493,"22":-1.6573859453201294,"23":1.805862307548523,"24":1.1734505891799927,"25":0.9972504377365112,"26":2.10567307472229,"27":0.062387194484472275,"28":-0.23004619777202606,"29":-2.43515944480896,"30":-1.4571771621704102,"31":0.22738970816135406}},"cellActivationHidden":{"rows":8,"columns":8,"weights":{"0":-0.35599246621131897,"1":-0.3280211389064789,"2":0.09979706257581711,"3":0.0006190689164213836,"4":0.2353512942790985,"5":0.17215405404567719,"6":0.04563475400209427,"7":-0.2948778569698334,"8":-0.38693270087242126,"9":-0.0037850786466151476,"10":0.25015586614608765,"11":0.503280758857727,"12":-0.020492354407906532,"13":0.01148681715130806,"14":0.7475003600120544,"15":-0.13611401617527008,"16":0.04156770557165146,"17":0.18370820581912994,"18":-0.2918544113636017,"19":0.006031641736626625,"20":0.09489551931619644,"21":0.23297801613807678,"22":0.1288246512413025,"23":0.13102424144744873,"24":-1.085964560508728,"25":0.3657296895980835,"26":0.6640647053718567,"27":0.6465488076210022,"28":-0.3730379641056061,"29":-0.602328896522522,"30":1.125862717628479,"31":0.057829633355140686,"32":0.41777369379997253,"33":0.4704993665218353,"34":-1.2196507453918457,"35":-0.14328040182590485,"36":-0.39689770340919495,"37":0.5916748046875,"38":-0.502185046672821,"39":0.6507812142372131,"40":-0.5211524367332458,"41":0.3792332708835602,"42":0.6185789108276367,"43":1.0771571397781372,"44":-1.026336669921875,"45":-0.4181481599807739,"46":0.42214396595954895,"47":0.4651508033275604,"48":-0.28610917925834656,"49":0.7302677035331726,"50":0.04456894472241402,"51":0.14986445009708405,"52":-0.45467597246170044,"53":0.06244406849145889,"54":0.26677146553993225,"55":0.439628928899765,"56":-0.10069736838340759,"57":-0.30812785029411316,"58":-0.17611157894134521,"59":-0.0474211610853672,"60":0.2468441277742386,"61":-0.2643040716648102,"62":0.2743068039417267,"63":-0.33912572264671326}},"cellActivationBias":{"rows":8,"columns":1,"weights":{"0":-0.7853923439979553,"1":2.1409013271331787,"2":-1.5779922008514404,"3":1.9650256633758545,"4":0.5167700052261353,"5":-1.2070109844207764,"6":1.7704612016677856,"7":2.817380666732788}}},{"inputMatrix":{"rows":8,"columns":8,"weights":{"0":-1.8866485357284546,"1":0.759471595287323,"2":1.6795413494110107,"3":0.14078818261623383,"4":-1.336421012878418,"5":-0.12859216332435608,"6":1.6624329090118408,"7":-0.8580766320228577,"8":-0.8808000087738037,"9":0.11802314966917038,"10":0.3736732006072998,"11":-0.6563836932182312,"12":-0.4560976028442383,"13":0.21530456840991974,"14":0.7282883524894714,"15":-0.6292864084243774,"16":-1.7891067266464233,"17":1.4369999170303345,"18":0.9606799483299255,"19":1.6104943752288818,"20":-1.2993347644805908,"21":-0.6504755020141602,"22":1.8479690551757812,"23":0.534969687461853,"24":-0.3412816822528839,"25":-0.8466338515281677,"26":0.09305655211210251,"27":-0.02551136165857315,"28":1.414929986000061,"29":-1.025388479232788,"30":1.0701113939285278,"31":2.7386109828948975,"32":-0.6060310006141663,"33":-1.0270507335662842,"34":0.35852253437042236,"35":-1.0357582569122314,"36":0.9027594327926636,"37":0.03457892686128616,"38":0.47615763545036316,"39":-0.19849893450737,"40":2.090207099914551,"41":0.5926929712295532,"42":-1.7006785869598389,"43":1.0926711559295654,"44":0.8754338026046753,"45":1.3773082494735718,"46":-0.6684461236000061,"47":0.9708496332168579,"48":0.16805605590343475,"49":2.3131909370422363,"50":-0.5716155767440796,"51":2.9275949001312256,"52":-1.9531135559082031,"53":0.8567081093788147,"54":0.24579699337482452,"55":2.104724645614624,"56":-0.6443443894386292,"57":-1.5132883787155151,"58":0.8248035311698914,"59":-2.096734046936035,"60":1.2419044971466064,"61":-0.8086817860603333,"62":0.8331812024116516,"63":0.044595759361982346}},"inputHidden":{"rows":8,"columns":8,"weights":{"0":-0.15328773856163025,"1":0.3753368556499481,"2":0.85992830991745,"3":-0.2694721221923828,"4":-0.06079281121492386,"5":1.0147408246994019,"6":-0.0685000866651535,"7":-0.32316815853118896,"8":0.5378395915031433,"9":1.4106121063232422,"10":0.3588402271270752,"11":-0.19407552480697632,"12":-0.6716088056564331,"13":0.8631241917610168,"14":0.249892920255661,"15":-1.2332490682601929,"16":-0.22031545639038086,"17":-0.06211870536208153,"18":0.8683388233184814,"19":0.46822258830070496,"20":-0.1666748821735382,"21":-0.44272762537002563,"22":0.9375525712966919,"23":-0.1246894896030426,"24":0.830852210521698,"25":0.3830171823501587,"26":0.0644867941737175,"27":0.20673297345638275,"28":-0.2460363358259201,"29":-0.29812493920326233,"30":0.9860177040100098,"31":-0.23372620344161987,"32":0.5671707987785339,"33":0.5692471265792847,"34":-0.3260171413421631,"35":-0.4213213622570038,"36":-0.452070027589798,"37":1.4907206296920776,"38":-1.4512579441070557,"39":-0.8955067992210388,"40":0.8239735960960388,"41":0.6749829649925232,"42":-0.02244594879448414,"43":0.11163380742073059,"44":-0.04337720200419426,"45":0.8356926441192627,"46":0.37577715516090393,"47":-0.16120366752147675,"48":0.11845453828573227,"49":0.02914469875395298,"50":0.51290363073349,"51":-0.6251304149627686,"52":-0.04497912898659706,"53":-0.18020924925804138,"54":0.4123378098011017,"55":-0.8299242854118347,"56":-0.22508271038532257,"57":-0.6998869776725769,"58":0.3195117712020874,"59":0.13061584532260895,"60":0.08317188918590546,"61":0.2714730501174927,"62":0.46474727988243103,"63":0.072349913418293}},"inputBias":{"rows":8,"columns":1,"weights":{"0":-4.038374900817871,"1":-2.7427573204040527,"2":0.48946312069892883,"3":-1.4817938804626465,"4":-2.9056289196014404,"5":-0.6910789012908936,"6":-0.648191511631012,"7":-0.3652874827384949}},"forgetMatrix":{"rows":8,"columns":8,"weights":{"0":0.4665604531764984,"1":-0.8637523651123047,"2":-0.8691527247428894,"3":-1.471765160560608,"4":0.8611001372337341,"5":0.8489028215408325,"6":-0.5139386653900146,"7":0.14981843531131744,"8":0.7594135403633118,"9":-1.2908616065979004,"10":-0.8464138507843018,"11":-1.7773263454437256,"12":1.22727632522583,"13":0.4268122613430023,"14":-0.8078563213348389,"15":0.1813226193189621,"16":0.755057692527771,"17":-1.004026174545288,"18":-1.1025270223617554,"19":-0.7593719959259033,"20":0.8931586146354675,"21":0.7782711386680603,"22":-0.6875185966491699,"23":-0.36872753500938416,"24":0.9114790558815002,"25":-0.9713394045829773,"26":-0.6543822288513184,"27":-1.3844434022903442,"28":0.8377211689949036,"29":0.5945772528648376,"30":-0.6225760579109192,"31":-0.19969689846038818,"32":0.3257252871990204,"33":-0.7347236275672913,"34":-0.5590770244598389,"35":-0.7245598435401917,"36":0.6129556894302368,"37":0.5024410486221313,"38":-0.3484352231025696,"39":-0.18734465539455414,"40":1.3370620012283325,"41":-0.6394187808036804,"42":-0.049930594861507416,"43":-0.26254889369010925,"44":0.197647824883461,"45":0.3554142713546753,"46":-1.0802686214447021,"47":-0.5439119338989258,"48":0.3425615131855011,"49":0.19950920343399048,"50":-0.8935691118240356,"51":0.22617940604686737,"52":-0.38442251086235046,"53":0.3815680146217346,"54":0.11653559654951096,"55":0.17620082199573517,"56":0.040087003260850906,"57":-1.4866548776626587,"58":-0.12334905564785004,"59":-1.9343341588974,"60":1.3373206853866577,"61":0.41930171847343445,"62":-0.18630783259868622,"63":0.018006015568971634}},"forgetHidden":{"rows":8,"columns":8,"weights":{"0":1.7710201740264893,"1":1.9464633464813232,"2":-0.9005221128463745,"3":-0.7727740406990051,"4":-1.1327179670333862,"5":0.4639326333999634,"6":-1.154297113418579,"7":-1.6339402198791504,"8":1.40459144115448,"9":1.31614351272583,"10":-1.0232185125350952,"11":-0.30948159098625183,"12":-0.6621220707893372,"13":0.23480109870433807,"14":-0.5694748759269714,"15":-0.9781745076179504,"16":2.1689109802246094,"17":1.7209593057632446,"18":-1.4982250928878784,"19":-1.5706171989440918,"20":-1.2559871673583984,"21":1.1560235023498535,"22":-1.3256349563598633,"23":-1.2428209781646729,"24":1.4499263763427734,"25":1.1082028150558472,"26":-1.1620686054229736,"27":-1.619897484779358,"28":-0.9437239170074463,"29":0.9151659607887268,"30":-1.3014960289001465,"31":-0.9192894101142883,"32":0.8891016244888306,"33":0.7530999779701233,"34":-0.8025202751159668,"35":-0.7196584343910217,"36":-0.9093881249427795,"37":0.5243031978607178,"38":-1.2454986572265625,"39":-1.0286436080932617,"40":0.39218124747276306,"41":0.20616784691810608,"42":-1.1779415607452393,"43":-1.0578114986419678,"44":0.3113640546798706,"45":1.2147220373153687,"46":-1.3407022953033447,"47":0.00998341478407383,"48":0.7728170156478882,"49":0.8049924969673157,"50":-0.5718298554420471,"51":-1.2011260986328125,"52":0.049469754099845886,"53":1.5661654472351074,"54":-1.3226817846298218,"55":-0.8647748827934265,"56":0.3326044976711273,"57":0.15376149117946625,"58":-0.1942669153213501,"59":-0.7343175411224365,"60":-0.5972508192062378,"61":0.28285589814186096,"62":-0.7006737589836121,"63":-0.6309612393379211}},"forgetBias":{"rows":8,"columns":1,"weights":{"0":0,"1":0,"2":0,"3":0,"4":0,"5":0,"6":0,"7":0}},"outputMatrix":{"rows":8,"columns":8,"weights":{"0":-0.5919249653816223,"1":-0.254988431930542,"2":0.014489521272480488,"3":-0.7741960287094116,"4":0.0015532762045040727,"5":0.2791862487792969,"6":0.42419299483299255,"7":-0.7585006952285767,"8":-0.1853790432214737,"9":-0.42291417717933655,"10":-0.1789434850215912,"11":-1.2290186882019043,"12":0.19616948068141937,"13":0.47775688767433167,"14":0.09092439711093903,"15":-0.3474137783050537,"16":-1.115210771560669,"17":0.21685872972011566,"18":0.29082077741622925,"19":0.6260523200035095,"20":-0.09875181317329407,"21":-0.39680925011634827,"22":1.1704115867614746,"23":0.26335734128952026,"24":-0.35905537009239197,"25":-0.5112394690513611,"26":0.09623914957046509,"27":-0.45450839400291443,"28":0.8185925483703613,"29":-0.2064511924982071,"30":0.7188827991485596,"31":1.2828878164291382,"32":-0.4891844689846039,"33":-0.9183260798454285,"34":0.09466703981161118,"35":-0.7194697260856628,"36":0.7635387182235718,"37":0.3134611248970032,"38":0.2676585912704468,"39":-0.21910303831100464,"40":1.440070390701294,"41":0.18852612376213074,"42":-1.6733136177062988,"43":0.7379152178764343,"44":1.210153579711914,"45":0.969880998134613,"46":-0.7434505820274353,"47":0.7363125681877136,"48":0.24788431823253632,"49":1.3313405513763428,"50":-1.2680491209030151,"51":1.353659987449646,"52":-1.1357135772705078,"53":0.8108620643615723,"54":0.28004130721092224,"55":1.0959193706512451,"56":-0.22903972864151,"57":-1.9094974994659424,"58":0.3233683705329895,"59":-2.5050981044769287,"60":1.5400619506835938,"61":0.06226294860243797,"62":0.2705361247062683,"63":-0.07258932292461395}},"outputHidden":{"rows":8,"columns":8,"weights":{"0":1.0734302997589111,"1":1.5778961181640625,"2":-0.2689705491065979,"3":-0.8584680557250977,"4":-0.9625858664512634,"5":1.3303067684173584,"6":-0.9483131170272827,"7":-1.5480226278305054,"8":1.0437278747558594,"9":1.773654818534851,"10":-0.23743680119514465,"11":-0.38908591866493225,"12":-0.9755032658576965,"13":1.001003384590149,"14":-0.057532407343387604,"15":-1.5833709239959717,"16":0.8283334374427795,"17":0.5197558999061584,"18":-0.18335480988025665,"19":-0.40659192204475403,"20":-0.328457236289978,"21":0.3509344160556793,"22":-0.17906296253204346,"23":-0.3857341706752777,"24":1.179662823677063,"25":0.7046552896499634,"26":-0.2956412732601166,"27":-0.8559720516204834,"28":-0.6495209336280823,"29":0.509386420249939,"30":-0.1599057912826538,"31":-0.6117652654647827,"32":0.706745445728302,"33":0.7103355526924133,"34":-0.4552661180496216,"35":-0.5757650136947632,"36":-0.5630970001220703,"37":1.1929562091827393,"38":-1.1875715255737305,"39":-0.9591180682182312,"40":1.0427581071853638,"41":0.7504490613937378,"42":-0.4167693555355072,"43":-0.26076146960258484,"44":-0.028674989938735962,"45":1.2718653678894043,"46":-0.2717548906803131,"47":-0.29656049609184265,"48":0.526699960231781,"49":0.5759294033050537,"50":-0.16434887051582336,"51":-0.9786407351493835,"52":-0.38776424527168274,"53":0.8234859108924866,"54":-0.8125349283218384,"55":-1.0188288688659668,"56":0.22821499407291412,"57":-0.24554505944252014,"58":0.07406558841466904,"59":-0.4635104835033417,"60":-0.32967060804367065,"61":0.5338608026504517,"62":-0.21989957988262177,"63":-0.4046512246131897}},"outputBias":{"rows":8,"columns":1,"weights":{"0":-0.9397706985473633,"1":-1.1898508071899414,"2":-1.1270252466201782,"3":-2.0626418590545654,"4":-2.6149802207946777,"5":0.7649132013320923,"6":-2.594956159591675,"7":-1.4111225605010986}},"cellActivationMatrix":{"rows":8,"columns":8,"weights":{"0":1.5695130825042725,"1":-0.668184220790863,"2":-1.332291603088379,"3":-0.5684489011764526,"4":0.5150384306907654,"5":0.928090512752533,"6":-1.8671722412109375,"7":0.215536430478096,"8":1.337160348892212,"9":-0.4062202572822571,"10":-1.2744901180267334,"11":-0.09863176196813583,"12":0.7465974688529968,"13":0.5319796800613403,"14":-1.427402377128601,"15":0.3979080617427826,"16":-1.4543702602386475,"17":1.6607590913772583,"18":1.00070321559906,"19":1.6886215209960938,"20":-1.389264702796936,"21":-0.4928549528121948,"22":1.706888198852539,"23":0.8355548977851868,"24":-0.9285760521888733,"25":0.21585986018180847,"26":0.6925995349884033,"27":0.2838257849216461,"28":0.030568158254027367,"29":-0.7201630473136902,"30":1.3547492027282715,"31":0.39592763781547546,"32":-1.0270508527755737,"33":0.8108200430870056,"34":0.8259763717651367,"35":0.8484283089637756,"36":-0.5967963933944702,"37":-0.5761585831642151,"38":1.0610705614089966,"39":0.48249128460884094,"40":-0.2467810958623886,"41":0.26705029606819153,"42":1.1510953903198242,"43":-1.010972499847412,"44":-1.4981440305709839,"45":1.5363346338272095,"46":-0.35383790731430054,"47":-1.3102984428405762,"48":-0.752787172794342,"49":0.8939902782440186,"50":0.48225775361061096,"51":1.3033887147903442,"52":-0.7716693878173828,"53":-0.4030013382434845,"54":1.2348790168762207,"55":0.6656341552734375,"56":-1.2177081108093262,"57":0.17254813015460968,"58":1.269677758216858,"59":0.07244285941123962,"60":-0.3473406434059143,"61":-0.9191280603408813,"62":1.4985014200210571,"63":0.13612687587738037}},"cellActivationHidden":{"rows":8,"columns":8,"weights":{"0":0.6551750898361206,"1":0.3532011806964874,"2":-1.0767041444778442,"3":-0.6535033583641052,"4":-0.5824314951896667,"5":0.47114360332489014,"6":-0.5617274045944214,"7":-0.5347583293914795,"8":0.30270761251449585,"9":0.08875708281993866,"10":-0.7938154339790344,"11":-0.39736849069595337,"12":-0.31810256838798523,"13":0.6700284481048584,"14":-0.5102333426475525,"15":-0.2734321355819702,"16":-0.5762068033218384,"17":0.121382936835289,"18":0.9048962593078613,"19":0.6578153371810913,"20":0.053235333412885666,"21":-0.7145996689796448,"22":1.5675216913223267,"23":-0.06435847282409668,"24":-0.4860355854034424,"25":-0.219756618142128,"26":0.7857558727264404,"27":0.5158997178077698,"28":0.3111211955547333,"29":-0.12159023433923721,"30":0.1899755448102951,"31":0.4269426167011261,"32":-0.18990011513233185,"33":-0.10807764530181885,"34":0.4123196005821228,"35":0.2872421443462372,"36":-0.016766231507062912,"37":-0.3485679626464844,"38":0.612932026386261,"39":-0.09812182933092117,"40":0.2508392632007599,"41":0.5408211350440979,"42":-1.1853926181793213,"43":-1.3611892461776733,"44":-0.6416321992874146,"45":-0.22468909621238708,"46":-0.26468369364738464,"47":-0.4736696481704712,"48":-0.6164346933364868,"49":-0.5631732940673828,"50":1.2924505472183228,"51":0.8025561571121216,"52":0.9434369206428528,"53":0.09030107408761978,"54":0.16502989828586578,"55":0.4886159300804138,"56":-0.6840174794197083,"57":-0.5317239761352539,"58":0.6103538870811462,"59":0.49734944105148315,"60":0.3224288821220398,"61":-0.6069555878639221,"62":0.6699577569961548,"63":0.40933758020401}},"cellActivationBias":{"rows":8,"columns":1,"weights":{"0":-0.18598350882530212,"1":0.34994709491729736,"2":0.7164239287376404,"3":2.1572258472442627,"4":0.89198237657547,"5":0.5175867676734924,"6":0.6200238466262817,"7":0.7262016534805298}}}],"outputConnector":{"rows":4,"columns":8,"weights":{"0":-1.621518850326538,"1":-1.1975394487380981,"2":2.300990581512451,"3":0.6416495442390442,"4":1.0739719867706299,"5":0.4479314088821411,"6":0.6650847792625427,"7":0.4745781719684601,"8":0.2953832447528839,"9":0.13809815049171448,"10":-1.919969081878662,"11":-2.2196857929229736,"12":-0.8410279750823975,"13":1.2029975652694702,"14":0.045412857085466385,"15":-1.1952056884765625,"16":-0.6783638596534729,"17":-0.5627263188362122,"18":-0.32922619581222534,"19":0.49243852496147156,"20":1.2582812309265137,"21":0.9097740054130554,"22":-1.5902832746505737,"23":1.4822473526000977,"24":1.509913444519043,"25":0.5792189836502075,"26":-1.902056097984314,"27":-0.7156255841255188,"28":-1.4288887977600098,"29":-0.06038480997085571,"30":-0.5460819005966187,"31":-0.45408526062965393}},"output":{"rows":4,"columns":1,"weights":{"0":-0.7298088073730469,"1":1.8914824724197388,"2":0.8672407865524292,"3":1.5623939037322998}}}
>>>>>>> cc9ed1f0c6d05ceb2d980cddf747154072d9f94f
