{"type":"LSTMTimeStep","options":{"inputSize":4,"hiddenLayers":[8,8],"outputSize":4,"decayRate":0.999,"smoothEps":1e-8,"regc":0.000001,"clipval":5},"hiddenLayers":[{"inputMatrix":{"rows":8,"columns":4,"weights":{"0":1.2624462842941284,"1":-1.3139417171478271,"2":1.231657862663269,"3":3.2306172847747803,"4":-0.6605024933815002,"5":3.5525739192962646,"6":-1.6789016723632812,"7":1.6798423528671265,"8":-0.6335123181343079,"9":-0.9404540061950684,"10":-3.095963716506958,"11":-4.003990173339844,"12":2.160997152328491,"13":0.6600891351699829,"14":2.8548011779785156,"15":0.6349497437477112,"16":1.0493320226669312,"17":0.2210393249988556,"18":3.2581818103790283,"19":-1.8477783203125,"20":0.40010836720466614,"21":0.524391770362854,"22":0.5019210577011108,"23":1.4483085870742798,"24":1.8734831809997559,"25":0.895037829875946,"26":-0.3766525983810425,"27":2.895437717437744,"28":-0.24162130057811737,"29":1.9981938600540161,"30":2.1083383560180664,"31":2.8161587715148926}},"inputHidden":{"rows":8,"columns":8,"weights":{"0":0.9995025992393494,"1":-0.38386595249176025,"2":0.8195634484291077,"3":-1.3625144958496094,"4":0.0026519838720560074,"5":-0.5228675007820129,"6":-0.1946285218000412,"7":-1.1362719535827637,"8":-1.494645118713379,"9":-0.0848919153213501,"10":0.34636586904525757,"11":0.8044224381446838,"12":-0.4946545362472534,"13":-0.04894210025668144,"14":-0.22897373139858246,"15":0.5373824238777161,"16":-0.7911472916603088,"17":0.5564762949943542,"18":0.13449059426784515,"19":0.25548890233039856,"20":-0.21138018369674683,"21":0.26435190439224243,"22":-0.5777608752250671,"23":-1.3137379884719849,"24":1.1234108209609985,"25":0.2836912274360657,"26":-0.7946016788482666,"27":-1.6059272289276123,"28":1.3475264310836792,"29":0.27594301104545593,"30":-1.0677807331085205,"31":-0.8231117129325867,"32":0.6362968683242798,"33":0.0979512631893158,"34":0.026777205988764763,"35":-1.0935509204864502,"36":0.21903076767921448,"37":0.501846194267273,"38":-0.2349511981010437,"39":-1.8891088962554932,"40":0.18536874651908875,"41":-0.08344632387161255,"42":0.2657608389854431,"43":-0.5107811093330383,"44":-0.34266579151153564,"45":-0.5477467775344849,"46":0.4188046157360077,"47":0.5000923275947571,"48":1.342067003250122,"49":3.259340763092041,"50":-0.5280054211616516,"51":-1.647230863571167,"52":0.289901465177536,"53":-0.012182808481156826,"54":-0.8713554739952087,"55":-1.2164742946624756,"56":0.0843539834022522,"57":-0.20151065289974213,"58":2.3918557167053223,"59":0.12892836332321167,"60":0.24602150917053223,"61":0.4947558641433716,"62":0.5709078907966614,"63":-0.8843246102333069}},"inputBias":{"rows":8,"columns":1,"weights":{"0":0.07520333677530289,"1":2.0285887718200684,"2":1.205316185951233,"3":5.291768550872803,"4":-2.0002200603485107,"5":-2.570610523223877,"6":-0.28824520111083984,"7":-2.5374817848205566}},"forgetMatrix":{"rows":8,"columns":4,"weights":{"0":0.6762266755104065,"1":-2.750624656677246,"2":0.3762730062007904,"3":2.4216485023498535,"4":-2.120154857635498,"5":-0.4455878734588623,"6":-0.7112083435058594,"7":1.8019115924835205,"8":-1.1170613765716553,"9":-0.6660012006759644,"10":-2.996492624282837,"11":-3.5172226428985596,"12":0.16509661078453064,"13":-2.222054958343506,"14":0.034649498760700226,"15":1.1586874723434448,"16":-1.3417038917541504,"17":-1.745659351348877,"18":0.1516905575990677,"19":-3.715240955352783,"20":-0.44778376817703247,"21":1.2487198114395142,"22":0.8078798651695251,"23":-11.948123931884766,"24":-0.0752761960029602,"25":0.5206643342971802,"26":-4.361131191253662,"27":-0.7175722718238831,"28":-1.0078352689743042,"29":1.0341907739639282,"30":0.43817511200904846,"31":2.142700672149658}},"forgetHidden":{"rows":8,"columns":8,"weights":{"0":0.4176064431667328,"1":-0.8232038617134094,"2":0.5550514459609985,"3":-0.6748786568641663,"4":-0.6806824207305908,"5":-1.3204071521759033,"6":0.5870137810707092,"7":0.7976057529449463,"8":-1.4130949974060059,"9":-1.2006385326385498,"10":3.6227333545684814,"11":2.0152623653411865,"12":-2.0472888946533203,"13":-1.1772236824035645,"14":2.6787283420562744,"15":2.4368066787719727,"16":-0.7816709280014038,"17":-0.0898909792304039,"18":0.7750230431556702,"19":0.2114851176738739,"20":-0.9846543073654175,"21":1.8773077726364136,"22":-0.0463431179523468,"23":-2.805772066116333,"24":-0.28550460934638977,"25":-0.5889531373977661,"26":1.6367437839508057,"27":-0.07524425536394119,"28":-1.118600845336914,"29":-0.581672728061676,"30":1.458937406539917,"31":0.5862020254135132,"32":-1.7220054864883423,"33":-2.6031441688537598,"34":2.3488874435424805,"35":1.0733963251113892,"36":-0.9095160961151123,"37":-0.7518157362937927,"38":2.750918388366699,"39":0.41914108395576477,"40":-1.137536883354187,"41":0.11859356611967087,"42":-3.599781036376953,"43":0.11925733089447021,"44":0.8025505542755127,"45":1.047014832496643,"46":0.0897543728351593,"47":0.7523557543754578,"48":-0.9852070212364197,"49":0.6141778230667114,"50":0.3442433476448059,"51":0.3367063105106354,"52":-1.50905179977417,"53":1.9569427967071533,"54":-1.2169405221939087,"55":-0.20951585471630096,"56":-1.0186032056808472,"57":-1.0056058168411255,"58":5.217770576477051,"59":0.8928921222686768,"60":0.4851357042789459,"61":1.0183453559875488,"62":1.9238468408584595,"63":-1.1262151002883911}},"forgetBias":{"rows":8,"columns":1,"weights":{"0":0,"1":0,"2":0,"3":0,"4":0,"5":0,"6":0,"7":0}},"outputMatrix":{"rows":8,"columns":4,"weights":{"0":1.471063256263733,"1":-1.2381625175476074,"2":4.038041591644287,"3":1.1346896886825562,"4":-0.16754654049873352,"5":2.677516222000122,"6":-0.784641444683075,"7":1.718755841255188,"8":-0.25239098072052,"9":-0.7750185132026672,"10":-3.1704421043395996,"11":-4.998807907104492,"12":2.3601553440093994,"13":0.5205053091049194,"14":2.6295931339263916,"15":0.727453351020813,"16":0.387421190738678,"17":-0.8254738450050354,"18":1.747701644897461,"19":-2.6175105571746826,"20":1.7435927391052246,"21":1.8444170951843262,"22":1.2171977758407593,"23":2.386296272277832,"24":1.2255489826202393,"25":2.766401767730713,"26":-1.2250052690505981,"27":1.2321124076843262,"28":-0.04850587248802185,"29":1.5916043519973755,"30":2.797956705093384,"31":2.585026264190674}},"outputHidden":{"rows":8,"columns":8,"weights":{"0":2.9738457202911377,"1":1.4765442609786987,"2":-0.27379053831100464,"3":-3.047452688217163,"4":1.0160776376724243,"5":-0.7030301690101624,"6":-1.7332075834274292,"7":-1.45059072971344,"8":-0.6411250829696655,"9":-0.314048171043396,"10":-0.015832701697945595,"11":0.22712412476539612,"12":0.5233585834503174,"13":-0.3578578531742096,"14":-0.34243911504745483,"15":0.6446537971496582,"16":-0.4587603211402893,"17":0.3860394060611725,"18":-1.2560319900512695,"19":-0.062141090631484985,"20":0.08158184587955475,"21":1.1424404382705688,"22":-1.1202659606933594,"23":-0.11582166701555252,"24":1.4028708934783936,"25":0.5122976899147034,"26":-0.6893636584281921,"27":-1.866517186164856,"28":1.4844987392425537,"29":0.19381126761436462,"30":-1.0208665132522583,"31":-0.8134256601333618,"32":-0.262372225522995,"33":-1.315192461013794,"34":0.6038185954093933,"35":-0.37506991624832153,"36":-0.6359419226646423,"37":0.9906994700431824,"38":0.9509292840957642,"39":0.3281462490558624,"40":1.3953397274017334,"41":0.9449228048324585,"42":-0.6532121896743774,"43":-1.5641815662384033,"44":0.38037511706352234,"45":-0.05092553049325943,"46":-0.4025347828865051,"47":0.596882700920105,"48":0.29385319352149963,"49":2.828221321105957,"50":-0.17933081090450287,"51":-0.8116648197174072,"52":-0.590752124786377,"53":0.8357638716697693,"54":-0.3863910436630249,"55":-1.7610971927642822,"56":0.6367670893669128,"57":-0.3846011459827423,"58":2.0932400226593018,"59":-0.4034809470176697,"60":1.2260668277740479,"61":0.3495427370071411,"62":0.5491955876350403,"63":-0.10514827817678452}},"outputBias":{"rows":8,"columns":1,"weights":{"0":1.1515922546386719,"1":-1.705659031867981,"2":3.2686595916748047,"3":5.305269718170166,"4":-1.4582966566085815,"5":1.076249361038208,"6":-1.1911362409591675,"7":-3.4911468029022217}},"cellActivationMatrix":{"rows":8,"columns":4,"weights":{"0":0.7921959161758423,"1":-0.13532695174217224,"2":2.5084002017974854,"3":-0.46769291162490845,"4":0.21490971744060516,"5":3.8086087703704834,"6":-0.1908508837223053,"7":-0.45671555399894714,"8":0.004868758376687765,"9":-0.7162057161331177,"10":0.00042144671897403896,"11":0.36431801319122314,"12":-1.3077752590179443,"13":-0.5683868527412415,"14":-2.3579931259155273,"15":0.8801333904266357,"16":0.8739038109779358,"17":-0.8448544144630432,"18":8.315675735473633,"19":-1.5668842792510986,"20":0.3229844272136688,"21":1.3590911626815796,"22":2.1081736087799072,"23":-2.831326484680176,"24":0.1346255987882614,"25":-1.0935401916503906,"26":3.4226791858673096,"27":2.2827565670013428,"28":-0.7340307831764221,"29":-2.867500066757202,"30":-0.48657795786857605,"31":-0.7036969065666199}},"cellActivationHidden":{"rows":8,"columns":8,"weights":{"0":0.06945846974849701,"1":0.35897955298423767,"2":0.11343145370483398,"3":-0.6462984681129456,"4":0.8531120419502258,"5":0.24986642599105835,"6":-0.6791014075279236,"7":-0.8800894021987915,"8":0.5283192992210388,"9":-1.0172970294952393,"10":0.23879629373550415,"11":-0.9063752889633179,"12":1.2848259210586548,"13":0.7842841148376465,"14":0.5921884179115295,"15":-0.0986689031124115,"16":-1.010664701461792,"17":-1.8061110973358154,"18":2.3428571224212646,"19":1.5425173044204712,"20":-1.3089853525161743,"21":-0.7648732662200928,"22":0.591205358505249,"23":2.030639410018921,"24":-0.2963602840900421,"25":0.06328046321868896,"26":-0.015537942759692669,"27":0.3805721700191498,"28":-0.6682961583137512,"29":0.08405214548110962,"30":0.649528980255127,"31":0.5570773482322693,"32":0.2575097978115082,"33":-1.3590928316116333,"34":-1.1606968641281128,"35":-0.5664006471633911,"36":-0.6799944639205933,"37":-0.7711375951766968,"38":0.16608278453350067,"39":0.2066735178232193,"40":0.09244231879711151,"41":0.22821177542209625,"42":-0.8947348594665527,"43":-0.12973353266716003,"44":-0.12384937703609467,"45":-1.82834792137146,"46":0.052006933838129044,"47":2.6840829849243164,"48":0.430838942527771,"49":0.334110289812088,"50":0.7280935049057007,"51":0.08079155534505844,"52":-0.07536764442920685,"53":-0.06875193119049072,"54":-0.6880912780761719,"55":0.23008860647678375,"56":-0.46747612953186035,"57":-1.1207748651504517,"58":-2.535127878189087,"59":1.0192663669586182,"60":-1.537437915802002,"61":-1.0144916772842407,"62":0.10925999283790588,"63":-2.1165401935577393}},"cellActivationBias":{"rows":8,"columns":1,"weights":{"0":4.460094451904297,"1":0.6957756280899048,"2":-1.185308814048767,"3":-4.485769748687744,"4":0.3204137980937958,"5":-0.6557592749595642,"6":-3.5996205806732178,"7":1.130070447921753}}},{"inputMatrix":{"rows":8,"columns":8,"weights":{"0":1.0315210819244385,"1":0.2190241515636444,"2":2.4921529293060303,"3":-0.8320437073707581,"4":-1.039230465888977,"5":-1.3322733640670776,"6":0.012315494008362293,"7":-0.23159068822860718,"8":4.179901123046875,"9":2.2698686122894287,"10":-1.7904936075210571,"11":-4.272298812866211,"12":2.6973683834075928,"13":0.035719286650419235,"14":-1.8501689434051514,"15":-0.43192729353904724,"16":0.4265327751636505,"17":1.241621732711792,"18":1.766069769859314,"19":-0.012121127918362617,"20":0.0972374826669693,"21":-0.7691592574119568,"22":1.6160738468170166,"23":0.16926877200603485,"24":1.5417605638504028,"25":1.4660910367965698,"26":-3.349181652069092,"27":-2.049846649169922,"28":0.06035315990447998,"29":-2.3988189697265625,"30":-3.626631021499634,"31":2.1883814334869385,"32":3.1520538330078125,"33":2.848782777786255,"34":-0.7568037509918213,"35":-3.6822071075439453,"36":2.5160210132598877,"37":0.39354100823402405,"38":-2.8985493183135986,"39":-0.9681145548820496,"40":1.3028579950332642,"41":-0.4541373550891876,"42":1.377034068107605,"43":-0.5967575907707214,"44":-1.0896637439727783,"45":-1.833044409751892,"46":0.3039536774158478,"47":-0.10916993021965027,"48":1.045324444770813,"49":-0.927012026309967,"50":-1.6373485326766968,"51":-1.4898035526275635,"52":-0.2251596450805664,"53":0.12574522197246552,"54":-0.8090295195579529,"55":1.8714094161987305,"56":-0.27203598618507385,"57":-0.10454268008470535,"58":0.09082628786563873,"59":0.05579885467886925,"60":-0.9820360541343689,"61":-0.8443390130996704,"62":1.5760135650634766,"63":0.7199026942253113}},"inputHidden":{"rows":8,"columns":8,"weights":{"0":0.2790975570678711,"1":1.6549270153045654,"2":-0.5531836152076721,"3":0.9296947121620178,"4":0.63400799036026,"5":-0.22244049608707428,"6":1.6848503351211548,"7":-0.623542070388794,"8":-1.2484257221221924,"9":-1.7813777923583984,"10":0.2844724953174591,"11":-1.881777286529541,"12":-2.5894951820373535,"13":0.8058642148971558,"14":-1.4497798681259155,"15":1.3892502784729004,"16":-0.5952960848808289,"17":0.781769871711731,"18":-2.1868510246276855,"19":0.5508610010147095,"20":0.24556127190589905,"21":0.7282687425613403,"22":1.3344119787216187,"23":0.5185741186141968,"24":-1.1105520725250244,"25":-0.29227712750434875,"26":0.421649307012558,"27":-2.1306419372558594,"28":-0.12984482944011688,"29":1.5368555784225464,"30":-1.583021879196167,"31":0.8105431795120239,"32":-1.0594298839569092,"33":-1.7700127363204956,"34":-0.30252140760421753,"35":-1.2637027502059937,"36":-2.3587851524353027,"37":0.4078183174133301,"38":-1.073738932609558,"39":1.712154746055603,"40":-0.19608452916145325,"41":0.8920731544494629,"42":0.09344060719013214,"43":0.8185251951217651,"44":0.06241389736533165,"45":-0.5165020823478699,"46":0.7052396535873413,"47":0.43374794721603394,"48":-0.4624582827091217,"49":1.2133684158325195,"50":-1.5868197679519653,"51":1.0119876861572266,"52":0.9119123816490173,"53":-0.7567180395126343,"54":1.3804620504379272,"55":0.8120099902153015,"56":0.1949794739484787,"57":3.099290609359741,"58":-1.9931493997573853,"59":2.0470774173736572,"60":2.356428861618042,"61":-0.5918704271316528,"62":3.7376537322998047,"63":-1.1138635873794556}},"inputBias":{"rows":8,"columns":1,"weights":{"0":-5.2841033935546875,"1":-0.0783807709813118,"2":-1.0039610862731934,"3":-0.04313323274254799,"4":0.3706590235233307,"5":-3.3036108016967773,"6":-2.8802132606506348,"7":-0.266598641872406}},"forgetMatrix":{"rows":8,"columns":8,"weights":{"0":0.4608677923679352,"1":0.19183076918125153,"2":1.0474618673324585,"3":-0.560319721698761,"4":-0.26021483540534973,"5":-0.5971198081970215,"6":0.02549387887120247,"7":0.2574606239795685,"8":-0.2865126132965088,"9":-2.376317262649536,"10":1.6547906398773193,"11":0.5261592864990234,"12":-1.4435763359069824,"13":-1.7466914653778076,"14":2.1786949634552,"15":1.9200812578201294,"16":-0.1383715718984604,"17":1.5884038209915161,"18":4.972650527954102,"19":0.49438098073005676,"20":-1.3754972219467163,"21":-3.1010961532592773,"22":-0.2920420169830322,"23":-0.7145110964775085,"24":-1.5823956727981567,"25":-1.219543695449829,"26":1.172551155090332,"27":1.706651210784912,"28":-2.020798683166504,"29":-0.2385178953409195,"30":0.8283530473709106,"31":1.6683969497680664,"32":-2.023521900177002,"33":-0.8150497078895569,"34":0.33734792470932007,"35":1.0660794973373413,"36":-1.603095531463623,"37":-0.9028551578521729,"38":0.39885491132736206,"39":0.692139208316803,"40":0.5694883465766907,"41":-0.3237468898296356,"42":3.058054208755493,"43":-0.052233196794986725,"44":-1.849877953529358,"45":-1.5614900588989258,"46":0.4828331470489502,"47":-0.05213594809174538,"48":-0.7083880305290222,"49":-0.005595925729721785,"50":0.13101261854171753,"51":0.3227004408836365,"52":-1.6921910047531128,"53":0.08849922567605972,"54":0.032617077231407166,"55":-0.39953505992889404,"56":0.6607530117034912,"57":-1.504093885421753,"58":2.248501777648926,"59":-0.6519152522087097,"60":-0.0030690503772348166,"61":-0.34424811601638794,"62":2.016226053237915,"63":2.1911144256591797}},"forgetHidden":{"rows":8,"columns":8,"weights":{"0":0.890051543712616,"1":1.1377924680709839,"2":-0.08552366495132446,"3":1.1765027046203613,"4":0.4849430322647095,"5":-0.5033158659934998,"6":0.7699868679046631,"7":-0.24828772246837616,"8":0.38179418444633484,"9":2.477670431137085,"10":-1.430329442024231,"11":2.0069305896759033,"12":2.411440849304199,"13":-0.24087759852409363,"14":2.450777769088745,"15":-0.41872331500053406,"16":0.28603824973106384,"17":1.624899983406067,"18":-0.9417855739593506,"19":0.5569652915000916,"20":0.25318121910095215,"21":0.9351850152015686,"22":2.1107730865478516,"23":-0.5180641412734985,"24":0.8196857571601868,"25":2.0788066387176514,"26":0.12258236110210419,"27":1.7776169776916504,"28":1.887068748474121,"29":-1.6155731678009033,"30":2.74069881439209,"31":-1.1672898530960083,"32":1.8528249263763428,"33":3.4023828506469727,"34":-1.379970908164978,"35":1.8191386461257935,"36":2.2198843955993652,"37":-2.528853178024292,"38":2.2189676761627197,"39":-1.8494077920913696,"40":0.3434852659702301,"41":1.4049874544143677,"42":0.4076768159866333,"43":1.4945546388626099,"44":0.7271205186843872,"45":-0.7762503027915955,"46":1.4390878677368164,"47":-0.795028805732727,"48":1.007251262664795,"49":2.395688772201538,"50":-2.049201250076294,"51":2.1807165145874023,"52":1.4781056642532349,"53":-1.9002119302749634,"54":2.6844406127929688,"55":0.35743170976638794,"56":-0.14542220532894135,"57":1.1304783821105957,"58":0.33638036251068115,"59":1.1572749614715576,"60":0.6804497241973877,"61":0.17810995876789093,"62":0.9471273422241211,"63":1.448561429977417}},"forgetBias":{"rows":8,"columns":1,"weights":{"0":0,"1":0,"2":0,"3":0,"4":0,"5":0,"6":0,"7":0}},"outputMatrix":{"rows":8,"columns":8,"weights":{"0":1.1138674020767212,"1":0.4160242974758148,"2":2.797072649002075,"3":-1.0696512460708618,"4":-0.5882883071899414,"5":-1.2566484212875366,"6":0.3748839199542999,"7":-0.7609320282936096,"8":2.610992193222046,"9":-0.994273841381073,"10":-0.15837271511554718,"11":-2.783496856689453,"12":0.8079843521118164,"13":-0.29866135120391846,"14":0.3281816840171814,"15":0.23531131446361542,"16":0.08814218640327454,"17":1.3300693035125732,"18":2.1816813945770264,"19":0.30459752678871155,"20":-0.11893364787101746,"21":-0.7793349623680115,"22":1.4675319194793701,"23":-0.12097799777984619,"24":0.9715128540992737,"25":0.7786557078361511,"26":-0.7211434245109558,"27":-1.2974687814712524,"28":-2.560457468032837,"29":-1.3910508155822754,"30":-2.2924489974975586,"31":0.8774060010910034,"32":1.8126698732376099,"33":2.107050657272339,"34":-0.2757635712623596,"35":-2.534912347793579,"36":1.029903769493103,"37":1.3819711208343506,"38":-2.0985238552093506,"39":-2.2053117752075195,"40":2.2624318599700928,"41":0.6670168042182922,"42":-0.03257777541875839,"43":-1.7729456424713135,"44":-0.08318208903074265,"45":-1.500974416732788,"46":-0.6695094108581543,"47":-0.42399317026138306,"48":1.7420305013656616,"49":-0.7275179028511047,"50":-2.212970495223999,"51":-2.108961820602417,"52":0.06368528306484222,"53":0.12859106063842773,"54":-1.5257116556167603,"55":1.7901910543441772,"56":-0.02222338877618313,"57":-0.08694266527891159,"58":0.128682941198349,"59":-0.3522680401802063,"60":-0.7478744387626648,"61":-0.8206521272659302,"62":1.3364930152893066,"63":0.5570417642593384}},"outputHidden":{"rows":8,"columns":8,"weights":{"0":-0.003724058624356985,"1":0.958656907081604,"2":-0.28689202666282654,"3":0.9283247590065002,"4":0.5202441215515137,"5":0.20189684629440308,"6":1.0754756927490234,"7":0.11166514456272125,"8":-0.517716646194458,"9":0.8260688185691833,"10":0.48305606842041016,"11":0.7204146981239319,"12":-0.37088558077812195,"13":-0.6839144229888916,"14":0.5525400638580322,"15":0.09354480355978012,"16":-0.6319308876991272,"17":0.9648411273956299,"18":-2.240783929824829,"19":0.8245174884796143,"20":0.2972390353679657,"21":0.7080373764038086,"22":1.5538018941879272,"23":0.800170361995697,"24":-0.46807682514190674,"25":0.7166175246238708,"26":-0.48589685559272766,"27":0.449800044298172,"28":0.14816854894161224,"29":-0.4731665551662445,"30":1.1159976720809937,"31":0.7189781665802002,"32":-0.22224338352680206,"33":-0.3070686161518097,"34":-1.1060161590576172,"35":-0.558677077293396,"36":-0.9442464709281921,"37":-0.5930638313293457,"38":0.30532148480415344,"39":1.4795500040054321,"40":-0.4316498935222626,"41":-0.24266783893108368,"42":0.5608230233192444,"43":-0.1665249466896057,"44":-0.9246839880943298,"45":0.0786164402961731,"46":-0.38467949628829956,"47":1.0026171207427979,"48":-0.22199004888534546,"49":0.5769311785697937,"50":-1.457680583000183,"51":0.3904702663421631,"52":0.2499658316373825,"53":-0.5165586471557617,"54":0.7081767916679382,"55":1.1788878440856934,"56":-0.13218457996845245,"57":2.579655408859253,"58":-1.2673221826553345,"59":2.0088613033294678,"60":2.0173540115356445,"61":-0.2228824347257614,"62":3.2547836303710938,"63":-0.26118704676628113}},"outputBias":{"rows":8,"columns":1,"weights":{"0":-3.8181374073028564,"1":-4.2402520179748535,"2":-0.9083511829376221,"3":-4.635107040405273,"4":-1.3105390071868896,"5":0.2903291881084442,"6":-2.090230703353882,"7":0.5586838126182556}},"cellActivationMatrix":{"rows":8,"columns":8,"weights":{"0":-1.4906898736953735,"1":-0.8384427428245544,"2":0.5666791200637817,"3":1.5070319175720215,"4":-0.5933859944343567,"5":0.13856138288974762,"6":0.4410329759120941,"7":0.08089210093021393,"8":-2.1446046829223633,"9":-0.9398385882377625,"10":1.0722213983535767,"11":2.2199509143829346,"12":-1.237054705619812,"13":-0.31852513551712036,"14":0.5738927721977234,"15":0.38722535967826843,"16":1.402422547340393,"17":-3.1588070392608643,"18":0.8872929811477661,"19":-0.9421060681343079,"20":1.0349836349487305,"21":-0.7496177554130554,"22":2.4012866020202637,"23":2.7266552448272705,"24":-0.6067773103713989,"25":-0.04863496869802475,"26":1.9336177110671997,"27":1.0430113077163696,"28":2.4539525508880615,"29":1.5187922716140747,"30":0.8946072459220886,"31":-2.0267117023468018,"32":-2.13159441947937,"33":-1.1013872623443604,"34":0.7221196293830872,"35":2.5018656253814697,"36":-1.4228160381317139,"37":-0.4448370933532715,"38":1.0059900283813477,"39":0.5511447787284851,"40":2.230442523956299,"41":1.4741973876953125,"42":1.87809419631958,"43":-1.3862460851669312,"44":-2.356419801712036,"45":-3.619013786315918,"46":0.1732284277677536,"47":0.07104898989200592,"48":-1.372750163078308,"49":-0.5966185331344604,"50":0.48183390498161316,"51":2.057971954345703,"52":-1.0722613334655762,"53":-0.30159738659858704,"54":0.5696480870246887,"55":0.44435402750968933,"56":1.8791460990905762,"57":1.3748481273651123,"58":-0.5683702826499939,"59":-2.3085644245147705,"60":2.048973321914673,"61":0.7158789038658142,"62":-0.13849766552448273,"63":-0.7184844017028809}},"cellActivationHidden":{"rows":8,"columns":8,"weights":{"0":-0.00894874706864357,"1":-0.17608171701431274,"2":0.7281479239463806,"3":0.7843539118766785,"4":0.3668763339519501,"5":-0.07002829760313034,"6":-0.20274114608764648,"7":0.1161225289106369,"8":0.512575626373291,"9":0.4819748103618622,"10":0.6814582347869873,"11":1.2105952501296997,"12":0.44398388266563416,"13":-0.48433414101600647,"14":0.23174528777599335,"15":-0.17788447439670563,"16":-0.37047865986824036,"17":0.3333921432495117,"18":0.07122351229190826,"19":0.22467517852783203,"20":1.7731455564498901,"21":1.2730838060379028,"22":-1.0569816827774048,"23":1.6429731845855713,"24":1.463114857673645,"25":0.9386610984802246,"26":1.8805298805236816,"27":-0.2921660542488098,"28":0.3605251610279083,"29":-1.5055524110794067,"30":0.7747396230697632,"31":2.6724226474761963,"32":0.4160110056400299,"33":1.0125125646591187,"34":0.6884512901306152,"35":1.517256498336792,"36":0.35624656081199646,"37":-0.39355170726776123,"38":0.6165066361427307,"39":-0.6181555986404419,"40":-1.2156357765197754,"41":0.6471937298774719,"42":-1.7956280708312988,"43":-1.0020475387573242,"44":0.17495834827423096,"45":-0.6554535627365112,"46":1.0772007703781128,"47":2.00335693359375,"48":0.10060551762580872,"49":0.5146175622940063,"50":0.04110731557011604,"51":0.24782414734363556,"52":0.48517486453056335,"53":-0.31854337453842163,"54":0.10114123672246933,"55":0.18249189853668213,"56":-0.44299155473709106,"57":-1.3967154026031494,"58":-0.6838788390159607,"59":-0.6110969185829163,"60":-0.9260990619659424,"61":0.11412454396486282,"62":-0.7109450101852417,"63":0.9028323888778687}},"cellActivationBias":{"rows":8,"columns":1,"weights":{"0":-1.45651113986969,"1":-1.4601842164993286,"2":2.628178834915161,"3":0.10469202697277069,"4":-0.8085362911224365,"5":-1.7744085788726807,"6":-2.4514963626861572,"7":0.4338426887989044}}}],"outputConnector":{"rows":4,"columns":8,"weights":{"0":-1.4861334562301636,"1":-0.09557138383388519,"2":-1.1140518188476562,"3":0.22539560496807098,"4":-0.17304566502571106,"5":0.2738841772079468,"6":-0.5593153238296509,"7":-0.21260753273963928,"8":-0.4488305151462555,"9":3.6325833797454834,"10":-1.2979485988616943,"11":0.30334576964378357,"12":2.682283878326416,"13":-0.8893455862998962,"14":1.8938945531845093,"15":-1.427164912223816,"16":-0.710459291934967,"17":0.21939586102962494,"18":1.1173275709152222,"19":3.3773794174194336,"20":1.4062377214431763,"21":-0.6088674664497375,"22":2.091663360595703,"23":1.1590096950531006,"24":-2.7280569076538086,"25":0.11180674284696579,"26":-0.346453458070755,"27":-0.5803149342536926,"28":0.39695602655410767,"29":3.2001166343688965,"30":1.020257830619812,"31":0.9333940148353577}},"output":{"rows":4,"columns":1,"weights":{"0":0.8430287837982178,"1":3.970771312713623,"2":2.1940486431121826,"3":0.530524492263794}}}